


    // !!! This file is generated using emlearn !!!

    #include <eml_trees.h>
    

static const EmlTreesNode model_nodes[1297] = {
  { 0, 0.048298f, 1, 134 },
  { 11, 621.093750f, 1, 13 },
  { 1, 0.001063f, 1, 11 },
  { 0, 0.021231f, -1, 1 },
  { 7, 25.374215f, 1, 8 },
  { 9, 5.787663f, -2, 1 },
  { 0, 0.029693f, 1, 5 },
  { 8, 7.382326f, 1, -1 },
  { 12, 1523.437500f, 1, -3 },
  { 7, 17.751247f, 1, -1 },
  { 10, 6.361041f, -2, -1 },
  { 0, 0.031450f, -3, -1 },
  { 0, 0.029217f, -2, -1 },
  { 9, 10.841362f, -3, -4 },
  { 2, 0.185424f, 1, 91 },
  { 7, 29.262966f, 1, 76 },
  { 8, 7.647570f, 1, 27 },
  { 0, 0.021009f, 1, 4 },
  { 0, 0.020943f, -1, 1 },
  { 0, 0.020956f, -2, 1 },
  { 8, 6.105781f, -3, -1 },
  { 0, 0.025903f, 1, 21 },
  { 6, 6.273114f, 1, 11 },
  { 5, 1.503963f, 1, 5 },
  { 0, 0.024246f, 1, 3 },
  { 0, 0.021939f, 1, -2 },
  { 11, 2214.843750f, -2, -3 },
  { 11, 2074.218750f, -1, -3 },
  { 11, 1406.250000f, 1, 3 },
  { 4, 3.757219f, 1, -1 },
  { 7, 17.890379f, -3, -1 },
  { 12, 1089.843750f, -1, 1 },
  { 7, 19.290807f, -2, -3 },
  { 11, 714.843750f, -3, 1 },
  { 1, 0.000656f, 1, 7 },
  { 8, 5.992842f, 1, 3 },
  { 1, 0.000556f, -2, 1 },
  { 5, 1.553578f, -3, -2 },
  { 12, 1113.281250f, 1, -2 },
  { 8, 6.568510f, 1, -2 },
  { 8, 6.540731f, -2, -3 },
  { 4, 5.196654f, -3, -2 },
  { 7, 25.673693f, -3, -2 },
  { 0, 0.026841f, 1, 24 },
  { 11, 1207.031250f, 1, 11 },
  { 0, 0.022830f, 1, 3 },
  { 6, 6.004994f, 1, -1 },
  { 13, 2250.000000f, -2, -1 },
  { 12, 996.093750f, -1, 1 },
  { 7, 18.844655f, 1, 3 },
  { 5, 1.513975f, 1, -1 },
  { 6, 5.435746f, -3, -2 },
  { 4, 4.935269f, 1, -2 },
  { 11, 1066.406250f, 1, -2 },
  { 12, 1488.281250f, -3, -2 },
  { 0, 0.024557f, 1, 4 },
  { 3, 4.955378f, -2, 1 },
  { 8, 7.906934f, 1, -1 },
  { 2, -0.137804f, -3, -1 },
  { 12, 1441.406250f, 1, 3 },
  { 0, 0.025365f, 1, -1 },
  { 13, 2859.375000f, -2, -3 },
  { 8, 7.857029f, -2, 1 },
  { 2, -0.214060f, -1, 1 },
  { 9, 8.808455f, 1, -1 },
  { 4, 4.171106f, 1, -3 },
  { 6, 6.198308f, -3, -1 },
  { 9, 6.904174f, 1, 4 },
  { 0, 0.027151f, -2, 1 },
  { 12, 937.500000f, -3, 1 },
  { 6, 9.388298f, -3, -2 },
  { 11, 2976.562500f, 1, -1 },
  { 4, 3.539064f, 1, 3 },
  { 0, 0.029044f, 1, -3 },
  { 10, 7.119473f, -3, -1 },
  { 1, 0.000752f, 1, 3 },
  { 3, 7.007857f, 1, -2 },
  { 5, 1.481304f, -1, -3 },
  { 2, 0.167055f, 1, 10 },
  { 0, 0.047277f, 1, 8 },
  { 5, 1.697689f, 1, -2 },
  { 12, 527.343750f, 1, 2 },
  { 13, 2402.343750f, -3, -1 },
  { 11, 1406.250000f, 1, -3 },
  { 11, 1335.937500f, 1, -1 },
  { 7, 25.679537f, -3, 1 },
  { 7, 25.721075f, -2, -3 },
  { 1, 0.002259f, -4, -3 },
  { 3, 7.182793f, 1, -2 },
  { 10, 9.499982f, -3, 1 },
  { 1, 0.001286f, -1, -3 },
  { 0, 0.045664f, 1, -3 },
  { 12, 902.343750f, 1, 3 },
  { 13, 1113.281250f, 1, -2 },
  { 8, 8.079604f, -2, -3 },
  { 13, 937.500000f, 1, 4 },
  { 5, 1.695578f, 1, 2 },
  { 0, 0.032536f, -2, -3 },
  { 4, 7.605706f, -2, -3 },
  { 8, 12.258731f, 1, 4 },
  { 4, 5.432843f, 1, -2 },
  { 13, 1664.062500f, 1, -3 },
  { 4, 5.416157f, -2, -3 },
  { 8, 12.282410f, -3, 1 },
  { 7, 34.423457f, -3, -2 },
  { 6, 9.125908f, 1, 23 },
  { 12, 996.093750f, 1, 5 },
  { 1, 0.000701f, 1, 3 },
  { 7, 18.209983f, 1, -1 },
  { 0, 0.021545f, -1, -3 },
  { 9, 8.920970f, -3, -1 },
  { 2, 0.235547f, 1, 8 },
  { 0, 0.026659f, 1, 5 },
  { 11, 1312.500000f, 1, 3 },
  { 13, 1300.781250f, -2, 1 },
  { 7, 18.178685f, -3, -2 },
  { 12, 2027.343750f, -2, -1 },
  { 7, 19.536788f, 1, -3 },
  { 11, 2121.093750f, -1, -3 },
  { 0, 0.021425f, -1, 1 },
  { 9, 7.638631f, 1, 5 },
  { 0, 0.026021f, 1, -3 },
  { 2, 0.246470f, -1, 1 },
  { 9, 7.173310f, -2, 1 },
  { 0, 0.022113f, -1, -2 },
  { 0, 0.028622f, 1, -3 },
  { 6, 8.765155f, -1, 1 },
  { 10, 7.184262f, -2, -1 },
  { 6, 10.390176f, 1, 3 },
  { 8, 9.839329f, -2, 1 },
  { 5, 1.767906f, -3, -2 },
  { 0, 0.012351f, -1, 1 },
  { 11, 914.062500f, 1, -2 },
  { 9, 9.631627f, -2, -3 },
  { 3, 4.973522f, 1, 2 },
  { 8, 37.980135f, -4, -5 },
  { 13, 363.281250f, -5, 1 },
  { 1, 0.005148f, 1, -5 },
  { 10, 24.036538f, 1, -1 },
  { 11, 1710.937500f, -4, 1 },
  { 3, 7.875925f, -4, -3 },
  { 8, 50.994427f, 1, -5 },
  { 9, 13.452482f, 1, 101 },
  { 11, 621.093750f, 1, 11 },
  { 0, 0.030070f, 1, 9 },
  { 4, 6.050576f, 1, 7 },
  { 2, -0.100097f, 1, -1 },
  { 4, 4.417532f, 1, 3 },
  { 2, -0.221485f, -1, 1 },
  { 0, 0.027858f, -1, -3 },
  { 4, 4.751596f, 1, -1 },
  { 0, 0.022143f, -1, -2 },
  { 8, 4.424323f, -1, -2 },
  { 1, 0.001886f, -3, -4 },
  { 12, 1441.406250f, 1, 56 },
  { 7, 28.596988f, 1, 46 },
  { 0, 0.026828f, 1, 27 },
  { 5, 1.491923f, 1, 4 },
  { 13, 3058.593750f, 1, -1 },
  { 0, 0.017574f, -1, 1 },
  { 9, 8.642689f, -2, -1 },
  { 1, 0.000460f, 1, 4 },
  { 0, 0.020951f, -1, 1 },
  { 9, 5.256647f, 1, -1 },
  { 0, 0.021076f, -3, -2 },
  { 13, 2964.843750f, 1, -1 },
  { 10, 6.279401f, 1, 6 },
  { 6, 7.201488f, 1, -2 },
  { 11, 1183.593750f, -2, 1 },
  { 11, 2906.250000f, 1, -3 },
  { 11, 2167.968750f, 1, -1 },
  { 1, 0.000617f, -2, -3 },
  { 6, 7.443238f, 1, 6 },
  { 3, 5.374906f, -1, 1 },
  { 13, 1277.343750f, 1, -1 },
  { 1, 0.000574f, -1, 1 },
  { 0, 0.025912f, 1, -3 },
  { 6, 7.083590f, -2, -1 },
  { 7, 20.355724f, 1, 3 },
  { 6, 7.639995f, -2, 1 },
  { 5, 1.539651f, -3, -1 },
  { 0, 0.025195f, 1, -2 },
  { 11, 2085.937500f, -2, -1 },
  { 9, 13.072308f, 1, 16 },
  { 10, 12.569297f, 1, -4 },
  { 4, 5.961174f, 1, 12 },
  { 1, 0.002271f, 1, -4 },
  { 1, 0.000841f, 1, 4 },
  { 5, 1.606675f, 1, -2 },
  { 8, 10.150689f, 1, -1 },
  { 9, 8.709137f, -3, -1 },
  { 10, 9.631814f, 1, 2 },
  { 5, 1.651172f, -3, -2 },
  { 2, 0.173781f, 1, 3 },
  { 0, 0.031378f, 1, -3 },
  { 9, 9.868598f, -2, -1 },
  { 0, 0.032166f, -1, -3 },
  { 11, 949.218750f, -3, 1 },
  { 1, 0.000790f, -2, -3 },
  { 9, 13.410926f, 1, -3 },
  { 0, 0.046866f, -3, -4 },
  { 8, 15.208010f, 1, -3 },
  { 5, 1.645791f, 1, 2 },
  { 1, 0.000902f, -2, -3 },
  { 2, -0.533185f, 1, 2 },
  { 8, 12.948259f, -2, -3 },
  { 13, 2882.812500f, 1, 3 },
  { 10, 11.952138f, -2, 1 },
  { 11, 1218.750000f, -2, -3 },
  { 8, 12.053477f, -2, -3 },
  { 0, 0.025295f, 1, 15 },
  { 12, 2976.562500f, 1, -1 },
  { 13, 1710.937500f, 1, 8 },
  { 1, 0.000440f, -1, 1 },
  { 10, 6.802333f, 1, 5 },
  { 1, 0.000449f, 1, 2 },
  { 13, 1113.281250f, -2, -1 },
  { 4, 3.767948f, 1, -2 },
  { 9, 5.792835f, -2, -3 },
  { 7, 20.567701f, -1, -2 },
  { 9, 4.544411f, -1, 1 },
  { 11, 1160.156250f, -2, 1 },
  { 12, 1769.531250f, 1, -1 },
  { 5, 1.549552f, 1, -1 },
  { 6, 6.810840f, -3, -2 },
  { 5, 1.681870f, 1, 16 },
  { 0, 0.028161f, 1, 11 },
  { 7, 24.450417f, 1, -2 },
  { 10, 7.424382f, 1, 6 },
  { 9, 8.265773f, 1, 3 },
  { 3, 6.018485f, -3, 1 },
  { 7, 20.218149f, -2, -3 },
  { 8, 9.141018f, -3, 1 },
  { 9, 8.447383f, -1, -3 },
  { 9, 7.834569f, 1, 2 },
  { 11, 2214.843750f, -2, -3 },
  { 8, 10.223983f, -3, -1 },
  { 2, 0.342507f, 1, 2 },
  { 0, 0.052927f, -3, -4 },
  { 10, 11.663308f, 1, -4 },
  { 12, 2179.687500f, -1, -3 },
  { 5, 1.694163f, 1, -2 },
  { 10, 9.533468f, -2, -3 },
  { 11, 410.156250f, 1, 2 },
  { 0, 0.039137f, -1, -4 },
  { 1, 0.002520f, 1, -4 },
  { 6, 11.711839f, 1, -2 },
  { 13, 621.093750f, -1, 1 },
  { 3, 4.821460f, -1, -3 },
  { 12, 621.093750f, 1, 24 },
  { 9, 37.030989f, 1, -5 },
  { 12, 363.281250f, 1, 4 },
  { 12, 328.125000f, -1, 1 },
  { 1, 0.000289f, -1, 1 },
  { 10, 6.790056f, -2, -3 },
  { 10, 10.004932f, 1, 14 },
  { 0, 0.030599f, 1, 11 },
  { 7, 24.266849f, 1, 9 },
  { 11, 1441.406250f, 1, 5 },
  { 6, 7.115035f, -1, 1 },
  { 11, 843.750000f, -1, 1 },
  { 13, 2015.625000f, 1, -1 },
  { 3, 5.349984f, -1, -2 },
  { 0, 0.025659f, 1, 2 },
  { 12, 386.718750f, -3, -1 },
  { 9, 8.829710f, -3, -1 },
  { 0, 0.015829f, -1, -2 },
  { 9, 11.010764f, 1, -4 },
  { 3, 9.516782f, -3, -2 },
  { 0, 0.043264f, 1, 2 },
  { 3, 7.076820f, -1, -3 },
  { 12, 445.312500f, -4, 1 },
  { 9, 25.430097f, -4, -1 },
  { 6, 9.461361f, 1, 100 },
  { 10, 6.230871f, 1, 25 },
  { 0, 0.020943f, -1, 1 },
  { 11, 1640.625000f, 1, 20 },
  { 0, 0.025612f, 1, 14 },
  { 1, 0.000488f, 1, 6 },
  { 11, 1160.156250f, 1, 2 },
  { 5, 1.537248f, -2, -1 },
  { 2, -0.066360f, -1, 1 },
  { 6, 5.844080f, -2, 1 },
  { 5, 1.473973f, -2, -1 },
  { 11, 738.281250f, 1, 2 },
  { 4, 4.250165f, -3, -2 },
  { 8, 8.945833f, 1, 4 },
  { 0, 0.024924f, -2, 1 },
  { 4, 4.001274f, -1, 1 },
  { 5, 1.499860f, -3, -2 },
  { 7, 18.866298f, -3, -2 },
  { 5, 1.613209f, 1, -2 },
  { 8, 6.129798f, -2, 1 },
  { 5, 1.489270f, -2, 1 },
  { 3, 7.043448f, -3, 1 },
  { 5, 1.583566f, -2, -3 },
  { 1, 0.000568f, 1, -3 },
  { 2, 0.087092f, 1, -2 },
  { 1, 0.000488f, -1, -3 },
  { 9, 13.622456f, 1, 73 },
  { 11, 550.781250f, 1, 7 },
  { 0, 0.042695f, 1, -4 },
  { 10, 7.858829f, 1, 4 },
  { 1, 0.000764f, 1, 2 },
  { 9, 6.617024f, -2, -1 },
  { 9, 7.559928f, -2, -3 },
  { 12, 3023.437500f, -3, -1 },
  { 3, 9.147225f, 1, 58 },
  { 9, 7.463568f, 1, 16 },
  { 0, 0.025738f, 1, 9 },
  { 1, 0.000581f, 1, 4 },
  { 6, 8.372365f, 1, -2 },
  { 3, 5.402318f, 1, -1 },
  { 3, 5.354302f, -1, -2 },
  { 9, 7.391805f, 1, 3 },
  { 8, 7.061113f, -3, 1 },
  { 2, -0.365062f, -1, -2 },
  { 12, 1300.781250f, -2, -1 },
  { 3, 6.976903f, 1, 5 },
  { 0, 0.025891f, 1, 2 },
  { 1, 0.000667f, -3, -2 },
  { 13, 468.750000f, 1, -3 },
  { 5, 1.552168f, -3, -2 },
  { 1, 0.000765f, -2, -3 },
  { 12, 2976.562500f, 1, -1 },
  { 12, 1441.406250f, 1, 33 },
  { 2, 0.139452f, 1, 27 },
  { 10, 7.466301f, 1, 6 },
  { 0, 0.026646f, 1, 3 },
  { 11, 1113.281250f, 1, -1 },
  { 9, 7.742049f, -2, -1 },
  { 6, 8.068747f, -3, 1 },
  { 1, 0.000863f, -2, -3 },
  { 3, 4.825858f, 1, 2 },
  { 3, 4.694307f, -3, -1 },
  { 8, 15.798806f, 1, 17 },
  { 3, 7.688895f, 1, 12 },
  { 5, 1.483825f, 1, 2 },
  { 10, 7.755173f, -1, -3 },
  { 12, 1148.437500f, 1, 4 },
  { 2, 0.101742f, 1, 2 },
  { 1, 0.000670f, -1, -3 },
  { 6, 6.752146f, -2, -3 },
  { 9, 12.206516f, 1, -4 },
  { 7, 21.779460f, 1, 3 },
  { 4, 3.566186f, -1, 1 },
  { 0, 0.027039f, -1, -3 },
  { 0, 0.030455f, -1, -3 },
  { 12, 843.750000f, 1, 2 },
  { 6, 7.021969f, -4, -3 },
  { 5, 1.692090f, 1, -2 },
  { 10, 7.567262f, -2, -3 },
  { 10, 11.155598f, -3, -4 },
  { 1, 0.000937f, 1, -3 },
  { 10, 7.999694f, 1, -1 },
  { 5, 1.560173f, -2, 1 },
  { 6, 8.360413f, 1, -2 },
  { 1, 0.000785f, -1, -3 },
  { 2, 0.374181f, 1, 6 },
  { 1, 0.000699f, 1, 4 },
  { 1, 0.000626f, -1, 1 },
  { 7, 18.696788f, -3, 1 },
  { 9, 8.176243f, -2, -3 },
  { 0, 0.053466f, -3, -4 },
  { 1, 0.001111f, -1, -3 },
  { 4, 5.421093f, 1, 4 },
  { 6, 8.026228f, 1, 2 },
  { 1, 0.000824f, -2, -3 },
  { 8, 11.101431f, -2, -3 },
  { 2, -0.115758f, 1, -2 },
  { 3, 9.505920f, 1, -3 },
  { 8, 8.025126f, -2, -3 },
  { 1, 0.002614f, -3, -4 },
  { 12, 1019.531250f, 1, 2 },
  { 5, 1.688183f, -3, -2 },
  { 13, 714.843750f, 1, 3 },
  { 8, 11.091001f, -2, 1 },
  { 7, 31.013323f, -4, -3 },
  { 12, 2871.093750f, 1, 7 },
  { 3, 9.249672f, 1, 2 },
  { 9, 8.495780f, -2, -3 },
  { 7, 33.765287f, 1, 2 },
  { 1, 0.001342f, -2, -3 },
  { 13, 890.625000f, 1, -2 },
  { 4, 7.461496f, -2, -3 },
  { 6, 10.753497f, 1, 2 },
  { 8, 6.680556f, -2, -3 },
  { 8, 4.259208f, -1, -2 },
  { 0, 0.048417f, 1, 118 },
  { 6, 9.295115f, 1, 102 },
  { 11, 644.531250f, 1, 16 },
  { 12, 2496.093750f, 1, 12 },
  { 0, 0.033380f, 1, 10 },
  { 7, 19.077270f, 1, 4 },
  { 12, 1078.125000f, -1, 1 },
  { 11, 386.718750f, 1, -1 },
  { 3, 4.884503f, -2, -1 },
  { 0, 0.026183f, 1, 4 },
  { 8, 6.194289f, -1, 1 },
  { 9, 5.550334f, 1, -1 },
  { 5, 1.484910f, -2, -1 },
  { 2, -0.144319f, -3, -1 },
  { 8, 12.605405f, -3, -4 },
  { 12, 2941.406250f, -3, 1 },
  { 13, 796.875000f, -1, 1 },
  { 7, 17.442866f, -2, -1 },
  { 5, 1.492483f, 1, 22 },
  { 1, 0.000673f, 1, 16 },
  { 1, 0.000407f, -1, 1 },
  { 10, 6.321321f, 1, 10 },
  { 2, 0.306907f, 1, 8 },
  { 11, 738.281250f, -3, 1 },
  { 9, 7.518102f, 1, 5 },
  { 1, 0.000471f, 1, -2 },
  { 2, -0.029310f, 1, -2 },
  { 2, -0.087976f, -2, 1 },
  { 4, 4.357074f, -1, -2 },
  { 4, 4.723245f, -2, -3 },
  { 6, 6.933509f, -3, -2 },
  { 3, 4.724891f, -1, 1 },
  { 0, 0.025844f, 1, -1 },
  { 11, 1230.468750f, -2, 1 },
  { 5, 1.484876f, -2, -1 },
  { 6, 4.967817f, 1, 2 },
  { 10, 8.076967f, -1, -3 },
  { 12, 527.343750f, 1, -3 },
  { 1, 0.000738f, -3, 1 },
  { 10, 8.887136f, -1, -3 },
  { 1, 0.000718f, 1, 36 },
  { 6, 7.704287f, 1, 26 },
  { 0, 0.021909f, 1, 4 },
  { 0, 0.020951f, -1, 1 },
  { 10, 5.525286f, 1, -1 },
  { 4, 4.371466f, -3, -2 },
  { 1, 0.000647f, 1, 13 },
  { 12, 1253.906250f, 1, 7 },
  { 13, 632.812500f, -1, 1 },
  { 4, 3.940384f, 1, 2 },
  { 11, 1160.156250f, -2, -1 },
  { 2, 0.056114f, -2, 1 },
  { 0, 0.022864f, -1, 1 },
  { 5, 1.500896f, -3, -2 },
  { 8, 7.391533f, 1, 3 },
  { 0, 0.022962f, 1, -2 },
  { 12, 2566.406250f, -3, -1 },
  { 9, 6.548523f, 1, -1 },
  { 12, 2695.312500f, -2, -3 },
  { 2, 0.088439f, 1, 6 },
  { 10, 6.586417f, 1, 2 },
  { 6, 6.812939f, -3, -2 },
  { 4, 4.596730f, 1, 2 },
  { 10, 6.800702f, -2, -1 },
  { 4, 4.729662f, -3, -2 },
  { 1, 0.000667f, -3, 1 },
  { 3, 6.749574f, -1, -2 },
  { 0, 0.021512f, 1, 3 },
  { 2, 0.170458f, 1, -1 },
  { 5, 1.541748f, -2, -1 },
  { 7, 21.234156f, 1, 4 },
  { 8, 8.045361f, 1, -2 },
  { 4, 5.446367f, -2, 1 },
  { 2, 0.301522f, -3, -2 },
  { 11, 1464.843750f, -2, 1 },
  { 11, 1488.281250f, -3, -2 },
  { 0, 0.027868f, 1, 9 },
  { 7, 24.450417f, 1, -2 },
  { 0, 0.027571f, 1, 5 },
  { 9, 8.315958f, 1, 3 },
  { 5, 1.553475f, -3, 1 },
  { 11, 1476.562500f, -2, -3 },
  { 2, -0.103712f, -3, -1 },
  { 2, 0.120977f, 1, -1 },
  { 9, 8.638936f, -3, -1 },
  { 6, 8.276978f, 1, 10 },
  { 5, 1.671246f, 1, -2 },
  { 0, 0.029121f, 1, 6 },
  { 2, 0.217457f, 1, -1 },
  { 10, 8.229288f, 1, 2 },
  { 3, 9.192938f, -3, -2 },
  { 6, 5.982489f, 1, -1 },
  { 5, 1.548136f, -1, -3 },
  { 6, 8.063832f, -3, 1 },
  { 6, 8.067313f, -1, -3 },
  { 0, 0.028902f, 1, 2 },
  { 4, 5.282300f, -2, -3 },
  { 7, 29.021892f, 1, 5 },
  { 1, 0.000920f, 1, -3 },
  { 3, 7.993559f, 1, -2 },
  { 13, 515.625000f, 1, -3 },
  { 6, 8.718509f, -1, -3 },
  { 5, 1.676359f, -3, -2 },
  { 1, 0.000344f, -1, 1 },
  { 13, 972.656250f, 1, 4 },
  { 3, 7.661491f, 1, 2 },
  { 0, 0.025981f, -2, -3 },
  { 10, 9.382649f, -2, -3 },
  { 3, 9.249672f, 1, 4 },
  { 1, 0.000759f, -2, 1 },
  { 8, 8.692295f, 1, -3 },
  { 11, 2085.937500f, -2, -3 },
  { 6, 9.520017f, 1, 2 },
  { 7, 29.015494f, -3, -2 },
  { 7, 28.710753f, 1, 2 },
  { 0, 0.034727f, -2, -3 },
  { 1, 0.002119f, -2, 1 },
  { 4, 6.345415f, -3, -2 },
  { 3, 4.919529f, 1, 3 },
  { 12, 585.937500f, 1, -4 },
  { 8, 37.588773f, -4, -5 },
  { 9, 27.639417f, 1, 6 },
  { 10, 16.097635f, 1, 3 },
  { 0, 0.049953f, 1, -4 },
  { 1, 0.002491f, -4, -3 },
  { 5, 1.590747f, -4, 1 },
  { 7, 26.881143f, -4, -3 },
  { 9, 39.940881f, -1, -5 },
  { 9, 36.383740f, 1, -5 },
  { 9, 13.018656f, 1, 139 },
  { 12, 632.812500f, 1, 31 },
  { 4, 6.346765f, 1, 26 },
  { 10, 10.010390f, 1, 22 },
  { 13, 855.468750f, 1, 9 },
  { 4, 5.626398f, 1, 7 },
  { 7, 18.911166f, -1, 1 },
  { 3, 6.011976f, 1, -1 },
  { 13, 539.062500f, 1, -3 },
  { 7, 18.964103f, -3, 1 },
  { 4, 4.905796f, -1, 1 },
  { 6, 7.712843f, -3, -1 },
  { 11, 843.750000f, -1, -2 },
  { 7, 21.591917f, 1, 9 },
  { 13, 1089.843750f, 1, 4 },
  { 12, 386.718750f, 1, -1 },
  { 12, 363.281250f, 1, -2 },
  { 7, 16.587300f, -3, -1 },
  { 0, 0.031063f, 1, -3 },
  { 1, 0.000525f, -1, 1 },
  { 12, 386.718750f, 1, -1 },
  { 11, 1289.062500f, -2, -3 },
  { 1, 0.000901f, 1, 2 },
  { 6, 7.238146f, -3, -1 },
  { 3, 6.333818f, -4, -3 },
  { 13, 632.812500f, 1, 2 },
  { 2, 0.153451f, -4, -1 },
  { 12, 410.156250f, -4, -1 },
  { 3, 9.309080f, 1, 3 },
  { 0, 0.021246f, -1, 1 },
  { 8, 13.813189f, -3, -4 },
  { 0, 0.012448f, -1, -2 },
  { 1, 0.000438f, -1, 1 },
  { 12, 1441.406250f, 1, 66 },
  { 7, 28.696181f, 1, 58 },
  { 0, 0.026847f, 1, 31 },
  { 9, 6.919868f, 1, 18 },
  { 11, 2683.593750f, 1, 15 },
  { 13, 2976.562500f, 1, -1 },
  { 7, 14.896400f, -3, 1 },
  { 0, 0.024858f, 1, 8 },
  { 9, 6.407551f, 1, 4 },
  { 6, 5.345334f, 1, 2 },
  { 12, 1183.593750f, -2, -1 },
  { 8, 5.306313f, -3, -2 },
  { 5, 1.550586f, -2, 1 },
  { 0, 0.023890f, 1, -2 },
  { 8, 8.088446f, -3, -1 },
  { 13, 2648.437500f, 1, -3 },
  { 3, 6.498020f, 1, -2 },
  { 0, 0.025237f, 1, -3 },
  { 3, 5.580083f, -3, -2 },
  { 6, 7.383641f, 1, -2 },
  { 6, 6.513678f, -1, -3 },
  { 2, -0.235922f, -1, 1 },
  { 7, 22.452657f, 1, -2 },
  { 12, 1160.156250f, 1, 7 },
  { 5, 1.496948f, -2, 1 },
  { 4, 5.285678f, 1, -3 },
  { 13, 1417.968750f, 1, -2 },
  { 4, 4.440459f, 1, -2 },
  { 12, 1042.968750f, -1, 1 },
  { 6, 6.353377f, -2, -1 },
  { 12, 1242.187500f, 1, -1 },
  { 5, 1.527569f, 1, -1 },
  { 8, 8.888569f, -2, -1 },
  { 7, 25.454049f, 1, 20 },
  { 8, 12.582107f, 1, 17 },
  { 4, 3.741903f, 1, 4 },
  { 2, -0.131002f, 1, -1 },
  { 1, 0.000826f, 1, -3 },
  { 7, 17.601117f, -3, -1 },
  { 7, 18.056970f, 1, 3 },
  { 5, 1.520491f, -3, 1 },
  { 6, 6.425775f, -3, -1 },
  { 3, 7.991911f, 1, 8 },
  { 2, 0.171066f, 1, 4 },
  { 12, 1136.718750f, -3, 1 },
  { 8, 10.920949f, -3, 1 },
  { 0, 0.029972f, -1, -3 },
  { 7, 19.236354f, -1, 1 },
  { 8, 10.487038f, -3, 1 },
  { 2, 0.292187f, -1, -3 },
  { 9, 10.262426f, -2, -3 },
  { 1, 0.002285f, 1, -4 },
  { 13, 515.625000f, -1, -3 },
  { 10, 7.923105f, 1, 5 },
  { 11, 1300.781250f, 1, 3 },
  { 1, 0.000770f, -2, 1 },
  { 4, 4.914935f, -2, -3 },
  { 0, 0.029832f, -2, -3 },
  { 13, 515.625000f, -4, -3 },
  { 11, 2882.812500f, 1, 6 },
  { 1, 0.002116f, 1, -3 },
  { 11, 984.375000f, 1, 2 },
  { 8, 11.412354f, -2, -3 },
  { 13, 925.781250f, 1, -2 },
  { 0, 0.041446f, -2, -3 },
  { 9, 8.797343f, -2, -3 },
  { 7, 29.135725f, 1, 35 },
  { 1, 0.000634f, 1, 18 },
  { 10, 6.602424f, 1, 14 },
  { 12, 2976.562500f, 1, -1 },
  { 9, 7.745828f, 1, -1 },
  { 12, 1488.281250f, 1, 4 },
  { 11, 738.281250f, -1, 1 },
  { 0, 0.021939f, 1, -2 },
  { 7, 20.209483f, -3, -2 },
  { 1, 0.000454f, 1, 2 },
  { 5, 1.561855f, -2, -1 },
  { 8, 7.953209f, 1, 4 },
  { 6, 6.085117f, 1, -2 },
  { 13, 1113.281250f, 1, -2 },
  { 4, 3.848772f, -3, -2 },
  { 1, 0.000600f, -2, -3 },
  { 8, 8.590135f, 1, -1 },
  { 11, 2156.250000f, -2, 1 },
  { 3, 5.757792f, -3, -1 },
  { 12, 2988.281250f, 1, -1 },
  { 3, 9.350997f, 1, 14 },
  { 1, 0.002416f, 1, -4 },
  { 10, 7.473634f, 1, 11 },
  { 3, 7.589434f, 1, -2 },
  { 4, 3.351457f, 1, 2 },
  { 13, 1113.281250f, -1, -3 },
  { 2, 0.358461f, 1, -2 },
  { 5, 1.482083f, 1, 2 },
  { 5, 1.479087f, -3, -2 },
  { 0, 0.025745f, 1, 2 },
  { 1, 0.000659f, -3, -1 },
  { 13, 1136.718750f, 1, -3 },
  { 10, 7.456952f, -3, -2 },
  { 0, 0.026834f, -1, -3 },
  { 4, 5.126968f, -3, -2 },
  { 10, 11.065670f, 1, 4 },
  { 3, 9.954274f, 1, -2 },
  { 4, 5.848142f, -3, 1 },
  { 9, 8.975345f, -2, -3 },
  { 3, 14.755509f, -3, -2 },
  { 7, 37.145620f, 1, -2 },
  { 5, 1.615872f, 1, 14 },
  { 6, 5.170230f, 1, 3 },
  { 7, 16.547246f, 1, -4 },
  { 1, 0.002208f, -1, -4 },
  { 8, 14.288464f, 1, 4 },
  { 12, 820.312500f, -4, 1 },
  { 9, 13.490859f, 1, -4 },
  { 6, 8.343064f, -3, -4 },
  { 1, 0.002354f, 1, 3 },
  { 12, 667.968750f, 1, -3 },
  { 0, 0.036379f, -1, -4 },
  { 10, 22.901809f, 1, -1 },
  { 0, 0.049939f, 1, -4 },
  { 0, 0.049903f, -4, -3 },
  { 8, 15.413815f, -3, 1 },
  { 6, 7.702000f, -1, -4 },
  { 8, 51.616043f, 1, -5 },
  { 1, 0.002352f, 1, 119 },
  { 7, 28.936998f, 1, 104 },
  { 11, 621.093750f, 1, 14 },
  { 4, 6.273773f, 1, 11 },
  { 1, 0.000825f, 1, 8 },
  { 9, 5.385439f, -1, 1 },
  { 8, 5.636469f, -2, 1 },
  { 12, 996.093750f, -1, 1 },
  { 12, 1113.281250f, -2, 1 },
  { 3, 4.921289f, -2, 1 },
  { 0, 0.025907f, -1, 1 },
  { 4, 4.698457f, -3, -1 },
  { 11, 386.718750f, 1, -1 },
  { 8, 11.717777f, -3, -4 },
  { 6, 9.972510f, -1, 1 },
  { 5, 1.610955f, -2, -1 },
  { 9, 6.730240f, 1, 35 },
  { 3, 7.033921f, 1, 30 },
  { 13, 1898.437500f, 1, 24 },
  { 3, 4.913011f, 1, 6 },
  { 1, 0.000328f, -1, 1 },
  { 9, 6.067930f, -2, 1 },
  { 6, 5.435746f, 1, 2 },
  { 0, 0.023311f, -2, -3 },
  { 4, 4.673787f, -2, -3 },
  { 5, 1.495271f, 1, 6 },
  { 6, 6.775550f, 1, -2 },
  { 1, 0.000330f, -1, 1 },
  { 4, 4.513196f, 1, 2 },
  { 0, 0.026334f, -2, -3 },
  { 3, 5.462790f, -3, -2 },
  { 1, 0.000490f, 1, 3 },
  { 3, 6.835874f, -1, 1 },
  { 1, 0.000447f, -1, -2 },
  { 10, 5.694422f, 1, 3 },
  { 12, 1230.468750f, 1, -3 },
  { 7, 17.781995f, -3, -2 },
  { 12, 539.062500f, -2, 1 },
  { 1, 0.000602f, 1, 3 },
  { 0, 0.023363f, 1, -2 },
  { 12, 1980.468750f, -3, -2 },
  { 6, 8.948455f, -3, -2 },
  { 0, 0.021838f, 1, 3 },
  { 0, 0.021283f, -1, 1 },
  { 4, 4.976836f, -1, -2 },
  { 13, 2589.843750f, 1, -3 },
  { 8, 6.442063f, -2, -3 },
  { 8, 8.305374f, 1, 3 },
  { 3, 7.439436f, 1, -2 },
  { 0, 0.027901f, -2, -3 },
  { 1, 0.000773f, -2, -3 },
  { 3, 8.847398f, 1, 53 },
  { 10, 6.780702f, 1, 18 },
  { 1, 0.000638f, 1, 11 },
  { 4, 4.553395f, 1, 6 },
  { 3, 5.320183f, 1, 3 },
  { 1, 0.000519f, 1, -2 },
  { 11, 1160.156250f, -2, -1 },
  { 1, 0.000577f, -1, 1 },
  { 3, 5.724458f, -1, -2 },
  { 0, 0.021190f, -1, 1 },
  { 7, 20.907907f, 1, -2 },
  { 5, 1.534237f, 1, -1 },
  { 12, 1019.531250f, -3, -2 },
  { 7, 24.640817f, 1, 5 },
  { 9, 6.816438f, 1, 2 },
  { 13, 1476.562500f, -3, -1 },
  { 5, 1.482488f, 1, -3 },
  { 9, 7.628678f, -2, -3 },
  { 0, 0.028707f, -2, -3 },
  { 2, 0.241417f, 1, 28 },
  { 12, 2976.562500f, 1, -1 },
  { 7, 19.448794f, 1, 10 },
  { 1, 0.000717f, 1, 6 },
  { 5, 1.491067f, 1, 2 },
  { 0, 0.024562f, -1, -2 },
  { 6, 6.705724f, -1, 1 },
  { 13, 1230.468750f, 1, -1 },
  { 6, 6.951897f, -2, -3 },
  { 13, 3058.593750f, 1, -1 },
  { 0, 0.027737f, 1, -3 },
  { 6, 5.909772f, -1, -3 },
  { 13, 2988.281250f, 1, -1 },
  { 0, 0.026717f, 1, 6 },
  { 5, 1.550112f, 1, -2 },
  { 5, 1.523535f, 1, 2 },
  { 13, 1042.968750f, -1, -2 },
  { 8, 8.973098f, 1, -1 },
  { 2, -0.114895f, -1, -3 },
  { 13, 503.906250f, 1, 3 },
  { 0, 0.043962f, 1, -4 },
  { 13, 410.156250f, -3, -1 },
  { 5, 1.685554f, 1, -2 },
  { 5, 1.638990f, 1, 4 },
  { 2, 0.021418f, -3, 1 },
  { 1, 0.000830f, 1, -3 },
  { 10, 8.074658f, -3, -1 },
  { 1, 0.001030f, -2, -3 },
  { 0, 0.028622f, 1, 5 },
  { 5, 1.463020f, -2, 1 },
  { 7, 20.721073f, -1, 1 },
  { 12, 1171.875000f, 1, -1 },
  { 6, 7.605577f, -1, -2 },
  { 7, 19.473557f, -1, -3 },
  { 0, 0.030436f, -2, -3 },
  { 3, 10.284278f, 1, 5 },
  { 1, 0.000226f, -1, 1 },
  { 1, 0.000952f, -2, 1 },
  { 2, -0.089690f, -3, 1 },
  { 10, 7.776816f, -3, -2 },
  { 0, 0.019002f, -1, 1 },
  { 2, -0.530144f, 1, 4 },
  { 7, 39.185976f, 1, -2 },
  { 6, 11.202784f, 1, -3 },
  { 9, 12.347899f, -2, -3 },
  { 13, 832.031250f, 1, 2 },
  { 9, 10.764466f, -2, -3 },
  { 10, 11.505435f, -2, 1 },
  { 12, 1019.531250f, -3, -2 },
  { 9, 27.639417f, 1, -1 },
  { 11, 1746.093750f, -4, 1 },
  { 11, 1828.125000f, -3, -4 },
  { 0, 0.069498f, 1, 99 },
  { 0, 0.048298f, 1, 94 },
  { 11, 597.656250f, 1, 12 },
  { 8, 5.524847f, -1, 1 },
  { 4, 5.945122f, 1, 9 },
  { 1, 0.000905f, 1, 6 },
  { 1, 0.000514f, -1, 1 },
  { 8, 7.316422f, 1, 2 },
  { 0, 0.026120f, -2, -3 },
  { 12, 1406.250000f, -1, 1 },
  { 12, 1464.843750f, -3, -1 },
  { 1, 0.001890f, 1, -4 },
  { 7, 15.988434f, -1, -3 },
  { 2, 0.589666f, -2, -1 },
  { 7, 28.993399f, 1, 71 },
  { 0, 0.026729f, 1, 48 },
  { 8, 5.518429f, 1, 3 },
  { 5, 1.457146f, -2, 1 },
  { 6, 9.128452f, -1, -2 },
  { 0, 0.021310f, 1, 4 },
  { 1, 0.000439f, -1, 1 },
  { 1, 0.000452f, 1, -1 },
  { 10, 5.457017f, -2, -1 },
  { 10, 6.993972f, 1, 31 },
  { 11, 1160.156250f, 1, 9 },
  { 7, 15.278563f, -1, 1 },
  { 13, 3164.062500f, 1, -1 },
  { 0, 0.025405f, 1, 3 },
  { 11, 738.281250f, 1, -2 },
  { 5, 1.509850f, -3, -2 },
  { 4, 4.418097f, 1, 2 },
  { 6, 6.565238f, -3, -1 },
  { 0, 0.025468f, -3, -2 },
  { 11, 1417.968750f, 1, 4 },
  { 13, 2390.625000f, 1, -1 },
  { 5, 1.495570f, -2, 1 },
  { 6, 9.091146f, -1, -2 },
  { 13, 1277.343750f, 1, 8 },
  { 12, 1464.843750f, 1, 3 },
  { 5, 1.582780f, -2, 1 },
  { 4, 4.505125f, -1, -2 },
  { 3, 6.251580f, 1, 3 },
  { 3, 5.216372f, -2, 1 },
  { 8, 8.378226f, -3, -1 },
  { 10, 6.471703f, -2, -1 },
  { 3, 6.834682f, 1, -2 },
  { 1, 0.000659f, 1, -3 },
  { 11, 1488.281250f, 1, 4 },
  { 4, 5.146326f, 1, -3 },
  { 2, -0.007387f, -3, 1 },
  { 2, 0.224934f, -2, -3 },
  { 9, 7.351213f, 1, -3 },
  { 12, 1242.187500f, -2, 1 },
  { 6, 7.134485f, -1, -2 },
  { 4, 5.784125f, 1, -2 },
  { 6, 6.705724f, 1, 3 },
  { 3, 4.770525f, 1, -1 },
  { 3, 4.624228f, -1, -2 },
  { 0, 0.023319f, -1, 1 },
  { 12, 1171.875000f, 1, 3 },
  { 0, 0.025967f, -2, 1 },
  { 2, 0.148750f, -2, -1 },
  { 11, 1066.406250f, -2, -1 },
  { 0, 0.027777f, 1, 9 },
  { 13, 1207.031250f, 1, 6 },
  { 6, 7.852283f, 1, 4 },
  { 11, 1417.968750f, 1, -3 },
  { 9, 8.175843f, 1, -1 },
  { 11, 1007.812500f, -3, -2 },
  { 7, 24.683947f, -3, -2 },
  { 4, 4.972572f, -3, 1 },
  { 13, 1675.781250f, -3, -2 },
  { 1, 0.000848f, 1, 5 },
  { 8, 10.560690f, 1, 3 },
  { 6, 8.305990f, -3, 1 },
  { 8, 9.179882f, -3, -2 },
  { 9, 8.708295f, -3, -1 },
  { 2, 0.166300f, 1, 5 },
  { 0, 0.030466f, 1, 3 },
  { 5, 1.586119f, -3, 1 },
  { 5, 1.586873f, -1, -3 },
  { 5, 1.697689f, -3, -2 },
  { 2, 0.168060f, -2, 1 },
  { 10, 9.494678f, -3, 1 },
  { 1, 0.000975f, -1, -3 },
  { 11, 2882.812500f, 1, 8 },
  { 6, 8.296528f, -3, 1 },
  { 6, 11.405399f, 1, -2 },
  { 10, 9.946753f, 1, 3 },
  { 8, 11.728088f, -2, 1 },
  { 12, 1476.562500f, -2, -3 },
  { 0, 0.042915f, 1, -3 },
  { 10, 10.193091f, -3, -2 },
  { 3, 11.869885f, -3, 1 },
  { 0, 0.016065f, -1, -2 },
  { 5, 1.454900f, -5, 1 },
  { 8, 38.134618f, 1, -1 },
  { 0, 0.049863f, 1, -4 },
  { 10, 14.483161f, -4, -3 },
  { 8, 42.031674f, -4, -5 },
  { 0, 0.069954f, 1, 127 },
  { 8, 14.451016f, 1, 119 },
  { 1, 0.000458f, 1, 10 },
  { 12, 679.687500f, -1, 1 },
  { 12, 1160.156250f, 1, 5 },
  { 8, 5.146293f, -1, 1 },
  { 0, 0.020951f, -1, 1 },
  { 5, 1.475998f, -2, 1 },
  { 1, 0.000444f, -3, -2 },
  { 1, 0.000455f, 1, -2 },
  { 7, 24.514215f, -1, 1 },
  { 8, 4.516179f, -1, -2 },
  { 7, 28.983066f, 1, 99 },
  { 9, 7.370792f, 1, 47 },
  { 4, 5.028019f, 1, 38 },
  { 5, 1.489615f, 1, 8 },
  { 11, 949.218750f, 1, 5 },
  { 5, 1.479400f, 1, 3 },
  { 10, 5.766694f, 1, -3 },
  { 10, 5.443455f, -3, -2 },
  { 7, 16.263396f, -1, -2 },
  { 0, 0.025762f, 1, -3 },
  { 12, 667.968750f, -3, -2 },
  { 11, 1429.687500f, 1, 18 },
  { 0, 0.025367f, 1, 11 },
  { 10, 5.947316f, 1, 6 },
  { 6, 6.312990f, 1, 3 },
  { 7, 17.146978f, -2, 1 },
  { 10, 5.231075f, -2, -1 },
  { 8, 8.498992f, -2, 1 },
  { 6, 7.523883f, -2, -1 },
  { 13, 1148.437500f, 1, 2 },
  { 0, 0.023366f, -1, -2 },
  { 0, 0.024394f, -1, 1 },
  { 5, 1.503439f, -2, -1 },
  { 0, 0.028166f, 1, -3 },
  { 3, 6.886392f, 1, -2 },
  { 12, 597.656250f, -1, 1 },
  { 7, 17.513866f, -2, 1 },
  { 1, 0.000721f, -3, 1 },
  { 11, 1136.718750f, -2, -3 },
  { 5, 1.593931f, 1, 10 },
  { 12, 1394.531250f, 1, 7 },
  { 1, 0.000661f, 1, -3 },
  { 9, 6.697239f, 1, 4 },
  { 3, 5.957912f, 1, -2 },
  { 9, 5.682146f, -3, 1 },
  { 1, 0.000604f, -2, -3 },
  { 6, 6.179733f, -2, -1 },
  { 6, 7.019531f, -3, 1 },
  { 7, 23.771949f, -3, -2 },
  { 6, 6.900358f, -1, -2 },
  { 0, 0.028631f, 1, -3 },
  { 6, 8.553889f, 1, -2 },
  { 6, 8.423293f, 1, 3 },
  { 11, 2695.312500f, -2, 1 },
  { 1, 0.000715f, -2, -3 },
  { 5, 1.574705f, 1, -2 },
  { 11, 1300.781250f, 1, -3 },
  { 11, 1019.531250f, -3, -2 },
  { 11, 609.375000f, 1, 9 },
  { 9, 11.437606f, 1, 7 },
  { 7, 21.744147f, 1, 4 },
  { 1, 0.001750f, 1, -4 },
  { 0, 0.027858f, -1, 1 },
  { 9, 8.240194f, -3, -1 },
  { 0, 0.030300f, 1, -3 },
  { 13, 410.156250f, -3, -1 },
  { 10, 9.378203f, -1, -4 },
  { 0, 0.027592f, 1, 23 },
  { 4, 4.988770f, 1, 17 },
  { 1, 0.000712f, 1, 12 },
  { 3, 4.689317f, 1, 2 },
  { 2, 0.264037f, -2, -1 },
  { 5, 1.467702f, 1, 2 },
  { 0, 0.023835f, -2, -3 },
  { 7, 19.526516f, 1, 3 },
  { 4, 3.557836f, 1, -1 },
  { 4, 3.543006f, -1, -3 },
  { 11, 2472.656250f, 1, 3 },
  { 10, 5.927082f, -3, 1 },
  { 5, 1.524949f, -2, -1 },
  { 8, 9.141088f, -3, -1 },
  { 5, 1.538109f, 1, 3 },
  { 5, 1.483445f, 1, -3 },
  { 2, -0.238610f, -2, -3 },
  { 9, 8.622778f, -2, -1 },
  { 6, 8.662865f, 1, -2 },
  { 4, 5.439528f, 1, 3 },
  { 11, 2050.781250f, 1, -1 },
  { 9, 7.418628f, -3, -2 },
  { 2, 0.416199f, -3, -1 },
  { 5, 1.676566f, 1, -2 },
  { 7, 19.479794f, 1, 5 },
  { 1, 0.000850f, 1, 2 },
  { 10, 7.947546f, -3, -1 },
  { 0, 0.046582f, 1, -4 },
  { 7, 19.466859f, -3, -1 },
  { 10, 12.806071f, 1, 12 },
  { 9, 13.541512f, 1, -4 },
  { 0, 0.028229f, 1, 4 },
  { 7, 24.393435f, 1, 2 },
  { 10, 8.288472f, -3, -1 },
  { 2, -0.025747f, -3, -2 },
  { 9, 12.974488f, 1, 5 },
  { 5, 1.567071f, -3, 1 },
  { 5, 1.567467f, -1, 1 },
  { 1, 0.000844f, 1, -3 },
  { 8, 10.237731f, -3, -1 },
  { 9, 13.106628f, -4, -3 },
  { 3, 7.294460f, -4, -3 },
  { 3, 10.580568f, 1, 5 },
  { 11, 1640.625000f, 1, -3 },
  { 13, 1664.062500f, 1, -3 },
  { 9, 11.275292f, -2, 1 },
  { 9, 11.702299f, -1, -3 },
  { 0, 0.045188f, 1, 3 },
  { 13, 832.031250f, 1, -2 },
  { 8, 11.249375f, -2, -3 },
  { 0, 0.045767f, -3, -2 },
  { 11, 410.156250f, 1, 3 },
  { 1, 0.001522f, -1, 1 },
  { 8, 40.067946f, -4, -5 },
  { 0, 0.051035f, 1, -4 },
  { 12, 644.531250f, -1, 1 },
  { 7, 38.251307f, 1, -2 },
  { 0, 0.048833f, -3, -4 },
  { 3, 6.434374f, -5, -4 },
  { 9, 37.030989f, 1, -5 },
  { 0, 0.048284f, 1, 133 },
  { 12, 632.812500f, 1, 18 },
  { 7, 20.264391f, 1, 12 },
  { 1, 0.000883f, 1, 9 },
  { 11, 1453.125000f, 1, 4 },
  { 13, 937.500000f, -1, 1 },
  { 12, 386.718750f, 1, -1 },
  { 10, 3.600646f, -1, -2 },
  { 5, 1.527446f, 1, 3 },
  { 7, 19.135613f, -1, 1 },
  { 9, 7.102743f, -1, -3 },
  { 12, 421.875000f, -3, -1 },
  { 2, 0.037867f, -3, 1 },
  { 8, 22.678488f, -4, -1 },
  { 1, 0.000493f, -1, 1 },
  { 8, 7.333374f, -2, 1 },
  { 3, 6.032306f, -3, 1 },
  { 1, 0.000933f, -1, 1 },
  { 8, 12.535861f, -3, -4 },
  { 1, 0.000453f, 1, 9 },
  { 7, 16.388043f, 1, 3 },
  { 5, 1.450606f, 1, -1 },
  { 12, 1113.281250f, -1, -2 },
  { 1, 0.000439f, 1, 3 },
  { 1, 0.000404f, -1, 1 },
  { 5, 1.471437f, -2, -1 },
  { 7, 20.043382f, 1, -1 },
  { 12, 1289.062500f, -2, -1 },
  { 4, 5.647508f, 1, 83 },
  { 7, 29.087255f, 1, 79 },
  { 5, 1.473165f, 1, 6 },
  { 0, 0.026327f, 1, 4 },
  { 0, 0.024014f, 1, 2 },
  { 10, 7.446386f, -2, -1 },
  { 10, 7.817861f, -2, -1 },
  { 12, 1207.031250f, -1, -3 },
  { 8, 7.639417f, 1, 22 },
  { 1, 0.000652f, 1, 17 },
  { 6, 6.273114f, 1, 7 },
  { 9, 5.719012f, 1, 2 },
  { 5, 1.537378f, -2, -3 },
  { 10, 5.855759f, 1, 2 },
  { 0, 0.022306f, -1, -2 },
  { 11, 1406.250000f, -1, 1 },
  { 8, 7.366235f, -1, -2 },
  { 12, 843.750000f, -3, 1 },
  { 3, 6.342917f, 1, -2 },
  { 11, 1312.500000f, 1, 2 },
  { 5, 1.536703f, -2, -1 },
  { 0, 0.023497f, -3, 1 },
  { 11, 1851.562500f, 1, 2 },
  { 9, 6.075502f, -3, -2 },
  { 7, 19.871621f, -2, 1 },
  { 5, 1.522443f, -2, -3 },
  { 7, 25.182359f, 1, -2 },
  { 9, 6.223148f, 1, -3 },
  { 7, 20.838917f, -3, 1 },
  { 8, 6.528716f, -3, -2 },
  { 10, 7.202116f, 1, 27 },
  { 3, 6.781419f, 1, 21 },
  { 1, 0.000633f, 1, 6 },
  { 9, 6.223844f, -2, 1 },
  { 4, 4.891123f, 1, 3 },
  { 0, 0.023704f, -1, 1 },
  { 8, 7.906934f, -3, -1 },
  { 2, 0.099393f, -1, -2 },
  { 11, 2976.562500f, 1, -1 },
  { 8, 8.962468f, 1, 9 },
  { 10, 7.190722f, 1, -2 },
  { 4, 4.451756f, 1, -3 },
  { 6, 6.855327f, 1, -2 },
  { 4, 4.354460f, 1, 4 },
  { 8, 8.033395f, 1, -3 },
  { 12, 1125.000000f, -3, 1 },
  { 0, 0.027083f, -2, -3 },
  { 10, 6.796020f, -2, -3 },
  { 1, 0.000774f, 1, -3 },
  { 13, 1394.531250f, 1, -3 },
  { 11, 832.031250f, 1, -1 },
  { 1, 0.000720f, -1, -3 },
  { 13, 1289.062500f, 1, 3 },
  { 7, 26.950707f, 1, -3 },
  { 6, 7.026602f, -3, -2 },
  { 1, 0.000529f, -1, 1 },
  { 9, 7.854832f, -2, -3 },
  { 12, 2988.281250f, 1, -1 },
  { 2, 0.339803f, 1, 21 },
  { 13, 515.625000f, 1, 7 },
  { 12, 1300.781250f, 1, 3 },
  { 2, -0.082015f, 1, -1 },
  { 10, 7.292491f, -1, -3 },
  { 0, 0.026731f, -1, 1 },
  { 7, 19.079958f, 1, -3 },
  { 10, 9.068106f, -3, -1 },
  { 0, 0.026745f, 1, 3 },
  { 12, 1042.968750f, -1, 1 },
  { 4, 4.207813f, -1, -2 },
  { 3, 8.836663f, 1, 9 },
  { 0, 0.027592f, 1, 2 },
  { 8, 9.535204f, -3, -1 },
  { 0, 0.029150f, 1, 4 },
  { 5, 1.624161f, 1, -2 },
  { 9, 9.015497f, 1, -1 },
  { 10, 8.274576f, -3, -1 },
  { 9, 8.886385f, 1, -3 },
  { 5, 1.658093f, -3, -2 },
  { 0, 0.031288f, -2, -3 },
  { 5, 1.571247f, -1, -3 },
  { 5, 1.593017f, -3, 1 },
  { 12, 1710.937500f, -2, 1 },
  { 6, 9.259309f, -3, -2 },
  { 6, 9.863097f, 1, 12 },
  { 11, 1324.218750f, 1, 7 },
  { 11, 996.093750f, 1, 3 },
  { 5, 1.532445f, 1, -3 },
  { 4, 6.228801f, -2, -3 },
  { 3, 5.892741f, -3, 1 },
  { 10, 7.092837f, 1, -3 },
  { 1, 0.000833f, -2, -3 },
  { 2, 0.369904f, 1, -2 },
  { 4, 5.707658f, 1, 2 },
  { 11, 2273.437500f, -2, -1 },
  { 5, 1.517470f, -2, -3 },
  { 8, 14.578848f, 1, 9 },
  { 3, 7.237863f, -3, 1 },
  { 13, 808.593750f, 1, 2 },
  { 9, 9.729915f, -2, -3 },
  { 6, 11.113326f, 1, -2 },
  { 9, 10.131356f, 1, 3 },
  { 10, 8.243711f, -2, 1 },
  { 3, 9.223956f, -3, -2 },
  { 10, 10.397609f, -3, -2 },
  { 6, 12.625385f, -3, -2 },
  { 2, 0.654606f, 1, 6 },
  { 3, 8.001628f, 1, 4 },
  { 9, 28.286665f, 1, -1 },
  { 12, 691.406250f, -4, 1 },
  { 5, 1.597270f, -4, -3 },
  { 10, 15.695287f, -4, -3 },
  { 7, 20.474510f, -1, -4 },
  { 10, 11.309644f, 1, 109 },
  { 1, 0.000447f, 1, 7 },
  { 0, 0.020943f, 1, 4 },
  { 11, 1066.406250f, -1, 1 },
  { 3, 4.718883f, 1, -1 },
  { 1, 0.000304f, -1, -2 },
  { 3, 5.316526f, 1, -1 },
  { 3, 4.947661f, -2, -3 },
  { 6, 9.504763f, 1, 93 },
  { 10, 6.252117f, 1, 27 },
  { 0, 0.025951f, 1, 25 },
  { 11, 1160.156250f, 1, 11 },
  { 13, 3046.875000f, 1, -1 },
  { 11, 843.750000f, 1, 5 },
  { 10, 5.276349f, -2, 1 },
  { 12, 656.250000f, -1, 1 },
  { 6, 5.991039f, -3, 1 },
  { 0, 0.024185f, -1, -3 },
  { 0, 0.021315f, 1, 2 },
  { 9, 5.869026f, -2, -1 },
  { 2, -0.070309f, 1, -2 },
  { 2, -0.078911f, -2, -3 },
  { 5, 1.495149f, 1, 6 },
  { 4, 3.690090f, -3, 1 },
  { 1, 0.000471f, 1, 2 },
  { 11, 1476.562500f, -1, -2 },
  { 4, 4.558311f, -2, 1 },
  { 7, 18.634479f, -3, -2 },
  { 3, 6.418049f, 1, -2 },
  { 7, 19.058118f, 1, 3 },
  { 3, 5.207270f, -1, 1 },
  { 7, 18.785023f, -3, -1 },
  { 2, 0.126894f, 1, -1 },
  { 3, 6.043769f, -3, 1 },
  { 10, 5.805982f, -3, -2 },
  { 3, 7.467048f, -3, -2 },
  { 11, 597.656250f, 1, 11 },
  { 10, 9.557766f, 1, 7 },
  { 11, 386.718750f, 1, 4 },
  { 8, 9.543234f, 1, 2 },
  { 9, 7.060640f, -2, -3 },
  { 2, 0.149422f, -1, -3 },
  { 3, 4.969518f, 1, -1 },
  { 4, 3.895098f, -1, -3 },
  { 5, 1.604724f, 1, -1 },
  { 13, 445.312500f, -5, 1 },
  { 12, 410.156250f, -4, -1 },
  { 1, 0.000763f, 1, 40 },
  { 11, 1207.031250f, 1, 21 },
  { 8, 8.976767f, 1, 12 },
  { 8, 7.068835f, 1, 3 },
  { 9, 6.578499f, 1, -3 },
  { 12, 855.468750f, -1, -2 },
  { 12, 1019.531250f, 1, 3 },
  { 4, 4.731984f, -1, 1 },
  { 8, 7.645540f, -3, -2 },
  { 13, 2941.406250f, 1, -3 },
  { 7, 17.376477f, 1, 2 },
  { 12, 1394.531250f, -2, -3 },
  { 0, 0.026894f, -2, 1 },
  { 8, 8.483942f, -2, -3 },
  { 13, 656.250000f, -1, 1 },
  { 1, 0.000652f, 1, 4 },
  { 10, 7.251789f, 1, -2 },
  { 9, 6.854740f, -1, 1 },
  { 4, 4.312111f, -1, -2 },
  { 12, 867.187500f, -3, 1 },
  { 0, 0.026568f, -2, 1 },
  { 11, 1160.156250f, -2, -1 },
  { 0, 0.025763f, 1, 11 },
  { 9, 7.558229f, 1, 8 },
  { 0, 0.022185f, -1, 1 },
  { 6, 5.878905f, -1, 1 },
  { 13, 1335.937500f, 1, -1 },
  { 9, 7.413186f, 1, -3 },
  { 3, 5.549665f, 1, -2 },
  { 10, 6.714557f, 1, -2 },
  { 11, 1347.656250f, -1, -3 },
  { 0, 0.025144f, -1, 1 },
  { 7, 19.911304f, -1, -3 },
  { 0, 0.027571f, 1, -1 },
  { 8, 9.725426f, 1, -1 },
  { 8, 8.444506f, 1, 2 },
  { 7, 23.894896f, -3, -2 },
  { 11, 1429.687500f, -1, 1 },
  { 3, 6.378159f, -3, 1 },
  { 12, 1312.500000f, -3, -2 },
  { 5, 1.689373f, 1, -2 },
  { 13, 515.625000f, 1, 3 },
  { 11, 1441.406250f, 1, -3 },
  { 8, 9.431126f, -3, -1 },
  { 2, 0.166300f, 1, 8 },
  { 13, 2988.281250f, 1, -1 },
  { 13, 1160.156250f, -3, 1 },
  { 10, 8.265061f, 1, 3 },
  { 1, 0.000791f, 1, -3 },
  { 0, 0.028065f, -3, -2 },
  { 0, 0.029162f, 1, -3 },
  { 4, 3.882550f, -3, -1 },
  { 6, 6.254932f, -1, 1 },
  { 7, 26.002120f, -3, -2 },
  { 5, 1.676256f, 1, -2 },
  { 8, 9.853289f, 1, 2 },
  { 1, 0.000834f, -2, -3 },
  { 9, 8.354544f, 1, 2 },
  { 6, 10.029447f, -1, -2 },
  { 3, 12.044282f, 1, -2 },
  { 5, 1.667519f, -3, 1 },
  { 5, 1.673077f, -2, -3 },
  { 1, 0.004832f, 1, 21 },
  { 6, 11.787789f, 1, 19 },
  { 8, 13.828066f, 1, 8 },
  { 13, 843.750000f, 1, 4 },
  { 0, 0.045659f, 1, -4 },
  { 3, 6.188815f, 1, -3 },
  { 12, 937.500000f, -1, -3 },
  { 11, 550.781250f, -4, 1 },
  { 7, 22.348215f, -3, 1 },
  { 7, 22.892397f, -4, -3 },
  { 8, 37.513001f, 1, 9 },
  { 5, 1.620418f, 1, 7 },
  { 3, 4.161941f, -1, 1 },
  { 12, 433.593750f, -4, 1 },
  { 0, 0.050521f, 1, -4 },
  { 13, 585.937500f, -1, 1 },
  { 4, 5.151152f, -3, 1 },
  { 13, 1160.156250f, -3, -4 },
  { 1, 0.001148f, -1, -3 },
  { 0, 0.056125f, -1, -5 },
  { 13, 937.500000f, -3, -2 },
  { 13, 2203.125000f, 1, -4 },
  { 7, 23.312191f, -5, -4 } 
};

static const int32_t model_tree_roots[10] = { 0, 141, 249, 388, 516, 673, 796, 896, 1024, 1165 };

static const uint8_t model_leaves[5] = { 0, 4, 2, 1, 3 };

EmlTrees model = {
        1297,
        (EmlTreesNode *)(model_nodes),	  
        10,
        (int32_t *)(model_tree_roots),
        5,
        (uint8_t *)(model_leaves),
        0,
        14,
        5,
    };

static inline int32_t model_tree_0(const float *features, int32_t features_length) {
          if (features[0] < 0.048298f) {
              if (features[11] < 621.093750f) {
                  if (features[1] < 0.001063f) {
                      if (features[0] < 0.021231f) {
                          return 0;
                      } else {
                          if (features[7] < 25.374215f) {
                              if (features[9] < 5.787663f) {
                                  return 4;
                              } else {
                                  if (features[0] < 0.029693f) {
                                      if (features[8] < 7.382326f) {
                                          if (features[12] < 1523.437500f) {
                                              if (features[7] < 17.751247f) {
                                                  if (features[10] < 6.361041f) {
                                                      return 4;
                                                  } else {
                                                      return 0;
                                                  }
                                              } else {
                                                  return 0;
                                              }
                                          } else {
                                              return 2;
                                          }
                                      } else {
                                          return 0;
                                      }
                                  } else {
                                      if (features[0] < 0.031450f) {
                                          return 2;
                                      } else {
                                          return 0;
                                      }
                                  }
                              }
                          } else {
                              if (features[0] < 0.029217f) {
                                  return 4;
                              } else {
                                  return 0;
                              }
                          }
                      }
                  } else {
                      if (features[9] < 10.841362f) {
                          return 2;
                      } else {
                          return 1;
                      }
                  }
              } else {
                  if (features[2] < 0.185424f) {
                      if (features[7] < 29.262966f) {
                          if (features[8] < 7.647570f) {
                              if (features[0] < 0.021009f) {
                                  if (features[0] < 0.020943f) {
                                      return 0;
                                  } else {
                                      if (features[0] < 0.020956f) {
                                          return 4;
                                      } else {
                                          if (features[8] < 6.105781f) {
                                              return 2;
                                          } else {
                                              return 0;
                                          }
                                      }
                                  }
                              } else {
                                  if (features[0] < 0.025903f) {
                                      if (features[6] < 6.273114f) {
                                          if (features[5] < 1.503963f) {
                                              if (features[0] < 0.024246f) {
                                                  if (features[0] < 0.021939f) {
                                                      if (features[11] < 2214.843750f) {
                                                          return 4;
                                                      } else {
                                                          return 2;
                                                      }
                                                  } else {
                                                      return 4;
                                                  }
                                              } else {
                                                  if (features[11] < 2074.218750f) {
                                                      return 0;
                                                  } else {
                                                      return 2;
                                                  }
                                              }
                                          } else {
                                              if (features[11] < 1406.250000f) {
                                                  if (features[4] < 3.757219f) {
                                                      if (features[7] < 17.890379f) {
                                                          return 2;
                                                      } else {
                                                          return 0;
                                                      }
                                                  } else {
                                                      return 0;
                                                  }
                                              } else {
                                                  if (features[12] < 1089.843750f) {
                                                      return 0;
                                                  } else {
                                                      if (features[7] < 19.290807f) {
                                                          return 4;
                                                      } else {
                                                          return 2;
                                                      }
                                                  }
                                              }
                                          }
                                      } else {
                                          if (features[11] < 714.843750f) {
                                              return 2;
                                          } else {
                                              if (features[1] < 0.000656f) {
                                                  if (features[8] < 5.992842f) {
                                                      if (features[1] < 0.000556f) {
                                                          return 4;
                                                      } else {
                                                          if (features[5] < 1.553578f) {
                                                              return 2;
                                                          } else {
                                                              return 4;
                                                          }
                                                      }
                                                  } else {
                                                      if (features[12] < 1113.281250f) {
                                                          if (features[8] < 6.568510f) {
                                                              if (features[8] < 6.540731f) {
                                                                  return 4;
                                                              } else {
                                                                  return 2;
                                                              }
                                                          } else {
                                                              return 4;
                                                          }
                                                      } else {
                                                          return 4;
                                                      }
                                                  }
                                              } else {
                                                  if (features[4] < 5.196654f) {
                                                      return 2;
                                                  } else {
                                                      return 4;
                                                  }
                                              }
                                          }
                                      }
                                  } else {
                                      if (features[7] < 25.673693f) {
                                          return 2;
                                      } else {
                                          return 4;
                                      }
                                  }
                              }
                          } else {
                              if (features[0] < 0.026841f) {
                                  if (features[11] < 1207.031250f) {
                                      if (features[0] < 0.022830f) {
                                          if (features[6] < 6.004994f) {
                                              if (features[13] < 2250.000000f) {
                                                  return 4;
                                              } else {
                                                  return 0;
                                              }
                                          } else {
                                              return 0;
                                          }
                                      } else {
                                          if (features[12] < 996.093750f) {
                                              return 0;
                                          } else {
                                              if (features[7] < 18.844655f) {
                                                  if (features[5] < 1.513975f) {
                                                      if (features[6] < 5.435746f) {
                                                          return 2;
                                                      } else {
                                                          return 4;
                                                      }
                                                  } else {
                                                      return 0;
                                                  }
                                              } else {
                                                  if (features[4] < 4.935269f) {
                                                      if (features[11] < 1066.406250f) {
                                                          if (features[12] < 1488.281250f) {
                                                              return 2;
                                                          } else {
                                                              return 4;
                                                          }
                                                      } else {
                                                          return 4;
                                                      }
                                                  } else {
                                                      return 4;
                                                  }
                                              }
                                          }
                                      }
                                  } else {
                                      if (features[0] < 0.024557f) {
                                          if (features[3] < 4.955378f) {
                                              return 4;
                                          } else {
                                              if (features[8] < 7.906934f) {
                                                  if (features[2] < -0.137804f) {
                                                      return 2;
                                                  } else {
                                                      return 0;
                                                  }
                                              } else {
                                                  return 0;
                                              }
                                          }
                                      } else {
                                          if (features[12] < 1441.406250f) {
                                              if (features[0] < 0.025365f) {
                                                  if (features[13] < 2859.375000f) {
                                                      return 4;
                                                  } else {
                                                      return 2;
                                                  }
                                              } else {
                                                  return 0;
                                              }
                                          } else {
                                              if (features[8] < 7.857029f) {
                                                  return 4;
                                              } else {
                                                  if (features[2] < -0.214060f) {
                                                      return 0;
                                                  } else {
                                                      if (features[9] < 8.808455f) {
                                                          if (features[4] < 4.171106f) {
                                                              if (features[6] < 6.198308f) {
                                                                  return 2;
                                                              } else {
                                                                  return 0;
                                                              }
                                                          } else {
                                                              return 2;
                                                          }
                                                      } else {
                                                          return 0;
                                                      }
                                                  }
                                              }
                                          }
                                      }
                                  }
                              } else {
                                  if (features[9] < 6.904174f) {
                                      if (features[0] < 0.027151f) {
                                          return 4;
                                      } else {
                                          if (features[12] < 937.500000f) {
                                              return 2;
                                          } else {
                                              if (features[6] < 9.388298f) {
                                                  return 2;
                                              } else {
                                                  return 4;
                                              }
                                          }
                                      }
                                  } else {
                                      if (features[11] < 2976.562500f) {
                                          if (features[4] < 3.539064f) {
                                              if (features[0] < 0.029044f) {
                                                  if (features[10] < 7.119473f) {
                                                      return 2;
                                                  } else {
                                                      return 0;
                                                  }
                                              } else {
                                                  return 2;
                                              }
                                          } else {
                                              if (features[1] < 0.000752f) {
                                                  if (features[3] < 7.007857f) {
                                                      if (features[5] < 1.481304f) {
                                                          return 0;
                                                      } else {
                                                          return 2;
                                                      }
                                                  } else {
                                                      return 4;
                                                  }
                                              } else {
                                                  if (features[2] < 0.167055f) {
                                                      if (features[0] < 0.047277f) {
                                                          if (features[5] < 1.697689f) {
                                                              if (features[12] < 527.343750f) {
                                                                  if (features[13] < 2402.343750f) {
                                                                      return 2;
                                                                  } else {
                                                                      return 0;
                                                                  }
                                                              } else {
                                                                  if (features[11] < 1406.250000f) {
                                                                      if (features[11] < 1335.937500f) {
                                                                          if (features[7] < 25.679537f) {
                                                                              return 2;
                                                                          } else {
                                                                              if (features[7] < 25.721075f) {
                                                                                  return 4;
                                                                              } else {
                                                                                  return 2;
                                                                              }
                                                                          }
                                                                      } else {
                                                                          return 0;
                                                                      }
                                                                  } else {
                                                                      return 2;
                                                                  }
                                                              }
                                                          } else {
                                                              return 4;
                                                          }
                                                      } else {
                                                          if (features[1] < 0.002259f) {
                                                              return 1;
                                                          } else {
                                                              return 2;
                                                          }
                                                      }
                                                  } else {
                                                      if (features[3] < 7.182793f) {
                                                          if (features[10] < 9.499982f) {
                                                              return 2;
                                                          } else {
                                                              if (features[1] < 0.001286f) {
                                                                  return 0;
                                                              } else {
                                                                  return 2;
                                                              }
                                                          }
                                                      } else {
                                                          return 4;
                                                      }
                                                  }
                                              }
                                          }
                                      } else {
                                          return 0;
                                      }
                                  }
                              }
                          }
                      } else {
                          if (features[0] < 0.045664f) {
                              if (features[12] < 902.343750f) {
                                  if (features[13] < 1113.281250f) {
                                      if (features[8] < 8.079604f) {
                                          return 4;
                                      } else {
                                          return 2;
                                      }
                                  } else {
                                      return 4;
                                  }
                              } else {
                                  if (features[13] < 937.500000f) {
                                      if (features[5] < 1.695578f) {
                                          if (features[0] < 0.032536f) {
                                              return 4;
                                          } else {
                                              return 2;
                                          }
                                      } else {
                                          if (features[4] < 7.605706f) {
                                              return 4;
                                          } else {
                                              return 2;
                                          }
                                      }
                                  } else {
                                      if (features[8] < 12.258731f) {
                                          if (features[4] < 5.432843f) {
                                              if (features[13] < 1664.062500f) {
                                                  if (features[4] < 5.416157f) {
                                                      return 4;
                                                  } else {
                                                      return 2;
                                                  }
                                              } else {
                                                  return 2;
                                              }
                                          } else {
                                              return 4;
                                          }
                                      } else {
                                          if (features[8] < 12.282410f) {
                                              return 2;
                                          } else {
                                              if (features[7] < 34.423457f) {
                                                  return 2;
                                              } else {
                                                  return 4;
                                              }
                                          }
                                      }
                                  }
                              }
                          } else {
                              return 2;
                          }
                      }
                  } else {
                      if (features[6] < 9.125908f) {
                          if (features[12] < 996.093750f) {
                              if (features[1] < 0.000701f) {
                                  if (features[7] < 18.209983f) {
                                      if (features[0] < 0.021545f) {
                                          return 0;
                                      } else {
                                          return 2;
                                      }
                                  } else {
                                      return 0;
                                  }
                              } else {
                                  if (features[9] < 8.920970f) {
                                      return 2;
                                  } else {
                                      return 0;
                                  }
                              }
                          } else {
                              if (features[2] < 0.235547f) {
                                  if (features[0] < 0.026659f) {
                                      if (features[11] < 1312.500000f) {
                                          if (features[13] < 1300.781250f) {
                                              return 4;
                                          } else {
                                              if (features[7] < 18.178685f) {
                                                  return 2;
                                              } else {
                                                  return 4;
                                              }
                                          }
                                      } else {
                                          if (features[12] < 2027.343750f) {
                                              return 4;
                                          } else {
                                              return 0;
                                          }
                                      }
                                  } else {
                                      if (features[7] < 19.536788f) {
                                          if (features[11] < 2121.093750f) {
                                              return 0;
                                          } else {
                                              return 2;
                                          }
                                      } else {
                                          return 2;
                                      }
                                  }
                              } else {
                                  if (features[0] < 0.021425f) {
                                      return 0;
                                  } else {
                                      if (features[9] < 7.638631f) {
                                          if (features[0] < 0.026021f) {
                                              if (features[2] < 0.246470f) {
                                                  return 0;
                                              } else {
                                                  if (features[9] < 7.173310f) {
                                                      return 4;
                                                  } else {
                                                      if (features[0] < 0.022113f) {
                                                          return 0;
                                                      } else {
                                                          return 4;
                                                      }
                                                  }
                                              }
                                          } else {
                                              return 2;
                                          }
                                      } else {
                                          if (features[0] < 0.028622f) {
                                              if (features[6] < 8.765155f) {
                                                  return 0;
                                              } else {
                                                  if (features[10] < 7.184262f) {
                                                      return 4;
                                                  } else {
                                                      return 0;
                                                  }
                                              }
                                          } else {
                                              return 2;
                                          }
                                      }
                                  }
                              }
                          }
                      } else {
                          if (features[6] < 10.390176f) {
                              if (features[8] < 9.839329f) {
                                  return 4;
                              } else {
                                  if (features[5] < 1.767906f) {
                                      return 2;
                                  } else {
                                      return 4;
                                  }
                              }
                          } else {
                              if (features[0] < 0.012351f) {
                                  return 0;
                              } else {
                                  if (features[11] < 914.062500f) {
                                      if (features[9] < 9.631627f) {
                                          return 4;
                                      } else {
                                          return 2;
                                      }
                                  } else {
                                      return 4;
                                  }
                              }
                          }
                      }
                  }
              }
          } else {
              if (features[3] < 4.973522f) {
                  if (features[8] < 37.980135f) {
                      return 1;
                  } else {
                      return 3;
                  }
              } else {
                  if (features[13] < 363.281250f) {
                      return 3;
                  } else {
                      if (features[1] < 0.005148f) {
                          if (features[10] < 24.036538f) {
                              if (features[11] < 1710.937500f) {
                                  return 1;
                              } else {
                                  if (features[3] < 7.875925f) {
                                      return 1;
                                  } else {
                                      return 2;
                                  }
                              }
                          } else {
                              return 0;
                          }
                      } else {
                          return 3;
                      }
                  }
              }
          }
        }
        

static inline int32_t model_tree_1(const float *features, int32_t features_length) {
          if (features[8] < 50.994427f) {
              if (features[9] < 13.452482f) {
                  if (features[11] < 621.093750f) {
                      if (features[0] < 0.030070f) {
                          if (features[4] < 6.050576f) {
                              if (features[2] < -0.100097f) {
                                  if (features[4] < 4.417532f) {
                                      if (features[2] < -0.221485f) {
                                          return 0;
                                      } else {
                                          if (features[0] < 0.027858f) {
                                              return 0;
                                          } else {
                                              return 2;
                                          }
                                      }
                                  } else {
                                      if (features[4] < 4.751596f) {
                                          if (features[0] < 0.022143f) {
                                              return 0;
                                          } else {
                                              return 4;
                                          }
                                      } else {
                                          return 0;
                                      }
                                  }
                              } else {
                                  return 0;
                              }
                          } else {
                              if (features[8] < 4.424323f) {
                                  return 0;
                              } else {
                                  return 4;
                              }
                          }
                      } else {
                          if (features[1] < 0.001886f) {
                              return 2;
                          } else {
                              return 1;
                          }
                      }
                  } else {
                      if (features[12] < 1441.406250f) {
                          if (features[7] < 28.596988f) {
                              if (features[0] < 0.026828f) {
                                  if (features[5] < 1.491923f) {
                                      if (features[13] < 3058.593750f) {
                                          if (features[0] < 0.017574f) {
                                              return 0;
                                          } else {
                                              if (features[9] < 8.642689f) {
                                                  return 4;
                                              } else {
                                                  return 0;
                                              }
                                          }
                                      } else {
                                          return 0;
                                      }
                                  } else {
                                      if (features[1] < 0.000460f) {
                                          if (features[0] < 0.020951f) {
                                              return 0;
                                          } else {
                                              if (features[9] < 5.256647f) {
                                                  if (features[0] < 0.021076f) {
                                                      return 2;
                                                  } else {
                                                      return 4;
                                                  }
                                              } else {
                                                  return 0;
                                              }
                                          }
                                      } else {
                                          if (features[13] < 2964.843750f) {
                                              if (features[10] < 6.279401f) {
                                                  if (features[6] < 7.201488f) {
                                                      if (features[11] < 1183.593750f) {
                                                          return 4;
                                                      } else {
                                                          if (features[11] < 2906.250000f) {
                                                              if (features[11] < 2167.968750f) {
                                                                  if (features[1] < 0.000617f) {
                                                                      return 4;
                                                                  } else {
                                                                      return 2;
                                                                  }
                                                              } else {
                                                                  return 0;
                                                              }
                                                          } else {
                                                              return 2;
                                                          }
                                                      }
                                                  } else {
                                                      return 4;
                                                  }
                                              } else {
                                                  if (features[6] < 7.443238f) {
                                                      if (features[3] < 5.374906f) {
                                                          return 0;
                                                      } else {
                                                          if (features[13] < 1277.343750f) {
                                                              if (features[1] < 0.000574f) {
                                                                  return 0;
                                                              } else {
                                                                  if (features[0] < 0.025912f) {
                                                                      if (features[6] < 7.083590f) {
                                                                          return 4;
                                                                      } else {
                                                                          return 0;
                                                                      }
                                                                  } else {
                                                                      return 2;
                                                                  }
                                                              }
                                                          } else {
                                                              return 0;
                                                          }
                                                      }
                                                  } else {
                                                      if (features[7] < 20.355724f) {
                                                          if (features[6] < 7.639995f) {
                                                              return 4;
                                                          } else {
                                                              if (features[5] < 1.539651f) {
                                                                  return 2;
                                                              } else {
                                                                  return 0;
                                                              }
                                                          }
                                                      } else {
                                                          if (features[0] < 0.025195f) {
                                                              if (features[11] < 2085.937500f) {
                                                                  return 4;
                                                              } else {
                                                                  return 0;
                                                              }
                                                          } else {
                                                              return 4;
                                                          }
                                                      }
                                                  }
                                              }
                                          } else {
                                              return 0;
                                          }
                                      }
                                  }
                              } else {
                                  if (features[9] < 13.072308f) {
                                      if (features[10] < 12.569297f) {
                                          if (features[4] < 5.961174f) {
                                              if (features[1] < 0.002271f) {
                                                  if (features[1] < 0.000841f) {
                                                      if (features[5] < 1.606675f) {
                                                          if (features[8] < 10.150689f) {
                                                              if (features[9] < 8.709137f) {
                                                                  return 2;
                                                              } else {
                                                                  return 0;
                                                              }
                                                          } else {
                                                              return 0;
                                                          }
                                                      } else {
                                                          return 4;
                                                      }
                                                  } else {
                                                      if (features[10] < 9.631814f) {
                                                          if (features[5] < 1.651172f) {
                                                              return 2;
                                                          } else {
                                                              return 4;
                                                          }
                                                      } else {
                                                          if (features[2] < 0.173781f) {
                                                              if (features[0] < 0.031378f) {
                                                                  if (features[9] < 9.868598f) {
                                                                      return 4;
                                                                  } else {
                                                                      return 0;
                                                                  }
                                                              } else {
                                                                  return 2;
                                                              }
                                                          } else {
                                                              if (features[0] < 0.032166f) {
                                                                  return 0;
                                                              } else {
                                                                  return 2;
                                                              }
                                                          }
                                                      }
                                                  }
                                              } else {
                                                  return 1;
                                              }
                                          } else {
                                              if (features[11] < 949.218750f) {
                                                  return 2;
                                              } else {
                                                  if (features[1] < 0.000790f) {
                                                      return 4;
                                                  } else {
                                                      return 2;
                                                  }
                                              }
                                          }
                                      } else {
                                          return 1;
                                      }
                                  } else {
                                      if (features[9] < 13.410926f) {
                                          if (features[0] < 0.046866f) {
                                              return 2;
                                          } else {
                                              return 1;
                                          }
                                      } else {
                                          return 2;
                                      }
                                  }
                              }
                          } else {
                              if (features[8] < 15.208010f) {
                                  if (features[5] < 1.645791f) {
                                      if (features[1] < 0.000902f) {
                                          return 4;
                                      } else {
                                          return 2;
                                      }
                                  } else {
                                      if (features[2] < -0.533185f) {
                                          if (features[8] < 12.948259f) {
                                              return 4;
                                          } else {
                                              return 2;
                                          }
                                      } else {
                                          if (features[13] < 2882.812500f) {
                                              if (features[10] < 11.952138f) {
                                                  return 4;
                                              } else {
                                                  if (features[11] < 1218.750000f) {
                                                      return 4;
                                                  } else {
                                                      return 2;
                                                  }
                                              }
                                          } else {
                                              if (features[8] < 12.053477f) {
                                                  return 4;
                                              } else {
                                                  return 2;
                                              }
                                          }
                                      }
                                  }
                              } else {
                                  return 2;
                              }
                          }
                      } else {
                          if (features[0] < 0.025295f) {
                              if (features[12] < 2976.562500f) {
                                  if (features[13] < 1710.937500f) {
                                      if (features[1] < 0.000440f) {
                                          return 0;
                                      } else {
                                          if (features[10] < 6.802333f) {
                                              if (features[1] < 0.000449f) {
                                                  if (features[13] < 1113.281250f) {
                                                      return 4;
                                                  } else {
                                                      return 0;
                                                  }
                                              } else {
                                                  if (features[4] < 3.767948f) {
                                                      if (features[9] < 5.792835f) {
                                                          return 4;
                                                      } else {
                                                          return 2;
                                                      }
                                                  } else {
                                                      return 4;
                                                  }
                                              }
                                          } else {
                                              if (features[7] < 20.567701f) {
                                                  return 0;
                                              } else {
                                                  return 4;
                                              }
                                          }
                                      }
                                  } else {
                                      if (features[9] < 4.544411f) {
                                          return 0;
                                      } else {
                                          if (features[11] < 1160.156250f) {
                                              return 4;
                                          } else {
                                              if (features[12] < 1769.531250f) {
                                                  if (features[5] < 1.549552f) {
                                                      if (features[6] < 6.810840f) {
                                                          return 2;
                                                      } else {
                                                          return 4;
                                                      }
                                                  } else {
                                                      return 0;
                                                  }
                                              } else {
                                                  return 0;
                                              }
                                          }
                                      }
                                  }
                              } else {
                                  return 0;
                              }
                          } else {
                              if (features[5] < 1.681870f) {
                                  if (features[0] < 0.028161f) {
                                      if (features[7] < 24.450417f) {
                                          if (features[10] < 7.424382f) {
                                              if (features[9] < 8.265773f) {
                                                  if (features[3] < 6.018485f) {
                                                      return 2;
                                                  } else {
                                                      if (features[7] < 20.218149f) {
                                                          return 4;
                                                      } else {
                                                          return 2;
                                                      }
                                                  }
                                              } else {
                                                  if (features[8] < 9.141018f) {
                                                      return 2;
                                                  } else {
                                                      if (features[9] < 8.447383f) {
                                                          return 0;
                                                      } else {
                                                          return 2;
                                                      }
                                                  }
                                              }
                                          } else {
                                              if (features[9] < 7.834569f) {
                                                  if (features[11] < 2214.843750f) {
                                                      return 4;
                                                  } else {
                                                      return 2;
                                                  }
                                              } else {
                                                  if (features[8] < 10.223983f) {
                                                      return 2;
                                                  } else {
                                                      return 0;
                                                  }
                                              }
                                          }
                                      } else {
                                          return 4;
                                      }
                                  } else {
                                      if (features[2] < 0.342507f) {
                                          if (features[0] < 0.052927f) {
                                              return 2;
                                          } else {
                                              return 1;
                                          }
                                      } else {
                                          if (features[10] < 11.663308f) {
                                              if (features[12] < 2179.687500f) {
                                                  return 0;
                                              } else {
                                                  return 2;
                                              }
                                          } else {
                                              return 1;
                                          }
                                      }
                                  }
                              } else {
                                  if (features[5] < 1.694163f) {
                                      if (features[10] < 9.533468f) {
                                          return 4;
                                      } else {
                                          return 2;
                                      }
                                  } else {
                                      return 4;
                                  }
                              }
                          }
                      }
                  }
              } else {
                  if (features[11] < 410.156250f) {
                      if (features[0] < 0.039137f) {
                          return 0;
                      } else {
                          return 1;
                      }
                  } else {
                      if (features[1] < 0.002520f) {
                          if (features[6] < 11.711839f) {
                              if (features[13] < 621.093750f) {
                                  return 0;
                              } else {
                                  if (features[3] < 4.821460f) {
                                      return 0;
                                  } else {
                                      return 2;
                                  }
                              }
                          } else {
                              return 4;
                          }
                      } else {
                          return 1;
                      }
                  }
              }
          } else {
              return 3;
          }
        }
        

static inline int32_t model_tree_2(const float *features, int32_t features_length) {
          if (features[12] < 621.093750f) {
              if (features[9] < 37.030989f) {
                  if (features[12] < 363.281250f) {
                      if (features[12] < 328.125000f) {
                          return 0;
                      } else {
                          if (features[1] < 0.000289f) {
                              return 0;
                          } else {
                              if (features[10] < 6.790056f) {
                                  return 4;
                              } else {
                                  return 2;
                              }
                          }
                      }
                  } else {
                      if (features[10] < 10.004932f) {
                          if (features[0] < 0.030599f) {
                              if (features[7] < 24.266849f) {
                                  if (features[11] < 1441.406250f) {
                                      if (features[6] < 7.115035f) {
                                          return 0;
                                      } else {
                                          if (features[11] < 843.750000f) {
                                              return 0;
                                          } else {
                                              if (features[13] < 2015.625000f) {
                                                  if (features[3] < 5.349984f) {
                                                      return 0;
                                                  } else {
                                                      return 4;
                                                  }
                                              } else {
                                                  return 0;
                                              }
                                          }
                                      }
                                  } else {
                                      if (features[0] < 0.025659f) {
                                          if (features[12] < 386.718750f) {
                                              return 2;
                                          } else {
                                              return 0;
                                          }
                                      } else {
                                          if (features[9] < 8.829710f) {
                                              return 2;
                                          } else {
                                              return 0;
                                          }
                                      }
                                  }
                              } else {
                                  if (features[0] < 0.015829f) {
                                      return 0;
                                  } else {
                                      return 4;
                                  }
                              }
                          } else {
                              if (features[9] < 11.010764f) {
                                  if (features[3] < 9.516782f) {
                                      return 2;
                                  } else {
                                      return 4;
                                  }
                              } else {
                                  return 1;
                              }
                          }
                      } else {
                          if (features[0] < 0.043264f) {
                              if (features[3] < 7.076820f) {
                                  return 0;
                              } else {
                                  return 2;
                              }
                          } else {
                              if (features[12] < 445.312500f) {
                                  return 1;
                              } else {
                                  if (features[9] < 25.430097f) {
                                      return 1;
                                  } else {
                                      return 0;
                                  }
                              }
                          }
                      }
                  }
              } else {
                  return 3;
              }
          } else {
              if (features[6] < 9.461361f) {
                  if (features[10] < 6.230871f) {
                      if (features[0] < 0.020943f) {
                          return 0;
                      } else {
                          if (features[11] < 1640.625000f) {
                              if (features[0] < 0.025612f) {
                                  if (features[1] < 0.000488f) {
                                      if (features[11] < 1160.156250f) {
                                          if (features[5] < 1.537248f) {
                                              return 4;
