


    // !!! This file is generated using emlearn !!!

    #include <eml_trees.h>
    

static const EmlTreesNode model_nodes[967] = {
  { 0, 0.071058f, 1, 316 },
  { 9, 13.351660f, 1, 307 },
  { 1, 0.000458f, 1, 30 },
  { 0, 0.020890f, 1, 13 },
  { 0, 0.020458f, 1, 6 },
  { 9, 4.451605f, -1, 1 },
  { 0, 0.019910f, -1, 1 },
  { 8, 5.307284f, -2, 1 },
  { 3, 4.780447f, 1, -1 },
  { 7, 16.752321f, -1, -3 },
  { 9, 5.848466f, 1, -1 },
  { 0, 0.020674f, 1, 3 },
  { 11, 1160.156250f, -2, 1 },
  { 12, 1113.281250f, -2, -1 },
  { 2, -0.112423f, 1, -1 },
  { 11, 1558.593750f, -2, -1 },
  { 5, 1.498320f, 1, 7 },
  { 8, 6.160946f, -2, 1 },
  { 2, 0.079636f, 1, -2 },
  { 5, 1.448519f, -2, 1 },
  { 5, 1.490474f, 1, -2 },
  { 0, 0.021313f, -1, 1 },
  { 8, 7.927885f, -2, -1 },
  { 11, 1488.281250f, 1, 6 },
  { 9, 5.641861f, 1, 2 },
  { 0, 0.020990f, -1, -2 },
  { 9, 6.220062f, 1, -1 },
  { 12, 1183.593750f, 1, -1 },
  { 12, 773.437500f, -1, -2 },
  { 4, 4.198507f, 1, 2 },
  { 12, 1160.156250f, -1, -3 },
  { 5, 1.516137f, -2, -1 },
  { 6, 9.688524f, 1, 240 },
  { 11, 597.656250f, 1, 10 },
  { 1, 0.001763f, 1, -4 },
  { 11, 386.718750f, 1, 5 },
  { 1, 0.000661f, 1, 2 },
  { 9, 6.786302f, -2, -1 },
  { 12, 562.500000f, 1, -3 },
  { 3, 5.273938f, -1, -3 },
  { 11, 550.781250f, -1, 1 },
  { 9, 6.808541f, -3, 1 },
  { 11, 574.218750f, -3, -1 },
  { 0, 0.026724f, 1, 136 },
  { 10, 6.821603f, 1, 90 },
  { 0, 0.025451f, 1, 70 },
  { 5, 1.489895f, 1, 10 },
  { 11, 843.750000f, -3, 1 },
  { 12, 3105.468750f, 1, -1 },
  { 0, 0.024329f, 1, 3 },
  { 5, 1.489514f, -2, 1 },
  { 5, 1.489603f, -3, -2 },
  { 1, 0.000593f, -3, 1 },
  { 10, 5.449827f, -3, 1 },
  { 12, 1664.062500f, -2, 1 },
  { 0, 0.025334f, -3, -2 },
  { 3, 6.392787f, 1, 47 },
  { 11, 1160.156250f, 1, 20 },
  { 6, 6.303868f, 1, 8 },
  { 3, 4.924329f, -3, 1 },
  { 11, 890.625000f, -3, 1 },
  { 10, 5.665164f, 1, 2 },
  { 11, 1019.531250f, -1, -2 },
  { 13, 1195.312500f, 1, -1 },
  { 4, 3.857200f, -1, 1 },
  { 0, 0.022420f, -1, -2 },
  { 11, 1007.812500f, 1, 4 },
  { 6, 7.741924f, 1, 2 },
  { 4, 4.512047f, -1, -3 },
  { 12, 1558.593750f, -2, -1 },
  { 5, 1.491151f, -3, 1 },
  { 8, 5.745948f, -3, 1 },
  { 10, 6.051382f, -2, 1 },
  { 2, 0.204091f, 1, 3 },
  { 10, 6.153997f, -3, 1 },
  { 13, 667.968750f, -1, -2 },
  { 2, 0.216704f, -1, -2 },
  { 10, 6.081007f, 1, 21 },
  { 5, 1.512879f, 1, 5 },
  { 0, 0.024303f, 1, 2 },
  { 9, 6.636727f, -2, -1 },
  { 9, 5.597099f, -2, 1 },
  { 2, 0.262726f, -3, -2 },
  { 8, 6.738973f, 1, 9 },
  { 2, 0.148011f, 1, 7 },
  { 13, 1183.593750f, 1, 3 },
  { 12, 1242.187500f, -2, 1 },
  { 1, 0.000492f, -1, -3 },
  { 5, 1.529428f, 1, -3 },
  { 10, 5.911566f, 1, -2 },
  { 1, 0.000547f, -1, -3 },
  { 11, 2156.250000f, -2, -1 },
  { 1, 0.000565f, 1, 3 },
  { 0, 0.023202f, -1, 1 },
  { 4, 4.115050f, -1, -3 },
  { 7, 18.720779f, -1, 1 },
  { 2, 0.259197f, 1, -2 },
  { 0, 0.024112f, -2, -3 },
  { 4, 5.234056f, 1, 4 },
  { 1, 0.000607f, -1, 1 },
  { 13, 1335.937500f, 1, -1 },
  { 1, 0.000615f, -2, -3 },
  { 6, 8.197308f, -3, -2 },
  { 11, 1769.531250f, 1, 11 },
  { 13, 2964.843750f, 1, -1 },
  { 5, 1.570236f, -2, 1 },
  { 3, 6.836052f, 1, 3 },
  { 1, 0.000576f, 1, -2 },
  { 13, 1546.875000f, -3, -1 },
  { 0, 0.022778f, -1, 1 },
  { 6, 7.225067f, 1, 2 },
  { 5, 1.576552f, -3, -2 },
  { 12, 2226.562500f, -2, 1 },
  { 1, 0.000583f, -2, -3 },
  { 7, 25.556469f, -1, -2 },
  { 12, 1394.531250f, 1, 11 },
  { 5, 1.539481f, 1, 7 },
  { 8, 9.992005f, 1, -1 },
  { 7, 22.385068f, 1, -2 },
  { 0, 0.025660f, 1, -3 },
  { 6, 6.485415f, 1, 2 },
  { 6, 5.605116f, -1, -3 },
  { 2, 0.099404f, -2, -3 },
  { 13, 2976.562500f, 1, -1 },
  { 12, 890.625000f, 1, -2 },
  { 2, -0.147519f, -2, -3 },
  { 5, 1.555760f, 1, -2 },
  { 10, 6.737532f, 1, 5 },
  { 10, 6.460877f, -3, 1 },
  { 11, 2941.406250f, 1, 2 },
  { 9, 8.831927f, -3, -1 },
  { 8, 7.862961f, -2, -1 },
  { 1, 0.000665f, -1, 1 },
  { 0, 0.026283f, -2, -3 },
  { 4, 4.908589f, 1, 32 },
  { 5, 1.468525f, 1, 2 },
  { 7, 14.307400f, -1, -2 },
  { 5, 1.649912f, 1, -2 },
  { 10, 7.137980f, 1, 11 },
  { 0, 0.025864f, 1, 9 },
  { 3, 6.288707f, 1, 7 },
  { 5, 1.517546f, 1, -1 },
  { 7, 18.852818f, 1, 3 },
  { 9, 7.252930f, 1, -1 },
  { 9, 7.105320f, -1, -2 },
  { 1, 0.000643f, 1, -3 },
  { 12, 2015.625000f, -2, -1 },
  { 12, 1078.125000f, -1, -2 },
  { 0, 0.026578f, -3, -1 },
  { 12, 386.718750f, -3, 1 },
  { 13, 386.718750f, -3, 1 },
  { 5, 1.492726f, 1, 3 },
  { 6, 6.404491f, 1, -2 },
  { 13, 1640.625000f, -1, -3 },
  { 9, 11.337867f, 1, -2 },
  { 8, 8.422413f, 1, 4 },
  { 10, 7.458876f, -1, 1 },
  { 11, 1300.781250f, -2, 1 },
  { 2, -0.225139f, -3, -1 },
  { 0, 0.026690f, 1, 6 },
  { 10, 7.454508f, 1, -1 },
  { 8, 9.451137f, -1, 1 },
  { 9, 8.062318f, 1, 2 },
  { 3, 5.541782f, -3, -1 },
  { 11, 1171.875000f, -2, -1 },
  { 13, 2917.968750f, -1, -3 },
  { 13, 2976.562500f, 1, -1 },
  { 10, 6.902720f, 1, 3 },
  { 3, 5.735840f, -1, 1 },
  { 6, 8.288977f, -3, -2 },
  { 5, 1.528601f, 1, 3 },
  { 2, 0.171071f, 1, -2 },
  { 12, 1324.218750f, -2, -3 },
  { 3, 6.797230f, 1, 4 },
  { 1, 0.000689f, 1, 2 },
  { 2, -0.110546f, -3, -1 },
  { 3, 6.061575f, -1, -2 },
  { 3, 7.292194f, 1, -2 },
  { 3, 7.189874f, -2, -1 },
  { 0, 0.046166f, 1, -4 },
  { 5, 1.680031f, 1, 89 },
  { 13, 2988.281250f, 1, -1 },
  { 0, 0.028147f, 1, 48 },
  { 8, 9.557536f, 1, 32 },
  { 5, 1.600293f, 1, 28 },
  { 9, 8.828138f, 1, 21 },
  { 13, 597.656250f, 1, 6 },
  { 11, 1921.875000f, 1, 4 },
  { 6, 7.973843f, 1, -1 },
  { 3, 6.044961f, -3, 1 },
  { 8, 8.291828f, -2, -3 },
  { 13, 398.437500f, -3, -1 },
  { 10, 7.143021f, 1, 6 },
  { 8, 6.659559f, 1, 3 },
  { 8, 6.512555f, -3, 1 },
  { 7, 21.296132f, -3, -2 },
  { 0, 0.026888f, 1, -3 },
  { 10, 6.812351f, -3, -1 },
  { 13, 1347.656250f, 1, 6 },
  { 4, 3.632319f, -1, 1 },
  { 5, 1.578083f, 1, -2 },
  { 1, 0.000734f, -1, 1 },
  { 9, 7.349673f, 1, -3 },
  { 5, 1.522113f, -1, -3 },
  { 12, 574.218750f, 1, -3 },
  { 0, 0.027653f, -3, -1 },
  { 9, 8.940166f, 1, 3 },
  { 2, 0.081769f, -1, 1 },
  { 3, 6.366064f, -3, -1 },
  { 6, 6.637556f, -1, 1 },
  { 1, 0.000744f, -3, 1 },
  { 7, 19.738431f, -3, -1 },
  { 4, 4.247416f, -3, 1 },
  { 5, 1.623363f, 1, -2 },
  { 3, 7.378613f, -3, -2 },
  { 10, 7.647541f, 1, 6 },
  { 5, 1.583415f, 1, 4 },
  { 12, 585.937500f, 1, 2 },
  { 3, 5.570692f, -3, -1 },
  { 3, 4.809103f, -1, -3 },
  { 13, 1253.906250f, -2, -1 },
  { 1, 0.000774f, 1, 5 },
  { 6, 6.424212f, -1, 1 },
  { 11, 1160.156250f, -2, 1 },
  { 4, 4.803149f, 1, -1 },
  { 6, 7.348683f, -3, -1 },
  { 3, 6.917519f, 1, 3 },
  { 12, 902.343750f, -3, 1 },
  { 1, 0.000788f, -3, -1 },
  { 11, 1078.125000f, -1, -2 },
  { 1, 0.000850f, 1, 20 },
  { 3, 9.180473f, 1, -2 },
  { 8, 10.856871f, 1, 11 },
  { 5, 1.613437f, 1, 9 },
  { 10, 8.619571f, 1, 6 },
  { 12, 515.625000f, 1, 3 },
  { 1, 0.000832f, -3, 1 },
  { 6, 6.221547f, -1, -3 },
  { 5, 1.591490f, -3, 1 },
  { 5, 1.593434f, -1, -3 },
  { 5, 1.551455f, 1, -1 },
  { 12, 1347.656250f, -1, -3 },
  { 12, 902.343750f, -3, -2 },
  { 10, 7.960739f, -3, 1 },
  { 7, 19.009018f, -1, 1 },
  { 4, 4.569241f, 1, 3 },
  { 10, 8.941107f, -1, 1 },
  { 12, 2964.843750f, -3, -1 },
  { 8, 11.500159f, 1, -3 },
  { 13, 398.437500f, -3, -1 },
  { 11, 2988.281250f, 1, 18 },
  { 3, 4.356308f, -1, 1 },
  { 7, 32.071760f, 1, 15 },
  { 13, 515.625000f, 1, 2 },
  { 13, 398.437500f, -3, -1 },
  { 1, 0.000951f, 1, -3 },
  { 0, 0.030831f, 1, -1 },
  { 5, 1.643105f, 1, -2 },
  { 8, 11.869527f, 1, 7 },
  { 5, 1.590533f, 1, 4 },
  { 0, 0.030749f, -3, 1 },
  { 13, 1066.406250f, 1, -3 },
  { 8, 10.626415f, -3, -1 },
  { 7, 21.161707f, 1, -3 },
  { 13, 1148.437500f, -3, -1 },
  { 0, 0.029776f, 1, -3 },
  { 12, 1335.937500f, -2, -1 },
  { 5, 1.657900f, -3, -2 },
  { 6, 6.824410f, -3, -1 },
  { 10, 10.243775f, 1, -3 },
  { 0, 0.035039f, -2, 1 },
  { 5, 1.873057f, -3, -2 },
  { 3, 9.066026f, 1, 18 },
  { 2, 0.333274f, 1, 14 },
  { 0, 0.026655f, 1, 4 },
  { 1, 0.000682f, 1, 2 },
  { 11, 597.656250f, -1, -2 },
  { 2, -0.157181f, -3, -2 },
  { 1, 0.002087f, 1, -4 },
  { 6, 9.744015f, 1, 2 },
  { 3, 7.163200f, -1, -3 },
  { 1, 0.000835f, 1, -3 },
  { 12, 1183.593750f, 1, 2 },
  { 9, 8.737019f, -2, -3 },
  { 9, 8.922590f, 1, -2 },
  { 9, 6.837793f, 1, -3 },
  { 1, 0.000757f, -3, -2 },
  { 1, 0.000777f, -2, 1 },
  { 2, 0.365209f, 1, -3 },
  { 3, 8.043151f, -4, -2 },
  { 7, 34.109970f, 1, 14 },
  { 10, 8.774343f, 1, 7 },
  { 10, 7.443018f, 1, 3 },
  { 1, 0.000895f, -2, 1 },
  { 12, 2707.031250f, -2, -3 },
  { 12, 1007.812500f, -3, 1 },
  { 8, 8.130335f, 1, -2 },
  { 10, 7.538283f, -3, -2 },
  { 8, 10.871001f, 1, 5 },
  { 11, 1171.875000f, 1, 3 },
  { 6, 10.970987f, -2, 1 },
  { 2, -0.037625f, -3, -2 },
  { 4, 6.362865f, -2, -3 },
  { 5, 1.693029f, -3, -2 },
  { 2, -0.938499f, 1, 2 },
  { 6, 10.150787f, -3, -2 },
  { 7, 34.482967f, 1, -2 },
  { 1, 0.001268f, -2, -3 },
  { 6, 12.349391f, 1, 7 },
  { 0, 0.045660f, 1, 4 },
  { 1, 0.001206f, -1, 1 },
  { 7, 31.996560f, 1, -2 },
  { 4, 4.114696f, -1, -3 },
  { 8, 35.887878f, -4, 1 },
  { 5, 1.490492f, -5, -1 },
  { 1, 0.002847f, -2, -4 },
  { 8, 40.662677f, -4, -5 },
  { 8, 56.095041f, 1, -5 },
  { 9, 13.468491f, 1, 306 },
  { 11, 621.093750f, 1, 30 },
  { 0, 0.031031f, 1, 26 },
  { 4, 5.902960f, 1, 23 },
  { 13, 621.093750f, 1, 6 },
  { 3, 6.443287f, 1, 4 },
  { 2, -0.113807f, 1, -1 },
  { 12, 1089.843750f, -1, 1 },
  { 13, 375.000000f, -2, -1 },
  { 0, 0.027469f, -1, -3 },
  { 7, 21.307076f, 1, 11 },
  { 1, 0.000819f, 1, 8 },
  { 12, 1054.687500f, 1, 3 },
  { 0, 0.028066f, -1, 1 },
  { 0, 0.028155f, -3, -1 },
  { 12, 1113.281250f, -2, 1 },
  { 5, 1.465512f, 1, 2 },
  { 3, 4.746662f, -2, -3 },
  { 1, 0.000733f, -1, -3 },
  { 11, 386.718750f, -3, 1 },
  { 6, 5.499374f, -3, -1 },
  { 0, 0.028342f, 1, 4 },
  { 5, 1.561460f, 1, -1 },
  { 13, 1160.156250f, -2, 1 },
  { 3, 6.308553f, -3, -1 },
  { 5, 1.550365f, -3, -1 },
  { 8, 5.461657f, -1, 1 },
  { 11, 410.156250f, -2, -1 },
  { 9, 10.562051f, 1, 2 },
  { 8, 12.779424f, -3, -1 },
  { 0, 0.043997f, -3, -4 },
  { 3, 9.027411f, 1, 256 },
  { 13, 2988.281250f, 1, 254 },
  { 1, 0.000666f, 1, 138 },
  { 0, 0.020946f, 1, 9 },
  { 6, 9.826061f, 1, -2 },
  { 8, 5.757544f, -1, 1 },
  { 0, 0.020459f, 1, 3 },
  { 5, 1.439824f, 1, -1 },
  { 0, 0.014509f, -1, -2 },
  { 9, 5.525482f, 1, 2 },
  { 11, 2789.062500f, -2, -1 },
  { 10, 5.299194f, -3, -1 },
  { 11, 1160.156250f, 1, 45 },
  { 12, 3000.000000f, 1, -1 },
  { 7, 22.599986f, 1, 37 },
  { 5, 1.505472f, 1, 13 },
  { 13, 714.843750f, 1, 3 },
  { 1, 0.000597f, 1, -3 },
  { 8, 8.440891f, -2, -1 },
  { 0, 0.025674f, 1, 8 },
  { 2, -0.028002f, 1, 5 },
  { 0, 0.025152f, 1, -1 },
  { 3, 4.732373f, 1, -2 },
  { 10, 6.308595f, -2, 1 },
  { 4, 3.978299f, -1, -2 },
  { 11, 1019.531250f, 1, -2 },
  { 9, 7.317667f, -2, -1 },
  { 0, 0.025756f, -3, -2 },
  { 10, 6.677421f, 1, 15 },
  { 5, 1.505721f, -3, 1 },
  { 1, 0.000503f, 1, 2 },
  { 4, 4.754723f, -1, -2 },
  { 11, 785.156250f, 1, 5 },
  { 13, 1148.437500f, 1, 2 },
  { 11, 714.843750f, -3, -2 },
  { 3, 5.719617f, 1, -3 },
  { 4, 4.410250f, -3, -2 },
  { 11, 1113.281250f, 1, -2 },
  { 3, 5.807220f, 1, -2 },
  { 13, 984.375000f, -3, 1 },
  { 10, 5.166298f, -3, 1 },
  { 4, 4.333958f, 1, -2 },
  { 9, 6.403826f, -2, -3 },
  { 3, 5.540307f, 1, 2 },
  { 13, 1417.968750f, -1, -3 },
  { 9, 7.100337f, 1, 3 },
  { 0, 0.023091f, -1, 1 },
  { 5, 1.527225f, -2, -1 },
  { 13, 796.875000f, -1, 1 },
  { 0, 0.023481f, -1, 1 },
  { 5, 1.558710f, -2, -1 },
  { 11, 1019.531250f, 1, 3 },
  { 1, 0.000633f, -2, 1 },
  { 6, 6.462633f, -1, -3 },
  { 5, 1.575311f, -2, 1 },
  { 12, 1089.843750f, 1, -2 },
  { 6, 7.438617f, -3, -2 },
  { 10, 6.389989f, 1, 48 },
  { 0, 0.021406f, 1, 4 },
  { 8, 5.787233f, 1, 2 },
  { 9, 5.257749f, -2, -3 },
  { 4, 5.719839f, -1, -2 },
  { 11, 2976.562500f, 1, -1 },
  { 2, 0.010790f, 1, 21 },
  { 5, 1.529960f, 1, 13 },
  { 0, 0.024919f, 1, 8 },
  { 3, 6.009680f, 1, -2 },
  { 13, 1171.875000f, 1, 2 },
  { 5, 1.516930f, -2, -1 },
  { 4, 4.003646f, 1, 3 },
  { 11, 1277.343750f, -1, 1 },
  { 0, 0.022024f, -3, -2 },
  { 1, 0.000552f, -1, -3 },
  { 1, 0.000636f, 1, -3 },
  { 13, 1429.687500f, 1, -3 },
  { 10, 5.986171f, -2, 1 },
  { 9, 6.773981f, -3, -1 },
  { 5, 1.557546f, 1, 3 },
  { 4, 4.058183f, 1, -3 },
  { 11, 1640.625000f, -1, -3 },
  { 3, 6.957530f, 1, 3 },
  { 12, 1464.843750f, -1, 1 },
  { 6, 5.727996f, -1, -3 },
  { 1, 0.000522f, -1, -2 },
  { 0, 0.024970f, 1, 19 },
  { 5, 1.512328f, 1, 6 },
  { 10, 4.848458f, 1, 2 },
  { 5, 1.467027f, -2, -3 },
  { 7, 18.229645f, 1, -2 },
  { 8, 6.407036f, 1, -2 },
  { 6, 6.611655f, -2, -3 },
  { 2, 0.099832f, 1, 6 },
  { 7, 19.207207f, -1, 1 },
  { 1, 0.000593f, 1, 3 },
  { 10, 5.406750f, -3, 1 },
  { 0, 0.023154f, -2, -3 },
  { 10, 6.089605f, -2, -1 },
  { 6, 6.989295f, 1, 2 },
  { 10, 5.343303f, -3, -1 },
  { 0, 0.022866f, 1, 2 },
  { 10, 6.223583f, -2, -1 },
  { 6, 8.446591f, 1, -2 },
  { 13, 1289.062500f, -2, -1 },
  { 9, 6.427766f, -3, 1 },
  { 6, 7.058573f, -3, -2 },
  { 0, 0.024223f, 1, 15 },
  { 4, 5.385286f, 1, 13 },
  { 7, 22.795512f, 1, -2 },
  { 4, 4.592334f, 1, 5 },
  { 5, 1.454836f, -2, 1 },
  { 9, 7.267230f, 1, -1 },
  { 1, 0.000526f, -1, 1 },
  { 0, 0.023493f, -2, -1 },
  { 4, 4.618562f, -2, 1 },
  { 11, 1546.875000f, 1, -1 },
  { 8, 7.902791f, 1, 2 },
  { 4, 5.137763f, -2, -1 },
  { 6, 7.637377f, -1, 1 },
  { 5, 1.517415f, -2, -1 },
  { 5, 1.537916f, -2, -1 },
  { 9, 7.570200f, 1, 13 },
  { 6, 7.480253f, 1, 9 },
  { 10, 6.610457f, 1, 2 },
  { 2, -0.150862f, -1, -3 },
  { 10, 7.340664f, 1, -3 },
  { 7, 20.843918f, 1, -2 },
  { 6, 5.740787f, -2, 1 },
  { 9, 7.393690f, 1, 2 },
  { 5, 1.496487f, -3, -1 },
  { 3, 5.326912f, -1, -3 },
  { 13, 1042.968750f, -3, 1 },
  { 12, 1453.125000f, -2, 1 },
  { 0, 0.025474f, -3, -2 },
  { 2, 0.081632f, 1, 3 },
  { 11, 1464.843750f, -1, 1 },
  { 1, 0.000657f, -1, -3 },
  { 3, 6.269976f, 1, 2 },
  { 5, 1.494308f, -2, -1 },
  { 4, 5.495731f, -2, 1 },
  { 1, 0.000638f, -1, -2 },
  { 1, 0.002084f, 1, -4 },
  { 1, 0.000774f, 1, 59 },
  { 5, 1.572570f, 1, 43 },
  { 9, 8.166842f, 1, 32 },
  { 10, 7.287507f, 1, 22 },
  { 3, 6.397748f, 1, 17 },
  { 5, 1.540911f, 1, 10 },
  { 9, 7.454768f, 1, 3 },
  { 2, 0.075032f, -3, 1 },
  { 6, 5.716772f, -1, -3 },
  { 13, 585.937500f, 1, 2 },
  { 6, 6.628505f, -1, -3 },
  { 8, 9.572696f, 1, 3 },
  { 5, 1.492764f, 1, -3 },
  { 5, 1.487941f, -3, -2 },
  { 8, 10.006769f, -1, -3 },
  { 10, 6.906664f, 1, 5 },
  { 3, 5.692997f, 1, 2 },
  { 2, 0.053734f, -1, -3 },
  { 8, 7.937288f, -3, 1 },
  { 13, 562.500000f, -2, -3 },
  { 12, 890.625000f, -3, -1 },
  { 5, 1.521122f, -2, 1 },
  { 3, 6.427145f, -2, 1 },
  { 12, 1441.406250f, 1, -3 },
  { 8, 6.587045f, -2, -3 },
  { 7, 22.283449f, 1, -2 },
  { 1, 0.000710f, 1, 5 },
  { 11, 2167.968750f, 1, -1 },
  { 10, 7.368642f, -1, 1 },
  { 3, 5.448949f, -3, 1 },
  { 8, 8.511515f, -2, -1 },
  { 3, 5.230769f, -3, 1 },
  { 10, 7.432714f, -1, 1 },
  { 11, 1300.781250f, -1, -3 },
  { 10, 7.657912f, 1, 4 },
  { 11, 1429.687500f, 1, -3 },
  { 7, 20.004241f, -1, 1 },
  { 1, 0.000711f, -2, -3 },
  { 8, 8.726225f, 1, 2 },
  { 1, 0.000744f, -1, -3 },
  { 12, 1394.531250f, -1, 1 },
  { 13, 1453.125000f, -1, 1 },
  { 13, 1652.343750f, 1, -3 },
  { 3, 5.871594f, -3, -1 },
  { 4, 4.417871f, 1, 3 },
  { 2, -0.344339f, -2, 1 },
  { 3, 6.053437f, -1, -3 },
  { 11, 1019.531250f, 1, 2 },
  { 13, 1019.531250f, -1, -3 },
  { 5, 1.615812f, 1, -2 },
  { 13, 1441.406250f, 1, 6 },
  { 8, 6.779215f, -3, 1 },
  { 8, 9.234302f, 1, 2 },
  { 13, 1007.812500f, -1, -2 },
  { 3, 6.769326f, -1, 1 },
  { 8, 10.083079f, -1, -2 },
  { 5, 1.573798f, -2, 1 },
  { 0, 0.026974f, 1, -3 },
  { 0, 0.026174f, -3, -2 },
  { 5, 1.645384f, 1, 49 },
  { 11, 2976.562500f, 1, 47 },
  { 6, 4.850692f, 1, 2 },
  { 7, 16.865149f, -1, -3 },
  { 13, 515.625000f, 1, 8 },
  { 1, 0.000820f, 1, 4 },
  { 3, 6.198169f, 1, -1 },
  { 6, 5.531763f, -1, 1 },
  { 3, 5.107608f, -1, -3 },
  { 2, 0.222365f, 1, 2 },
  { 13, 386.718750f, -3, -1 },
  { 8, 9.375517f, -3, -1 },
  { 10, 12.752628f, 1, -1 },
  { 0, 0.029144f, 1, 26 },
  { 5, 1.607386f, 1, 23 },
  { 2, 0.229696f, 1, 20 },
  { 2, -0.160041f, 1, 12 },
  { 0, 0.029134f, 1, -1 },
  { 0, 0.028680f, 1, 4 },
  { 12, 1921.875000f, -3, 1 },
  { 10, 7.169205f, -3, 1 },
  { 11, 1300.781250f, -1, -3 },
  { 5, 1.546684f, -3, 1 },
  { 6, 6.461571f, 1, 3 },
  { 12, 1277.343750f, 1, -1 },
  { 7, 20.245589f, -1, -3 },
  { 3, 6.199228f, 1, -3 },
  { 4, 4.566892f, -1, -3 },
  { 6, 5.590632f, 1, 3 },
  { 4, 3.617472f, -3, 1 },
  { 4, 3.653114f, -1, -3 },
  { 9, 12.285314f, 1, -1 },
  { 13, 1335.937500f, 1, -3 },
  { 5, 1.529159f, -3, 1 },
  { 13, 1300.781250f, -3, -1 },
  { 9, 8.310456f, 1, -1 },
  { 10, 7.710499f, -3, -1 },
  { 7, 25.017719f, -2, 1 },
  { 0, 0.028305f, -2, -3 },
  { 7, 21.428643f, 1, -3 },
  { 2, 0.428665f, 1, -1 },
  { 12, 527.343750f, 1, 3 },
  { 0, 0.029968f, 1, -3 },
  { 13, 1371.093750f, -1, -3 },
  { 7, 20.896744f, -3, 1 },
  { 2, -0.011836f, -3, 1 },
  { 13, 1898.437500f, -3, 1 },
  { 1, 0.000889f, -1, -3 },
  { 9, 7.877070f, -3, -1 },
  { 1, 0.000991f, 1, -3 },
  { 7, 28.122514f, 1, 4 },
  { 8, 7.345580f, -3, 1 },
  { 0, 0.028303f, 1, -2 },
  { 2, -0.052935f, -3, -2 },
  { 0, 0.029175f, -2, -3 },
  { 0, 0.042919f, -1, -4 },
  { 5, 1.692828f, 1, 14 },
  { 9, 9.276275f, 1, 9 },
  { 2, -0.449100f, 1, 2 },
  { 9, 7.613307f, -2, -3 },
  { 0, 0.029240f, 1, 4 },
  { 2, 1.215399f, 1, -1 },
  { 9, 6.077125f, 1, -2 },
  { 12, 2941.406250f, -2, -3 },
  { 0, 0.030815f, 1, -3 },
  { 4, 6.475860f, -2, -3 },
  { 2, 0.288332f, 1, 2 },
  { 1, 0.000889f, -2, -3 },
  { 6, 11.677957f, 1, -2 },
  { 2, 0.460496f, -2, -3 },
  { 13, 2988.281250f, 1, -1 },
  { 9, 3.385819f, -1, 1 },
  { 13, 914.062500f, 1, -2 },
  { 7, 34.588057f, 1, -2 },
  { 10, 9.091328f, -2, -3 },
  { 3, 13.167841f, 1, -2 },
  { 0, 0.044387f, 1, 3 },
  { 6, 7.420365f, -1, 1 },
  { 9, 13.742469f, -3, -2 },
  { 9, 26.703300f, -4, 1 },
  { 5, 1.481298f, -5, -1 },
  { 12, 621.093750f, 1, 30 },
  { 9, 40.106262f, 1, -5 },
  { 12, 339.843750f, 1, 3 },
  { 12, 269.531250f, -1, 1 },
  { 7, 25.932467f, -1, -2 },
  { 1, 0.001903f, 1, 24 },
  { 1, 0.000723f, 1, 11 },
  { 4, 5.580439f, 1, 8 },
  { 12, 386.718750f, 1, -1 },
  { 11, 656.250000f, -1, 1 },
  { 3, 5.315313f, 1, 2 },
  { 2, 0.270080f, -2, -3 },
  { 1, 0.000576f, -2, 1 },
  { 3, 5.732728f, 1, -3 },
  { 8, 6.956996f, -2, -3 },
  { 1, 0.000443f, -1, 1 },
  { 9, 6.887907f, -2, -1 },
  { 11, 1441.406250f, 1, 9 },
  { 8, 9.597972f, 1, 4 },
  { 3, 7.711018f, 1, -2 },
  { 0, 0.027609f, -1, 1 },
  { 3, 4.922418f, -1, -3 },
  { 0, 0.034168f, 1, 3 },
  { 9, 8.443258f, 1, -1 },
  { 6, 7.064415f, -1, -3 },
  { 2, 0.174486f, -3, -1 },
  { 12, 386.718750f, 1, 2 },
  { 5, 1.671041f, -3, -2 },
  { 10, 7.599869f, -3, -1 },
  { 8, 35.763097f, -4, -1 },
  { 3, 8.414627f, 1, 273 },
  { 11, 597.656250f, 1, 22 },
  { 10, 10.771159f, 1, 20 },
  { 0, 0.029734f, 1, 16 },
  { 5, 1.483402f, 1, 3 },
  { 1, 0.000390f, -1, 1 },
  { 9, 8.664887f, -2, -1 },
  { 1, 0.000778f, 1, 8 },
  { 4, 5.104791f, 1, 3 },
  { 1, 0.000622f, -1, 1 },
  { 10, 6.192545f, -2, -1 },
  { 6, 7.772115f, -2, 1 },
  { 1, 0.000536f, -1, 1 },
  { 11, 386.718750f, 1, -1 },
  { 5, 1.555255f, -3, -2 },
  { 9, 8.261318f, 1, 2 },
  { 5, 1.607861f, -3, -2 },
  { 7, 22.586218f, 1, -3 },
  { 13, 375.000000f, -3, -1 },
  { 0, 0.031031f, 1, 2 },
  { 9, 8.299441f, -3, -1 },
  { 5, 1.600912f, -3, -1 },
  { 11, 457.031250f, -4, -1 },
  { 1, 0.000668f, 1, 139 },
  { 0, 0.021011f, 1, 12 },
  { 10, 4.326497f, -1, 1 },
  { 5, 1.453506f, 1, 2 },
  { 0, 0.019540f, -1, -2 },
  { 3, 7.659444f, 1, -2 },
  { 9, 4.381592f, -2, 1 },
  { 11, 2917.968750f, 1, 4 },
  { 0, 0.020819f, -1, 1 },
  { 4, 4.040312f, 1, -1 },
  { 12, 1066.406250f, -2, -1 },
  { 7, 19.321054f, -1, 1 },
  { 3, 5.518826f, -3, -1 },
  { 8, 8.070055f, 1, 86 },
  { 5, 1.489900f, 1, 19 },
  { 0, 0.024320f, 1, 12 },
  { 11, 2882.812500f, 1, 8 },
  { 10, 6.029651f, 1, 3 },
  { 13, 1769.531250f, -2, 1 },
  { 13, 1851.562500f, -1, -2 },
  { 5, 1.472044f, -2, 1 },
  { 3, 4.758950f, -1, 1 },
  { 0, 0.021974f, 1, -2 },
  { 6, 6.973064f, -2, -1 },
  { 2, -0.030061f, -3, 1 },
  { 10, 4.896921f, -3, 1 },
  { 10, 6.287473f, -2, -1 },
  { 11, 1464.843750f, 1, 5 },
  { 9, 7.672448f, 1, -1 },
  { 11, 878.906250f, -3, 1 },
  { 7, 20.888325f, -2, 1 },
  { 9, 6.703294f, -2, -3 },
  { 3, 5.856652f, -3, -2 },
  { 3, 6.383178f, 1, 49 },
  { 11, 1160.156250f, 1, 21 },
  { 5, 1.539276f, 1, 15 },
  { 12, 2203.125000f, 1, 8 },
  { 10, 6.678313f, 1, 6 },
  { 8, 5.684084f, -3, 1 },
  { 5, 1.490472f, -3, 1 },
  { 10, 5.595036f, 1, -2 },
  { 0, 0.025198f, 1, -3 },
  { 3, 4.943225f, -1, -2 },
  { 6, 7.392749f, -1, -2 },
  { 4, 4.255877f, 1, 3 },
  { 3, 5.621544f, 1, -3 },
  { 1, 0.000599f, -1, -3 },
  { 8, 6.021622f, -3, 1 },
  { 5, 1.504963f, 1, -2 },
  { 10, 5.515419f, -2, -3 },
  { 10, 6.578561f, 1, -1 },
  { 8, 5.878025f, -1, 1 },
  { 13, 1089.843750f, 1, -3 },
  { 13, 1007.812500f, 1, -2 },
  { 2, 0.004774f, -2, -3 },
  { 10, 6.036211f, 1, 17 },
  { 2, 0.135671f, 1, 13 },
  { 4, 4.026917f, 1, 4 },
  { 7, 17.418352f, 1, 2 },
  { 7, 17.025696f, -3, -2 },
  { 12, 785.156250f, -2, -1 },
  { 2, 0.017227f, 1, 4 },
  { 2, -0.152900f, 1, 2 },
  { 1, 0.000511f, -1, -3 },
  { 13, 2964.843750f, -3, -1 },
  { 13, 1523.437500f, 1, -3 },
  { 2, 0.031696f, -2, 1 },
  { 2, 0.085705f, 1, -3 },
  { 12, 1417.968750f, -1, -2 },
  { 8, 6.059999f, 1, 2 },
  { 7, 18.538630f, -3, -2 },
  { 1, 0.000592f, -1, -2 },
  { 11, 1394.531250f, 1, 3 },
  { 1, 0.000606f, -1, 1 },
  { 2, -0.022171f, -2, -1 },
  { 12, 1464.843750f, 1, 4 },
  { 0, 0.023227f, -1, 1 },
  { 3, 5.360876f, -1, 1 },
  { 11, 2238.281250f, -2, -3 },
  { 12, 2964.843750f, 1, 2 },
  { 3, 6.368869f, -3, -1 },
  { 13, 1523.437500f, -2, -1 },
  { 6, 6.477593f, 1, 3 },
  { 13, 1125.000000f, -2, 1 },
  { 8, 6.347340f, -3, -1 },
  { 11, 1757.812500f, 1, 11 },
  { 5, 1.570350f, 1, 3 },
  { 9, 7.511294f, -2, 1 },
  { 12, 1089.843750f, -1, -2 },
  { 0, 0.024594f, 1, -2 },
  { 2, 0.067691f, 1, 5 },
  { 8, 7.223539f, 1, 3 },
  { 8, 6.758239f, 1, -3 },
  { 5, 1.573866f, -3, -2 },
  { 11, 1171.875000f, -2, -1 },
  { 11, 1148.437500f, -2, -1 },
  { 7, 25.456699f, 1, -2 },
  { 11, 2917.968750f, -1, 1 },
  { 10, 6.498269f, -2, -1 },
  { 11, 1160.156250f, 1, 16 },
  { 10, 6.802775f, 1, 8 },
  { 7, 19.121087f, 1, 5 },
  { 11, 902.343750f, -3, 1 },
  { 5, 1.506790f, -2, 1 },
  { 0, 0.025141f, 1, -2 },
  { 11, 1136.718750f, -1, -2 },
  { 10, 6.687949f, -2, 1 },
  { 4, 4.533966f, -1, -2 },
  { 1, 0.000559f, -1, 1 },
  { 11, 1019.531250f, -1, 1 },
  { 2, 0.361929f, 1, -1 },
  { 13, 1160.156250f, -2, 1 },
  { 5, 1.542460f, 1, -1 },
  { 5, 1.518257f, -2, 1 },
  { 10, 7.353729f, -2, -1 },
  { 10, 6.685551f, 1, 13 },
  { 8, 9.192641f, 1, 10 },
  { 1, 0.000576f, 1, 6 },
  { 2, 0.044212f, -1, 1 },
  { 4, 4.224515f, 1, 2 },
  { 5, 1.477625f, -2, -1 },
  { 3, 5.868974f, -2, 1 },
  { 7, 20.393548f, -3, -2 },
  { 3, 5.760511f, 1, -2 },
  { 0, 0.024612f, 1, -3 },
  { 8, 8.674362f, -3, -2 },
  { 3, 4.889554f, -2, 1 },
  { 1, 0.000637f, -1, -3 },
  { 5, 1.480894f, 1, 3 },
  { 1, 0.000585f, -1, 1 },
  { 2, 0.031810f, -1, -2 },
  { 2, 0.410357f, 1, 7 },
  { 0, 0.024357f, -1, 1 },
  { 2, -0.033140f, 1, -1 },
  { 2, -0.053967f, 1, -3 },
  { 6, 7.012190f, 1, -3 },
  { 7, 21.006330f, -1, 1 },
  { 11, 1734.375000f, -3, -1 },
  { 6, 8.092310f, -2, -1 },
  { 0, 0.048483f, 1, -4 },
  { 0, 0.026727f, 1, 28 },
  { 10, 6.881140f, 1, 9 },
  { 12, 1464.843750f, 1, 7 },
  { 11, 1183.593750f, 1, 4 },
  { 11, 1136.718750f, 1, -2 },
  { 5, 1.516958f, -3, 1 },
  { 7, 20.877806f, -3, -2 },
  { 7, 25.023481f, 1, -2 },
  { 5, 1.532330f, -3, -1 },
  { 5, 1.568480f, -3, -2 },
  { 12, 1230.468750f, 1, 9 },
  { 6, 7.617179f, 1, 6 },
  { 11, 1347.656250f, 1, 4 },
  { 8, 8.254232f, -2, 1 },
  { 1, 0.000687f, 1, -1 },
  { 13, 1113.281250f, -1, -2 },
  { 10, 7.583233f, -3, -2 },
  { 1, 0.000698f, -2, 1 },
  { 0, 0.026556f, -3, -2 },
  { 7, 15.593053f, -2, 1 },
  { 4, 5.945496f, 1, -3 },
  { 8, 11.413313f, 1, -3 },
  { 4, 4.814964f, 1, -1 },
  { 3, 5.623753f, 1, 3 },
  { 7, 18.283047f, 1, -1 },
  { 4, 4.141321f, -1, -3 },
  { 5, 1.543961f, -3, 1 },
  { 9, 7.920696f, -3, -1 },
  { 13, 2988.281250f, 1, -1 },
  { 7, 15.726026f, 1, 2 },
  { 13, 714.843750f, -1, -3 },
  { 2, 0.520855f, 1, -1 },
  { 11, 2988.281250f, 1, 77 },
  { 3, 7.402326f, 1, 61 },
  { 4, 3.645038f, 1, 9 },
  { 1, 0.000770f, 1, 3 },
  { 5, 1.534978f, 1, -1 },
  { 0, 0.027722f, -3, -1 },
  { 6, 5.589281f, 1, 4 },
  { 3, 6.051292f, -3, 1 },
  { 6, 5.464509f, 1, -3 },
  { 13, 1535.156250f, -1, -3 },
  { 2, -0.029403f, -3, -1 },
  { 1, 0.000872f, 1, 45 },
  { 9, 9.832147f, 1, 40 },
  { 5, 1.621688f, 1, 37 },
  { 8, 10.848425f, 1, 31 },
  { 6, 9.624412f, 1, 28 },
  { 0, 0.029522f, 1, -1 },
  { 2, 0.351648f, 1, -2 },
  { 2, 0.234750f, 1, 20 },
  { 9, 8.901670f, 1, 10 },
  { 10, 7.109205f, -3, 1 },
  { 10, 7.109506f, -1, 1 },
  { 2, 0.103092f, 1, 4 },
  { 11, 1160.156250f, 1, -3 },
  { 8, 7.972061f, 1, -3 },
  { 3, 5.695656f, -1, -3 },
  { 0, 0.027522f, 1, -3 },
  { 0, 0.026945f, -3, 1 },
  { 2, 0.104090f, -2, -1 },
  { 10, 8.507349f, 1, 6 },
  { 8, 9.170046f, 1, 3 },
  { 12, 1406.250000f, 1, -3 },
  { 10, 7.473449f, -3, -1 },
  { 6, 5.866888f, 1, -3 },
  { 5, 1.557724f, -3, -1 },
  { 13, 1441.406250f, 1, -3 },
  { 13, 1125.000000f, 1, -1 },
  { 2, -0.021466f, -3, -1 },
  { 0, 0.027347f, 1, 3 },
  { 0, 0.027181f, -3, 1 },
  { 12, 1277.343750f, -1, -2 },
  { 4, 4.588717f, 1, -3 },
  { 11, 1125.000000f, -1, -3 },
  { 4, 6.282337f, 1, -3 },
  { 8, 8.112373f, -3, -1 },
  { 8, 11.152010f, 1, -3 },
  { 11, 1406.250000f, 1, 2 },
  { 10, 8.947041f, -1, -2 },
  { 4, 4.118911f, -3, 1 },
  { 6, 6.795388f, -3, -1 },
  { 11, 1242.187500f, -1, 1 },
  { 10, 7.381730f, -2, -3 },
  { 4, 4.569241f, 1, -3 },
  { 3, 5.858741f, -1, 1 },
  { 9, 10.020585f, -3, 1 },
  { 5, 1.558289f, -3, -1 },
  { 2, 0.454466f, 1, 5 },
  { 2, 0.263599f, 1, 3 },
  { 1, 0.000909f, 1, -3 },
  { 0, 0.030134f, -3, -1 },
  { 2, 0.265070f, -2, -3 },
  { 5, 1.569939f, -1, -3 },
  { 2, -0.169904f, 1, 4 },
  { 8, 7.070323f, -2, 1 },
  { 0, 0.029265f, 1, -3 },
  { 9, 7.734715f, -3, -2 },
  { 1, 0.000796f, 1, 6 },
  { 13, 1722.656250f, 1, -3 },
  { 7, 24.622894f, 1, 2 },
  { 2, 0.132033f, -3, -2 },
  { 10, 7.751666f, -2, 1 },
  { 12, 1464.843750f, -1, -2 },
  { 1, 0.000863f, 1, 3 },
  { 9, 7.741993f, 1, -2 },
  { 7, 24.961718f, -2, -3 },
  { 10, 7.253558f, 1, -3 },
  { 6, 9.261844f, -2, -3 },
  { 2, -0.252770f, -3, -1 },
  { 1, 0.000323f, -1, 1 },
  { 7, 31.356740f, 1, 22 },
  { 10, 7.896653f, 1, 14 },
  { 0, 0.030556f, 1, 11 },
  { 12, 2976.562500f, 1, -1 },
  { 6, 6.654016f, -1, 1 },
  { 3, 9.107329f, 1, -2 },
  { 0, 0.028475f, -2, 1 },
  { 4, 6.628866f, 1, -3 },
  { 3, 8.435756f, -3, 1 },
  { 13, 1406.250000f, 1, 3 },
  { 0, 0.029565f, -2, 1 },
  { 11, 996.093750f, -3, -2 },
  { 6, 8.548782f, -3, -2 },
  { 6, 9.976201f, -3, 1 },
  { 10, 7.616779f, -3, -2 },
  { 1, 0.000970f, 1, 4 },
  { 5, 1.662174f, 1, -2 },
  { 2, -0.162426f, 1, -2 },
  { 6, 7.769723f, -2, -3 },
  { 0, 0.033691f, 1, 2 },
  { 5, 1.708756f, -3, -2 },
  { 0, 0.056256f, -3, -4 },
  { 5, 1.680395f, 1, 7 },
  { 8, 9.217785f, 1, 2 },
  { 0, 0.028814f, -2, -3 },
  { 11, 1113.281250f, 1, 2 },
  { 1, 0.000811f, -2, -3 },
  { 3, 10.244072f, -3, 1 },
  { 11, 1500.000000f, -2, -3 },
  { 13, 949.218750f, 1, -2 },
  { 9, 11.333449f, 1, -3 },
  { 8, 12.314798f, 1, -3 },
  { 13, 914.062500f, -2, -3 } 
};

static const int32_t model_tree_roots[3] = { 0, 317, 630 };

static const uint8_t model_leaves[5] = { 0, 4, 2, 1, 3 };

EmlTrees model = {
        967,
        (EmlTreesNode *)(model_nodes),	  
        3,
        (int32_t *)(model_tree_roots),
        5,
        (uint8_t *)(model_leaves),
        0,
        14,
        5,
    };

static inline int32_t model_tree_0(const float *features, int32_t features_length) {
          if (features[0] < 0.071058f) {
              if (features[9] < 13.351660f) {
                  if (features[1] < 0.000458f) {
                      if (features[0] < 0.020890f) {
                          if (features[0] < 0.020458f) {
                              if (features[9] < 4.451605f) {
                                  return 0;
                              } else {
                                  if (features[0] < 0.019910f) {
                                      return 0;
                                  } else {
                                      if (features[8] < 5.307284f) {
                                          return 4;
                                      } else {
                                          if (features[3] < 4.780447f) {
                                              if (features[7] < 16.752321f) {
                                                  return 0;
                                              } else {
                                                  return 2;
                                              }
                                          } else {
                                              return 0;
                                          }
                                      }
                                  }
                              }
                          } else {
                              if (features[9] < 5.848466f) {
                                  if (features[0] < 0.020674f) {
                                      if (features[11] < 1160.156250f) {
                                          return 4;
                                      } else {
                                          if (features[12] < 1113.281250f) {
                                              return 4;
                                          } else {
                                              return 0;
                                          }
                                      }
                                  } else {
                                      if (features[2] < -0.112423f) {
                                          if (features[11] < 1558.593750f) {
                                              return 4;
                                          } else {
                                              return 0;
                                          }
                                      } else {
                                          return 0;
                                      }
                                  }
                              } else {
                                  return 0;
                              }
                          }
                      } else {
                          if (features[5] < 1.498320f) {
                              if (features[8] < 6.160946f) {
                                  return 4;
                              } else {
                                  if (features[2] < 0.079636f) {
                                      if (features[5] < 1.448519f) {
                                          return 4;
                                      } else {
                                          if (features[5] < 1.490474f) {
                                              if (features[0] < 0.021313f) {
                                                  return 0;
                                              } else {
                                                  if (features[8] < 7.927885f) {
                                                      return 4;
                                                  } else {
                                                      return 0;
                                                  }
                                              }
                                          } else {
                                              return 4;
                                          }
                                      }
                                  } else {
                                      return 4;
                                  }
                              }
                          } else {
                              if (features[11] < 1488.281250f) {
                                  if (features[9] < 5.641861f) {
                                      if (features[0] < 0.020990f) {
                                          return 0;
                                      } else {
                                          return 4;
                                      }
                                  } else {
                                      if (features[9] < 6.220062f) {
                                          if (features[12] < 1183.593750f) {
                                              if (features[12] < 773.437500f) {
                                                  return 0;
                                              } else {
                                                  return 4;
                                              }
                                          } else {
                                              return 0;
                                          }
                                      } else {
                                          return 0;
                                      }
                                  }
                              } else {
                                  if (features[4] < 4.198507f) {
                                      if (features[12] < 1160.156250f) {
                                          return 0;
                                      } else {
                                          return 2;
                                      }
                                  } else {
                                      if (features[5] < 1.516137f) {
                                          return 4;
                                      } else {
                                          return 0;
                                      }
                                  }
                              }
                          }
                      }
                  } else {
                      if (features[6] < 9.688524f) {
                          if (features[11] < 597.656250f) {
                              if (features[1] < 0.001763f) {
                                  if (features[11] < 386.718750f) {
                                      if (features[1] < 0.000661f) {
                                          if (features[9] < 6.786302f) {
                                              return 4;
                                          } else {
                                              return 0;
                                          }
                                      } else {
                                          if (features[12] < 562.500000f) {
                                              if (features[3] < 5.273938f) {
                                                  return 0;
                                              } else {
                                                  return 2;
                                              }
                                          } else {
                                              return 2;
                                          }
                                      }
                                  } else {
                                      if (features[11] < 550.781250f) {
                                          return 0;
                                      } else {
                                          if (features[9] < 6.808541f) {
                                              return 2;
                                          } else {
                                              if (features[11] < 574.218750f) {
                                                  return 2;
                                              } else {
                                                  return 0;
                                              }
                                          }
                                      }
                                  }
                              } else {
                                  return 1;
                              }
                          } else {
                              if (features[0] < 0.026724f) {
                                  if (features[10] < 6.821603f) {
                                      if (features[0] < 0.025451f) {
                                          if (features[5] < 1.489895f) {
                                              if (features[11] < 843.750000f) {
                                                  return 2;
                                              } else {
                                                  if (features[12] < 3105.468750f) {
                                                      if (features[0] < 0.024329f) {
                                                          if (features[5] < 1.489514f) {
                                                              return 4;
                                                          } else {
                                                              if (features[5] < 1.489603f) {
                                                                  return 2;
                                                              } else {
                                                                  return 4;
                                                              }
                                                          }
                                                      } else {
                                                          if (features[1] < 0.000593f) {
                                                              return 2;
                                                          } else {
                                                              if (features[10] < 5.449827f) {
                                                                  return 2;
                                                              } else {
                                                                  if (features[12] < 1664.062500f) {
                                                                      return 4;
                                                                  } else {
                                                                      if (features[0] < 0.025334f) {
                                                                          return 2;
                                                                      } else {
                                                                          return 4;
                                                                      }
                                                                  }
                                                              }
                                                          }
                                                      }
                                                  } else {
                                                      return 0;
                                                  }
                                              }
                                          } else {
                                              if (features[3] < 6.392787f) {
                                                  if (features[11] < 1160.156250f) {
                                                      if (features[6] < 6.303868f) {
                                                          if (features[3] < 4.924329f) {
                                                              return 2;
                                                          } else {
                                                              if (features[11] < 890.625000f) {
                                                                  return 2;
                                                              } else {
                                                                  if (features[10] < 5.665164f) {
                                                                      if (features[11] < 1019.531250f) {
                                                                          return 0;
                                                                      } else {
                                                                          return 4;
                                                                      }
                                                                  } else {
                                                                      if (features[13] < 1195.312500f) {
                                                                          if (features[4] < 3.857200f) {
                                                                              return 0;
                                                                          } else {
                                                                              if (features[0] < 0.022420f) {
                                                                                  return 0;
                                                                              } else {
                                                                                  return 4;
                                                                              }
                                                                          }
                                                                      } else {
                                                                          return 0;
                                                                      }
                                                                  }
                                                              }
                                                          }
                                                      } else {
                                                          if (features[11] < 1007.812500f) {
                                                              if (features[6] < 7.741924f) {
                                                                  if (features[4] < 4.512047f) {
                                                                      return 0;
                                                                  } else {
                                                                      return 2;
                                                                  }
                                                              } else {
                                                                  if (features[12] < 1558.593750f) {
                                                                      return 4;
                                                                  } else {
                                                                      return 0;
                                                                  }
                                                              }
                                                          } else {
                                                              if (features[5] < 1.491151f) {
                                                                  return 2;
                                                              } else {
                                                                  if (features[8] < 5.745948f) {
                                                                      return 2;
                                                                  } else {
                                                                      if (features[10] < 6.051382f) {
                                                                          return 4;
                                                                      } else {
                                                                          if (features[2] < 0.204091f) {
                                                                              if (features[10] < 6.153997f) {
                                                                                  return 2;
                                                                              } else {
                                                                                  if (features[13] < 667.968750f) {
                                                                                      return 0;
                                                                                  } else {
                                                                                      return 4;
                                                                                  }
                                                                              }
                                                                          } else {
                                                                              if (features[2] < 0.216704f) {
                                                                                  return 0;
                                                                              } else {
                                                                                  return 4;
                                                                              }
                                                                          }
                                                                      }
                                                                  }
                                                              }
                                                          }
                                                      }
                                                  } else {
                                                      if (features[10] < 6.081007f) {
                                                          if (features[5] < 1.512879f) {
                                                              if (features[0] < 0.024303f) {
                                                                  if (features[9] < 6.636727f) {
                                                                      return 4;
                                                                  } else {
                                                                      return 0;
                                                                  }
                                                              } else {
                                                                  if (features[9] < 5.597099f) {
                                                                      return 4;
                                                                  } else {
                                                                      if (features[2] < 0.262726f) {
                                                                          return 2;
                                                                      } else {
                                                                          return 4;
                                                                      }
                                                                  }
                                                              }
                                                          } else {
                                                              if (features[8] < 6.738973f) {
                                                                  if (features[2] < 0.148011f) {
                                                                      if (features[13] < 1183.593750f) {
                                                                          if (features[12] < 1242.187500f) {
                                                                              return 4;
                                                                          } else {
                                                                              if (features[1] < 0.000492f) {
                                                                                  return 0;
                                                                              } else {
                                                                                  return 2;
                                                                              }
                                                                          }
                                                                      } else {
                                                                          if (features[5] < 1.529428f) {
                                                                              if (features[10] < 5.911566f) {
                                                                                  if (features[1] < 0.000547f) {
                                                                                      return 0;
                                                                                  } else {
                                                                                      return 2;
                                                                                  }
                                                                              } else {
                                                                                  return 4;
                                                                              }
                                                                          } else {
                                                                              return 2;
                                                                          }
                                                                      }
                                                                  } else {
                                                                      if (features[11] < 2156.250000f) {
                                                                          return 4;
                                                                      } else {
                                                                          return 0;
                                                                      }
                                                                  }
                                                              } else {
                                                                  if (features[1] < 0.000565f) {
                                                                      if (features[0] < 0.023202f) {
                                                                          return 0;
                                                                      } else {
                                                                          if (features[4] < 4.115050f) {
                                                                              return 0;
                                                                          } else {
                                                                              return 2;
                                                                          }
                                                                      }
                                                                  } else {
                                                                      if (features[7] < 18.720779f) {
                                                                          return 0;
                                                                      } else {
                                                                          if (features[2] < 0.259197f) {
                                                                              if (features[0] < 0.024112f) {
                                                                                  return 4;
                                                                              } else {
                                                                                  return 2;
                                                                              }
                                                                          } else {
                                                                              return 4;
                                                                          }
                                                                      }
                                                                  }
                                                              }
                                                          }
                                                      } else {
                                                          if (features[4] < 5.234056f) {
                                                              if (features[1] < 0.000607f) {
                                                                  return 0;
                                                              } else {
                                                                  if (features[13] < 1335.937500f) {
                                                                      if (features[1] < 0.000615f) {
                                                                          return 4;
                                                                      } else {
                                                                          return 2;
                                                                      }
                                                                  } else {
                                                                      return 0;
                                                                  }
                                                              }
                                                          } else {
                                                              if (features[6] < 8.197308f) {
                                                                  return 2;
                                                              } else {
                                                                  return 4;
                                                              }
                                                          }
                                                      }
                                                  }
                                              } else {
                                                  if (features[11] < 1769.531250f) {
                                                      if (features[13] < 2964.843750f) {
                                                          if (features[5] < 1.570236f) {
                                                              return 4;
                                                          } else {
                                                              if (features[3] < 6.836052f) {
                                                                  if (features[1] < 0.000576f) {
                                                                      if (features[13] < 1546.875000f) {
                                                                          return 2;
                                                                      } else {
                                                                          return 0;
                                                                      }
                                                                  } else {
                                                                      return 4;
                                                                  }
                                                              } else {
                                                                  if (features[0] < 0.022778f) {
                                                                      return 0;
                                                                  } else {
                                                                      if (features[6] < 7.225067f) {
                                                                          if (features[5] < 1.576552f) {
                                                                              return 2;
                                                                          } else {
                                                                              return 4;
                                                                          }
                                                                      } else {
                                                                          if (features[12] < 2226.562500f) {
                                                                              return 4;
                                                                          } else {
                                                                              if (features[1] < 0.000583f) {
                                                                                  return 4;
                                                                              } else {
                                                                                  return 2;
                                                                              }
                                                                          }
                                                                      }
                                                                  }
                                                              }
                                                          }
                                                      } else {
                                                          return 0;
                                                      }
                                                  } else {
                                                      if (features[7] < 25.556469f) {
                                                          return 0;
                                                      } else {
                                                          return 4;
                                                      }
                                                  }
                                              }
                                          }
                                      } else {
                                          if (features[12] < 1394.531250f) {
                                              if (features[5] < 1.539481f) {
                                                  if (features[8] < 9.992005f) {
                                                      if (features[7] < 22.385068f) {
                                                          if (features[0] < 0.025660f) {
                                                              if (features[6] < 6.485415f) {
                                                                  if (features[6] < 5.605116f) {
                                                                      return 0;
                                                                  } else {
                                                                      return 2;
                                                                  }
                                                              } else {
                                                                  if (features[2] < 0.099404f) {
                                                                      return 4;
                                                                  } else {
                                                                      return 2;
                                                                  }
                                                              }
                                                          } else {
                                                              return 2;
                                                          }
                                                      } else {
                                                          return 4;
                                                      }
                                                  } else {
                                                      return 0;
                                                  }
                                              } else {
                                                  if (features[13] < 2976.562500f) {
                                                      if (features[12] < 890.625000f) {
                                                          if (features[2] < -0.147519f) {
                                                              return 4;
                                                          } else {
                                                              return 2;
                                                          }
                                                      } else {
                                                          return 4;
                                                      }
                                                  } else {
                                                      return 0;
                                                  }
                                              }
                                          } else {
                                              if (features[5] < 1.555760f) {
                                                  if (features[10] < 6.737532f) {
                                                      if (features[10] < 6.460877f) {
                                                          return 2;
                                                      } else {
                                                          if (features[11] < 2941.406250f) {
                                                              if (features[9] < 8.831927f) {
                                                                  return 2;
                                                              } else {
                                                                  return 0;
                                                              }
                                                          } else {
                                                              if (features[8] < 7.862961f) {
                                                                  return 4;
                                                              } else {
                                                                  return 0;
                                                              }
                                                          }
                                                      }
                                                  } else {
                                                      if (features[1] < 0.000665f) {
                                                          return 0;
                                                      } else {
                                                          if (features[0] < 0.026283f) {
                                                              return 4;
                                                          } else {
                                                              return 2;
                                                          }
                                                      }
                                                  }
                                              } else {
                                                  return 4;
                                              }
                                          }
                                      }
                                  } else {
                                      if (features[4] < 4.908589f) {
                                          if (features[5] < 1.468525f) {
                                              if (features[7] < 14.307400f) {
                                                  return 0;
                                              } else {
                                                  return 4;
                                              }
                                          } else {
                                              if (features[5] < 1.649912f) {
                                                  if (features[10] < 7.137980f) {
                                                      if (features[0] < 0.025864f) {
                                                          if (features[3] < 6.288707f) {
                                                              if (features[5] < 1.517546f) {
                                                                  if (features[7] < 18.852818f) {
                                                                      if (features[9] < 7.252930f) {
                                                                          if (features[9] < 7.105320f) {
                                                                              return 0;
                                                                          } else {
                                                                              return 4;
                                                                          }
                                                                      } else {
                                                                          return 0;
                                                                      }
                                                                  } else {
                                                                      if (features[1] < 0.000643f) {
                                                                          if (features[12] < 2015.625000f) {
                                                                              return 4;
                                                                          } else {
                                                                              return 0;
                                                                          }
                                                                      } else {
                                                                          return 2;
                                                                      }
                                                                  }
                                                              } else {
                                                                  return 0;
                                                              }
                                                          } else {
                                                              if (features[12] < 1078.125000f) {
                                                                  return 0;
                                                              } else {
                                                                  return 4;
                                                              }
                                                          }
                                                      } else {
                                                          if (features[0] < 0.026578f) {
                                                              return 2;
                                                          } else {
                                                              return 0;
                                                          }
                                                      }
                                                  } else {
                                                      if (features[12] < 386.718750f) {
                                                          return 2;
                                                      } else {
                                                          if (features[13] < 386.718750f) {
                                                              return 2;
                                                          } else {
                                                              if (features[5] < 1.492726f) {
                                                                  if (features[6] < 6.404491f) {
                                                                      if (features[13] < 1640.625000f) {
                                                                          return 0;
                                                                      } else {
                                                                          return 2;
                                                                      }
                                                                  } else {
                                                                      return 4;
                                                                  }
                                                              } else {
                                                                  if (features[9] < 11.337867f) {
                                                                      if (features[8] < 8.422413f) {
                                                                          if (features[10] < 7.458876f) {
                                                                              return 0;
                                                                          } else {
                                                                              if (features[11] < 1300.781250f) {
                                                                                  return 4;
                                                                              } else {
                                                                                  if (features[2] < -0.225139f) {
                                                                                      return 2;
                                                                                  } else {
                                                                                      return 0;
                                                                                  }
                                                                              }
                                                                          }
                                                                      } else {
                                                                          if (features[0] < 0.026690f) {
                                                                              if (features[10] < 7.454508f) {
                                                                                  if (features[8] < 9.451137f) {
                                                                                      return 0;
                                                                                  } else {
                                                                                      if (features[9] < 8.062318f) {
                                                                                          if (features[3] < 5.541782f) {
                                                                                              return 2;
                                                                                          } else {
                                                                                              return 0;
                                                                                          }
                                                                                      } else {
                                                                                          if (features[11] < 1171.875000f) {
                                                                                              return 4;
                                                                                          } else {
                                                                                              return 0;
                                                                                          }
                                                                                      }
                                                                                  }
                                                                              } else {
                                                                                  return 0;
                                                                              }
                                                                          } else {
                                                                              if (features[13] < 2917.968750f) {
                                                                                  return 0;
                                                                              } else {
                                                                                  return 2;
                                                                              }
                                                                          }
                                                                      }
                                                                  } else {
                                                                      return 4;
                                                                  }
                                                              }
                                                          }
                                                      }
                                                  }
                                              } else {
                                                  return 4;
                                              }
                                          }
                                      } else {
                                          if (features[13] < 2976.562500f) {
                                              if (features[10] < 6.902720f) {
                                                  if (features[3] < 5.735840f) {
                                                      return 0;
                                                  } else {
                                                      if (features[6] < 8.288977f) {
                                                          return 2;
                                                      } else {
                                                          return 4;
                                                      }
                                                  }
                                              } else {
                                                  if (features[5] < 1.528601f) {
                                                      if (features[2] < 0.171071f) {
                                                          if (features[12] < 1324.218750f) {
                                                              return 4;
                                                          } else {
                                                              return 2;
                                                          }
                                                      } else {
                                                          return 4;
                                                      }
                                                  } else {
                                                      if (features[3] < 6.797230f) {
                                                          if (features[1] < 0.000689f) {
                                                              if (features[2] < -0.110546f) {
                                                                  return 2;
                                                              } else {
                                                                  return 0;
                                                              }
                                                          } else {
                                                              if (features[3] < 6.061575f) {
                                                                  return 0;
                                                              } else {
                                                                  return 4;
                                                              }
                                                          }
                                                      } else {
                                                          if (features[3] < 7.292194f) {
                                                              if (features[3] < 7.189874f) {
                                                                  return 4;
                                                              } else {
                                                                  return 0;
                                                              }
                                                          } else {
                                                              return 4;
                                                          }
                                                      }
                                                  }
                                              }
                                          } else {
                                              return 0;
                                          }
                                      }
                                  }
                              } else {
                                  if (features[0] < 0.046166f) {
                                      if (features[5] < 1.680031f) {
                                          if (features[13] < 2988.281250f) {
                                              if (features[0] < 0.028147f) {
                                                  if (features[8] < 9.557536f) {
                                                      if (features[5] < 1.600293f) {
                                                          if (features[9] < 8.828138f) {
                                                              if (features[13] < 597.656250f) {
                                                                  if (features[11] < 1921.875000f) {
                                                                      if (features[6] < 7.973843f) {
                                                                          if (features[3] < 6.044961f) {
                                                                              return 2;
                                                                          } else {
                                                                              if (features[8] < 8.291828f) {
                                                                                  return 4;
                                                                              } else {
                                                                                  return 2;
                                                                              }
                                                                          }
                                                                      } else {
                                                                          return 0;
                                                                      }
                                                                  } else {
                                                                      if (features[13] < 398.437500f) {
                                                                          return 2;
                                                                      } else {
                                                                          return 0;
                                                                      }
                                                                  }
                                                              } else {
                                                                  if (features[10] < 7.143021f) {
                                                                      if (features[8] < 6.659559f) {
                                                                          if (features[8] < 6.512555f) {
                                                                              return 2;
                                                                          } else {
                                                                              if (features[7] < 21.296132f) {
                                                                                  return 2;
                                                                              } else {
                                                                                  return 4;
                                                                              }
                                                                          }
                                                                      } else {
                                                                          if (features[0] < 0.026888f) {
                                                                              if (features[10] < 6.812351f) {
                                                                                  return 2;
                                                                              } else {
                                                                                  return 0;
                                                                              }
                                                                          } else {
                                                                              return 2;
                                                                          }
                                                                      }
                                                                  } else {
                                                                      if (features[13] < 1347.656250f) {
                                                                          if (features[4] < 3.632319f) {
                                                                              return 0;
                                                                          } else {
                                                                              if (features[5] < 1.578083f) {
                                                                                  if (features[1] < 0.000734f) {
                                                                                      return 0;
                                                                                  } else {
                                                                                      if (features[9] < 7.349673f) {
                                                                                          if (features[5] < 1.522113f) {
                                                                                              return 0;
                                                                                          } else {
                                                                                              return 2;
                                                                                          }
                                                                                      } else {
                                                                                          return 2;
                                                                                      }
                                                                                  }
                                                                              } else {
                                                                                  return 4;
                                                                              }
                                                                          }
                                                                      } else {
                                                                          if (features[12] < 574.218750f) {
                                                                              if (features[0] < 0.027653f) {
                                                                                  return 2;
                                                                              } else {
                                                                                  return 0;
                                                                              }
                                                                          } else {
                                                                              return 2;
                                                                          }
                                                                      }
                                                                  }
                                                              }
                                                          } else {
                                                              if (features[9] < 8.940166f) {
                                                                  if (features[2] < 0.081769f) {
                                                                      return 0;
                                                                  } else {
                                                                      if (features[3] < 6.366064f) {
                                                                          return 2;
                                                                      } else {
                                                                          return 0;
                                                                      }
                                                                  }
                                                              } else {
                                                                  if (features[6] < 6.637556f) {
                                                                      return 0;
                                                                  } else {
                                                                      if (features[1] < 0.000744f) {
                                                                          return 2;
                                                                      } else {
                                                                          if (features[7] < 19.738431f) {
                                                                              return 2;
                                                                          } else {
                                                                              return 0;
                                                                          }
                                                                      }
                                                                  }
                                                              }
                                                          }
                                                      } else {
                                                          if (features[4] < 4.247416f) {
                                                              return 2;
                                                          } else {
                                                              if (features[5] < 1.623363f) {
                                                                  if (features[3] < 7.378613f) {
                                                                      return 2;
                                                                  } else {
                                                                      return 4;
                                                                  }
                                                              } else {
                                                                  return 4;
                                                              }
                                                          }
                                                      }
                                                  } else {
                                                      if (features[10] < 7.647541f) {
                                                          if (features[5] < 1.583415f) {
                                                              if (features[12] < 585.937500f) {
                                                                  if (features[3] < 5.570692f) {
                                                                      return 2;
                                                                  } else {
                                                                      return 0;
                                                                  }
                                                              } else {
                                                                  if (features[3] < 4.809103f) {
                                                                      return 0;
                                                                  } else {
                                                                      return 2;
                                                                  }
                                                              }
                                                          } else {
                                                              if (features[13] < 1253.906250f) {
                                                                  return 4;
                                                              } else {
                                                                  return 0;
                                                              }
                                                          }
                                                      } else {
                                                          if (features[1] < 0.000774f) {
                                                              if (features[6] < 6.424212f) {
                                                                  return 0;
                                                              } else {
                                                                  if (features[11] < 1160.156250f) {
                                                                      return 4;
                                                                  } else {
                                                                      if (features[4] < 4.803149f) {
                                                                          if (features[6] < 7.348683f) {
                                                                              return 2;
                                                                          } else {
                                                                              return 0;
                                                                          }
                                                                      } else {
                                                                          return 0;
                                                                      }
                                                                  }
                                                              }
                                                          } else {
                                                              if (features[3] < 6.917519f) {
                                                                  if (features[12] < 902.343750f) {
                                                                      return 2;
                                                                  } else {
                                                                      if (features[1] < 0.000788f) {
                                                                          return 2;
                                                                      } else {
                                                                          return 0;
                                                                      }
                                                                  }
                                                              } else {
                                                                  if (features[11] < 1078.125000f) {
                                                                      return 0;
                                                                  } else {
                                                                      return 4;
                                                                  }
                                                              }
                                                          }
                                                      }
                                                  }
                                              } else {
                                                  if (features[1] < 0.000850f) {
                                                      if (features[3] < 9.180473f) {
                                                          if (features[8] < 10.856871f) {
                                                              if (features[5] < 1.613437f) {
                                                                  if (features[10] < 8.619571f) {
                                                                      if (features[12] < 515.625000f) {
                                                                          if (features[1] < 0.000832f) {
                                                                              return 2;
                                                                          } else {
                                                                              if (features[6] < 6.221547f) {
                                                                                  return 0;
                                                                              } else {
                                                                                  return 2;
                                                                              }
                                                                          }
                                                                      } else {
                                                                          if (features[5] < 1.591490f) {
                                                                              return 2;
                                                                          } else {
                                                                              if (features[5] < 1.593434f) {
                                                                                  return 0;
                                                                              } else {
                                                                                  return 2;
                                                                              }
                                                                          }
                                                                      }
                                                                  } else {
                                                                      if (features[5] < 1.551455f) {
                                                                          if (features[12] < 1347.656250f) {
                                                                              return 0;
                                                                          } else {
                                                                              return 2;
                                                                          }
                                                                      } else {
                                                                          return 0;
                                                                      }
                                                                  }
                                                              } else {
                                                                  if (features[12] < 902.343750f) {
                                                                      return 2;
                                                                  } else {
                                                                      return 4;
                                                                  }
                                                              }
                                                          } else {
                                                              if (features[10] < 7.960739f) {
                                                                  return 2;
                                                              } else {
                                                                  if (features[7] < 19.009018f) {
                                                                      return 0;
                                                                  } else {
                                                                      if (features[4] < 4.569241f) {
                                                                          if (features[10] < 8.941107f) {
                                                                              return 0;
                                                                          } else {
                                                                              if (features[12] < 2964.843750f) {
                                                                                  return 2;
                                                                              } else {
                                                                                  return 0;
                                                                              }
                                                                          }
                                                                      } else {
                                                                          if (features[8] < 11.500159f) {
