


    // !!! This file is generated using emlearn !!!

    #include <eml_trees.h>
    

static const EmlTreesNode model_nodes[1194] = {
  { 0, 1581.841675f, 1, 112 },
  { 11, 621.093750f, 1, 11 },
  { 1, 1140468.187500f, 1, 9 },
  { 0, 742.868408f, 1, 3 },
  { 0, 694.792084f, -1, 1 },
  { 9, 187418.906250f, -2, -1 },
  { 10, 208455.757812f, 1, 2 },
  { 2, -0.121640f, -3, -2 },
  { 12, 1617.187500f, 1, 2 },
  { 7, 24.197208f, -1, -2 },
  { 1, 708490.656250f, -1, -3 },
  { 0, 1396.134460f, -3, -4 },
  { 6, 9.521154f, 1, 81 },
  { 9, 234718.945312f, 1, 42 },
  { 0, 685.043793f, -1, 1 },
  { 0, 831.637665f, 1, 28 },
  { 5, 1.494614f, 1, 11 },
  { 0, 702.053589f, 1, 3 },
  { 0, 700.985504f, 1, -1 },
  { 13, 2847.656250f, -2, -1 },
  { 13, 2906.250000f, 1, -3 },
  { 0, 802.132965f, 1, 5 },
  { 6, 7.612396f, -2, 1 },
  { 11, 1464.843750f, -2, 1 },
  { 0, 727.530640f, -2, 1 },
  { 0, 762.492188f, -3, -2 },
  { 9, 216026.406250f, -3, -2 },
  { 11, 1160.156250f, 1, 6 },
  { 11, 1042.968750f, 1, 3 },
  { 4, 4.997763f, 1, -2 },
  { 11, 843.750000f, -3, -1 },
  { 5, 1.574781f, -2, 1 },
  { 13, 1359.375000f, -2, -1 },
  { 11, 1394.531250f, -1, 1 },
  { 1, 525092.750000f, -1, 1 },
  { 7, 19.175920f, 1, 3 },
  { 8, 250271.703125f, 1, -3 },
  { 9, 191631.812500f, -3, -2 },
  { 12, 1042.968750f, -1, 1 },
  { 11, 1488.281250f, 1, 2 },
  { 13, 1406.250000f, -1, -3 },
  { 12, 1441.406250f, -2, 1 },
  { 5, 1.521553f, -3, -2 },
  { 4, 5.029877f, 1, 6 },
  { 8, 317336.500000f, 1, -2 },
  { 2, -0.407084f, -1, 1 },
  { 5, 1.585912f, 1, -2 },
  { 13, 539.062500f, 1, -3 },
  { 1, 784428.125000f, -1, -3 },
  { 3, 7.141535f, 1, 4 },
  { 12, 2953.125000f, 1, -2 },
  { 4, 5.120014f, 1, -3 },
  { 7, 21.039904f, -2, -3 },
  { 6, 9.212652f, -2, 1 },
  { 8, 232420.492188f, -3, -2 },
  { 13, 2964.843750f, 1, 37 },
  { 5, 1.620596f, 1, 32 },
  { 0, 879.650665f, 1, 20 },
  { 2, 0.075325f, 1, 10 },
  { 9, 240836.914062f, 1, 3 },
  { 4, 4.299687f, -1, 1 },
  { 0, 820.050690f, -2, -3 },
  { 13, 2917.968750f, 1, -3 },
  { 3, 8.308959f, 1, -2 },
  { 6, 7.616692f, 1, 3 },
  { 4, 4.429786f, -1, 1 },
  { 13, 2390.625000f, -1, -2 },
  { 3, 5.936892f, -3, -1 },
  { 4, 4.888389f, 1, 7 },
  { 11, 1183.593750f, 1, 2 },
  { 5, 1.534523f, -2, -1 },
  { 4, 4.752635f, 1, 3 },
  { 2, 0.099776f, 1, -1 },
  { 4, 4.402255f, -3, -1 },
  { 10, 174905.617188f, -3, -1 },
  { 1, 611176.187500f, -3, 1 },
  { 9, 288795.062500f, -2, -1 },
  { 12, 527.343750f, 1, 3 },
  { 3, 4.475272f, -1, 1 },
  { 11, 1382.812500f, -4, -3 },
  { 0, 954.659180f, 1, 6 },
  { 12, 1417.968750f, 1, 4 },
  { 2, 0.070747f, 1, 2 },
  { 8, 353621.203125f, -3, -1 },
  { 12, 1078.125000f, -3, -1 },
  { 3, 7.166836f, -3, -2 },
  { 0, 987.779358f, 1, -3 },
  { 1, 974614.437500f, -3, -1 },
  { 9, 328473.078125f, 1, -3 },
  { 1, 1174181.625000f, 1, -3 },
  { 1, 1065838.906250f, -2, 1 },
  { 11, 2050.781250f, -2, -3 },
  { 11, 1019.531250f, -3, -1 },
  { 0, 1462.041809f, 1, 17 },
  { 7, 30.172935f, 1, 10 },
  { 0, 959.495483f, 1, 6 },
  { 12, 2238.281250f, 1, 4 },
  { 7, 29.229265f, 1, -3 },
  { 12, 820.312500f, 1, -2 },
  { 1, 735489.281250f, -2, -3 },
  { 3, 8.277155f, -3, -2 },
  { 1, 974080.468750f, 1, 2 },
  { 6, 9.606757f, -2, -3 },
  { 5, 1.721921f, -3, -2 },
  { 10, 93144.036133f, -1, 1 },
  { 5, 1.695441f, 1, 3 },
  { 9, 344843.656250f, 1, -3 },
  { 1, 1285675.625000f, -2, -3 },
  { 10, 392368.125000f, -2, 1 },
  { 10, 393304.593750f, -3, -2 },
  { 6, 15.024593f, 1, -2 },
  { 5, 1.918869f, -3, -2 },
  { 9, 1212903.875000f, 1, -5 },
  { 8, 1229488.062500f, 1, -1 },
  { 0, 1633.018433f, 1, -4 },
  { 3, 6.925781f, -4, -3 },
  { 8, 1671647.625000f, 1, -5 },
  { 9, 437879.390625f, 1, 113 },
  { 11, 621.093750f, 1, 10 },
  { 0, 985.255127f, 1, 8 },
  { 4, 5.798051f, 1, 6 },
  { 5, 1.506942f, -1, 1 },
  { 11, 386.718750f, 1, -1 },
  { 4, 4.010085f, -1, 1 },
  { 0, 618.566833f, -1, 1 },
  { 8, 260736.210938f, -2, -3 },
  { 0, 419.492359f, -1, -2 },
  { 8, 367341.484375f, -3, -4 },
  { 7, 28.373488f, 1, 91 },
  { 9, 239595.562500f, 1, 47 },
  { 0, 687.827942f, 1, 6 },
  { 0, 685.043793f, 1, 3 },
  { 5, 1.459433f, 1, -1 },
  { 5, 1.456760f, -1, -2 },
  { 0, 685.964844f, -2, 1 },
  { 9, 169678.648438f, -3, -1 },
  { 1, 701723.875000f, 1, 27 },
  { 10, 206509.093750f, 1, 21 },
  { 13, 3117.187500f, 1, -1 },
  { 0, 818.194061f, 1, 16 },
  { 2, -0.247942f, 1, 2 },
  { 8, 182750.210938f, -3, -2 },
  { 6, 5.535027f, 1, 2 },
  { 9, 199332.578125f, -2, -1 },
  { 11, 2671.875000f, 1, 8 },
  { 11, 738.281250f, 1, 2 },
  { 1, 600683.750000f, -2, -3 },
  { 0, 696.240906f, 1, 3 },
  { 10, 178765.882812f, -2, 1 },
  { 13, 820.312500f, -1, -2 },
  { 5, 1.544319f, -2, 1 },
  { 3, 6.369128f, -3, -2 },
  { 11, 2906.250000f, -1, 1 },
  { 8, 199186.890625f, 1, -2 },
  { 3, 5.523328f, -2, -3 },
  { 7, 18.139647f, -3, 1 },
  { 2, 0.037223f, 1, -2 },
  { 11, 1312.500000f, -2, -3 },
  { 11, 1160.156250f, -2, 1 },
  { 8, 252782.320312f, 1, -1 },
  { 7, 18.648305f, 1, -2 },
  { 1, 599691.343750f, -1, 1 },
  { 1, 671498.656250f, -3, -2 },
  { 5, 1.589626f, 1, 11 },
  { 3, 7.157966f, 1, 9 },
  { 6, 9.752767f, 1, -2 },
  { 8, 267363.781250f, 1, 3 },
  { 0, 838.678680f, 1, -3 },
  { 2, -0.066554f, -3, -2 },
  { 0, 878.846313f, 1, -3 },
  { 3, 5.376372f, -1, 1 },
  { 9, 222749.007812f, 1, -3 },
  { 4, 4.044729f, -3, -1 },
  { 1, 888003.156250f, -2, -3 },
  { 9, 230729.468750f, -2, 1 },
  { 0, 937.388489f, -2, -3 },
  { 10, 238691.554688f, 1, 17 },
  { 5, 1.602823f, 1, -2 },
  { 1, 721976.562500f, 1, 9 },
  { 4, 4.890756f, 1, 6 },
  { 5, 1.475404f, -2, 1 },
  { 6, 7.339639f, 1, 3 },
  { 11, 1125.000000f, 1, -1 },
  { 3, 5.484984f, -1, -2 },
  { 4, 4.812528f, -3, -1 },
  { 11, 2050.781250f, -2, 1 },
  { 12, 1136.718750f, -1, -3 },
  { 4, 6.417645f, 1, 5 },
  { 1, 807248.593750f, 1, -3 },
  { 4, 4.751010f, 1, -1 },
  { 9, 258576.734375f, -3, 1 },
  { 13, 1031.250000f, -3, -2 },
  { 3, 8.461277f, -3, -2 },
  { 7, 15.092890f, -1, 1 },
  { 0, 884.406677f, 1, 6 },
  { 5, 1.502275f, 1, 2 },
  { 13, 738.281250f, -1, -2 },
  { 6, 6.213890f, 1, 2 },
  { 3, 5.357316f, -1, -2 },
  { 6, 10.360672f, -1, -2 },
  { 1, 2471683.875000f, 1, -4 },
  { 0, 953.796478f, 1, 8 },
  { 8, 333962.093750f, 1, 4 },
  { 10, 270233.796875f, 1, -1 },
  { 9, 309496.687500f, 1, -1 },
  { 3, 7.586317f, -3, -2 },
  { 6, 8.509421f, 1, -2 },
  { 8, 354356.546875f, 1, -1 },
  { 9, 341265.843750f, -1, -3 },
  { 2, -0.108788f, 1, 6 },
  { 7, 27.796475f, 1, -2 },
  { 13, 574.218750f, 1, 2 },
  { 5, 1.544317f, -3, -1 },
  { 0, 954.984741f, 1, -3 },
  { 10, 283765.648438f, -3, -1 },
  { 13, 2976.562500f, 1, -1 },
  { 5, 1.682583f, 1, -2 },
  { 3, 9.448496f, -3, 1 },
  { 10, 294611.125000f, -2, -3 },
  { 5, 1.664817f, 1, 4 },
  { 1, 964815.218750f, 1, -3 },
  { 1, 809403.812500f, -2, 1 },
  { 0, 913.223846f, -3, -2 },
  { 10, 94318.343750f, -1, 1 },
  { 8, 498311.906250f, 1, -3 },
  { 13, 714.843750f, 1, 2 },
  { 10, 294811.843750f, -2, -3 },
  { 0, 1414.467041f, -2, 1 },
  { 13, 1089.843750f, 1, -2 },
  { 1, 2161222.250000f, -3, -2 },
  { 6, 11.497029f, 1, 8 },
  { 1, 2293945.000000f, 1, 2 },
  { 7, 18.380930f, -1, -3 },
  { 8, 1208841.687500f, 1, -1 },
  { 0, 1581.841675f, 1, 2 },
  { 5, 1.542189f, -4, -3 },
  { 1, 2673905.750000f, 1, -4 },
  { 1, 2671807.750000f, -4, -3 },
  { 5, 1.849574f, -3, -2 },
  { 12, 621.093750f, 1, 33 },
  { 9, 1212903.875000f, 1, -5 },
  { 5, 1.484561f, 1, 7 },
  { 9, 460793.890625f, 1, 5 },
  { 1, 971076.968750f, 1, 3 },
  { 1, 549562.812500f, -1, 1 },
  { 10, 197703.562500f, -3, -1 },
  { 1, 2115840.562500f, -3, -4 },
  { 13, 621.093750f, -1, -4 },
  { 8, 426516.328125f, 1, 15 },
  { 6, 8.706775f, 1, 11 },
  { 11, 1441.406250f, 1, 5 },
  { 1, 2015007.687500f, 1, -4 },
  { 10, 162720.882812f, -1, 1 },
  { 9, 215931.546875f, 1, -1 },
  { 1, 525802.468750f, -1, -2 },
  { 9, 242799.132812f, 1, 3 },
  { 11, 2167.968750f, 1, -1 },
  { 9, 239611.664062f, -3, -1 },
  { 3, 5.114865f, 1, -3 },
  { 4, 3.829906f, -1, -4 },
  { 8, 131475.691406f, -1, 1 },
  { 4, 6.261808f, 1, -2 },
  { 9, 269073.562500f, -1, -3 },
  { 6, 5.277124f, 1, 3 },
  { 2, -0.094210f, 1, -1 },
  { 4, 3.088745f, -1, -4 },
  { 12, 410.156250f, 1, 2 },
  { 10, 304418.328125f, -1, -4 },
  { 5, 1.564386f, 1, -1 },
  { 7, 18.272264f, -1, 1 },
  { 4, 4.472852f, -4, 1 },
  { 10, 359875.843750f, -1, -4 },
  { 6, 9.709918f, 1, 69 },
  { 0, 877.733704f, 1, 42 },
  { 1, 473759.750000f, 1, 3 },
  { 1, 469672.031250f, -1, 1 },
  { 1, 470776.484375f, -2, -1 },
  { 4, 3.799106f, 1, 2 },
  { 8, 229030.031250f, -2, -1 },
  { 10, 205232.203125f, 1, 18 },
  { 1, 675763.531250f, 1, 15 },
  { 1, 525187.093750f, 1, 8 },
  { 11, 1160.156250f, 1, 4 },
  { 5, 1.538517f, 1, -1 },
  { 9, 208108.148438f, -2, 1 },
  { 5, 1.527936f, -1, -2 },
  { 7, 16.139867f, -2, 1 },
  { 13, 1230.468750f, 1, -1 },
  { 4, 4.394349f, -1, -2 },
  { 13, 2882.812500f, 1, 5 },
  { 11, 738.281250f, 1, 2 },
  { 3, 5.634636f, -3, -2 },
  { 10, 160572.796875f, 1, -2 },
  { 6, 8.126726f, -3, -2 },
  { 2, -0.185426f, -3, -2 },
  { 5, 1.544887f, 1, -2 },
  { 7, 21.288568f, -3, -2 },
  { 11, 1160.156250f, 1, 8 },
  { 9, 285809.687500f, 1, -1 },
  { 11, 949.218750f, 1, 2 },
  { 7, 16.834560f, -2, -1 },
  { 4, 4.166333f, 1, -2 },
  { 3, 5.720001f, 1, -1 },
  { 7, 18.108846f, -2, 1 },
  { 9, 242710.531250f, -3, -1 },
  { 1, 676592.250000f, 1, 4 },
  { 4, 5.853669f, 1, -2 },
  { 9, 237462.140625f, 1, -1 },
  { 2, -0.058827f, -2, -1 },
  { 10, 233413.539062f, 1, -1 },
  { 7, 21.912397f, 1, -2 },
  { 9, 213308.328125f, -2, 1 },
  { 5, 1.437869f, -2, 1 },
  { 13, 1089.843750f, 1, -3 },
  { 0, 824.792114f, -2, -3 },
  { 0, 1653.896118f, 1, -4 },
  { 13, 515.625000f, 1, 7 },
  { 8, 403586.828125f, 1, 5 },
  { 7, 22.007442f, 1, 3 },
  { 0, 894.059326f, -1, 1 },
  { 9, 372896.093750f, -3, -1 },
  { 11, 363.281250f, -3, -2 },
  { 1, 945020.812500f, -1, -3 },
  { 3, 9.172902f, 1, 16 },
  { 5, 1.650189f, 1, 13 },
  { 3, 7.206249f, 1, 8 },
  { 11, 2976.562500f, 1, -1 },
  { 9, 429103.312500f, 1, 4 },
  { 1, 902318.218750f, 1, -3 },
  { 9, 292995.468750f, -3, 1 },
  { 12, 1394.531250f, -1, -3 },
  { 1, 2560437.000000f, -3, 1 },
  { 9, 504100.125000f, -4, -3 },
  { 0, 992.297028f, 1, -3 },
  { 1, 773492.125000f, -3, 1 },
  { 10, 249792.070312f, 1, -3 },
  { 4, 5.770236f, -2, -3 },
  { 4, 5.430931f, 1, -2 },
  { 1, 1349313.937500f, -2, -3 },
  { 8, 363597.546875f, -2, 1 },
  { 5, 1.711190f, -3, -2 },
  { 7, 30.151786f, 1, 12 },
  { 9, 267470.671875f, 1, 4 },
  { 8, 293607.906250f, -2, 1 },
  { 13, 1511.718750f, 1, -3 },
  { 6, 10.178481f, -3, -2 },
  { 11, 539.062500f, -4, 1 },
  { 4, 6.056256f, 1, 2 },
  { 5, 1.665160f, -3, -2 },
  { 7, 29.166837f, 1, 3 },
  { 1, 938322.250000f, 1, -3 },
  { 7, 28.024915f, -2, -3 },
  { 0, 1029.188721f, -2, -3 },
  { 9, 103607.042969f, -1, 1 },
  { 7, 33.827808f, 1, 2 },
  { 1, 1467279.562500f, -2, -3 },
  { 1, 2268127.250000f, 1, -3 },
  { 13, 890.625000f, 1, -2 },
  { 2, 1.282688f, -2, -3 },
  { 0, 1585.917419f, 1, 106 },
  { 5, 1.643398f, 1, 90 },
  { 11, 644.531250f, 1, 12 },
  { 12, 1042.968750f, 1, 3 },
  { 0, 1150.009644f, -1, 1 },
  { 2, -0.105440f, -4, -3 },
  { 12, 1160.156250f, 1, 3 },
  { 11, 410.156250f, -2, 1 },
  { 3, 5.944163f, -1, -3 },
  { 0, 847.300720f, 1, 4 },
  { 2, 0.212303f, -1, 1 },
  { 7, 16.551577f, 1, -1 },
  { 9, 134012.089844f, -1, -2 },
  { 6, 5.684530f, -1, -3 },
  { 8, 250612.125000f, 1, 31 },
  { 0, 683.671875f, -1, 1 },
  { 4, 5.149286f, 1, 16 },
  { 0, 830.089081f, 1, 10 },
  { 5, 1.493298f, 1, 4 },
  { 11, 1160.156250f, -2, 1 },
  { 1, 498481.453125f, -1, 1 },
  { 10, 221463.773438f, -2, -1 },
  { 4, 4.389339f, 1, 2 },
  { 11, 878.906250f, -3, -1 },
  { 9, 177917.593750f, -3, 1 },
  { 1, 532001.625000f, -1, 1 },
  { 10, 228485.335938f, -2, -1 },
  { 2, 0.209923f, 1, 4 },
  { 0, 839.120636f, 1, -3 },
  { 10, 186904.539062f, -3, 1 },
  { 6, 6.734831f, -3, -2 },
  { 3, 5.861032f, -1, -3 },
  { 0, 874.665680f, 1, 10 },
  { 1, 479261.906250f, 1, 2 },
  { 5, 1.527538f, -2, -1 },
  { 6, 7.695659f, 1, 2 },
  { 10, 186071.296875f, -3, -2 },
  { 1, 742199.312500f, 1, 4 },
  { 13, 1710.937500f, -2, 1 },
  { 11, 1464.843750f, -2, 1 },
  { 1, 631957.312500f, -3, -2 },
  { 6, 9.053733f, -3, -2 },
  { 3, 8.134061f, 1, -2 },
  { 5, 1.584467f, -3, 1 },
  { 10, 206640.953125f, -3, -2 },
  { 1, 776905.906250f, 1, 23 },
  { 4, 4.448836f, 1, 10 },
  { 5, 1.471298f, -2, 1 },
  { 5, 1.508867f, 1, 5 },
  { 11, 1101.562500f, 1, 2 },
  { 11, 984.375000f, -1, -2 },
  { 10, 208899.757812f, 1, -1 },
  { 9, 277179.281250f, -3, -1 },
  { 4, 4.384267f, 1, -3 },
  { 8, 255303.203125f, 1, -1 },
  { 3, 5.721847f, -1, -3 },
  { 11, 1253.906250f, 1, 5 },
  { 9, 280022.515625f, 1, 3 },
  { 13, 808.593750f, 1, -2 },
  { 4, 4.752197f, -3, -2 },
  { 10, 245915.726562f, -2, -1 },
  { 0, 837.694611f, 1, 6 },
  { 4, 5.886429f, 1, -2 },
  { 1, 643983.343750f, 1, 2 },
  { 6, 7.023176f, -2, -1 },
  { 1, 666246.625000f, -2, 1 },
  { 6, 7.722209f, -3, -1 },
  { 8, 329947.875000f, -3, -1 },
  { 13, 515.625000f, 1, 5 },
  { 11, 1441.406250f, 1, -3 },
  { 7, 20.986471f, 1, 2 },
  { 1, 977658.468750f, -1, -3 },
  { 4, 4.676611f, -2, -3 },
  { 4, 3.600204f, 1, 3 },
  { 0, 889.955444f, -3, 1 },
  { 12, 2144.531250f, -1, -3 },
  { 11, 2976.562500f, 1, -1 },
  { 6, 10.114523f, 1, 13 },
  { 3, 9.407753f, 1, -2 },
  { 4, 4.215924f, 1, 7 },
  { 1, 905633.500000f, 1, -3 },
  { 7, 18.722745f, 1, 2 },
  { 6, 5.786160f, -1, -3 },
  { 2, 0.032389f, 1, -1 },
  { 13, 1898.437500f, -3, 1 },
  { 6, 6.397090f, -3, -1 },
  { 5, 1.629897f, 1, 3 },
  { 0, 884.247070f, 1, -3 },
  { 1, 779480.281250f, -3, -2 },
  { 9, 276420.781250f, -2, -3 },
  { 4, 6.219184f, -2, -3 },
  { 11, 714.843750f, 1, 2 },
  { 12, 621.093750f, -1, -3 },
  { 11, 2929.687500f, 1, -1 },
  { 6, 10.730195f, 1, 3 },
  { 0, 1118.281921f, -2, 1 },
  { 4, 5.382457f, -2, -3 },
  { 0, 1495.964111f, 1, 7 },
  { 11, 902.343750f, 1, 2 },
  { 7, 33.028525f, -3, -2 },
  { 13, 937.500000f, 1, 2 },
  { 13, 843.750000f, -2, -3 },
  { 5, 1.666794f, 1, -2 },
  { 1, 1365607.968750f, -2, -3 },
  { 1, 2396703.500000f, 1, -2 },
  { 12, 1476.562500f, -2, -3 },
  { 0, 2267.097046f, 1, 9 },
  { 10, 762923.656250f, 1, -1 },
  { 3, 4.162433f, -5, 1 },
  { 9, 1139705.093750f, 1, -5 },
  { 10, 527593.437500f, 1, 3 },
  { 0, 1634.809509f, 1, -4 },
  { 6, 8.525335f, -4, -3 },
  { 7, 24.367548f, -4, 1 },
  { 7, 24.813303f, -3, -4 },
  { 5, 1.530250f, -5, -4 },
  { 9, 1192122.625000f, 1, -5 },
  { 9, 440885.031250f, 1, 107 },
  { 12, 632.812500f, 1, 22 },
  { 4, 5.295545f, 1, 17 },
  { 10, 344658.703125f, 1, 15 },
  { 7, 17.992818f, 1, 4 },
  { 8, 313061.234375f, -1, 1 },
  { 4, 3.733039f, -1, 1 },
  { 5, 1.478574f, -3, -1 },
  { 9, 163779.953125f, -1, 1 },
  { 7, 18.023388f, -2, 1 },
  { 13, 363.281250f, 1, 2 },
  { 6, 7.799561f, -3, -2 },
  { 12, 386.718750f, 1, 3 },
  { 6, 7.638446f, 1, -2 },
  { 13, 3105.468750f, -3, -1 },
  { 0, 1395.315613f, 1, -4 },
  { 12, 550.781250f, -1, 1 },
  { 7, 20.761572f, -1, -3 },
  { 0, 1216.680267f, -1, -4 },
  { 1, 528959.343750f, -1, 1 },
  { 9, 369477.031250f, 1, -4 },
  { 1, 868115.781250f, 1, -3 },
  { 12, 398.437500f, -2, -1 },
  { 6, 10.034181f, 1, 76 },
  { 1, 770584.031250f, 1, 53 },
  { 8, 174222.210938f, 1, 5 },
  { 13, 1253.906250f, 1, -1 },
  { 4, 3.984148f, 1, -1 },
  { 6, 5.780259f, -1, 1 },
  { 0, 597.806961f, -1, -3 },
  { 0, 685.043793f, -1, 1 },
  { 0, 824.085724f, 1, 31 },
  { 9, 230322.578125f, 1, 16 },
  { 13, 3093.750000f, 1, -1 },
  { 2, -0.451008f, -1, 1 },
  { 5, 1.505179f, 1, 4 },
  { 4, 4.126039f, 1, -2 },
  { 1, 643666.125000f, 1, -3 },
  { 13, 2707.031250f, -2, -3 },
  { 7, 20.225408f, 1, 4 },
  { 0, 723.985138f, 1, 2 },
  { 9, 194011.414062f, -2, -1 },
  { 9, 209306.679688f, -3, -2 },
  { 4, 4.197076f, -1, 1 },
  { 9, 210574.320312f, -2, 1 },
  { 5, 1.559124f, -2, 1 },
  { 0, 727.374115f, -1, 1 },
  { 8, 224763.539062f, -3, -2 },
  { 6, 6.768200f, 1, 8 },
  { 3, 4.788417f, 1, 2 },
  { 0, 724.245270f, -1, -2 },
  { 2, -0.093372f, -1, 1 },
  { 2, -0.053953f, -2, 1 },
  { 9, 241601.734375f, 1, -1 },
  { 0, 748.627014f, -1, 1 },
  { 8, 283749.171875f, -3, -2 },
  { 12, 1253.906250f, 1, 2 },
  { 9, 299425.593750f, -2, -1 },
  { 8, 277752.281250f, 1, -1 },
  { 9, 243537.148438f, 1, 2 },
  { 9, 232214.515625f, -1, -2 },
  { 4, 5.325381f, -3, -2 },
  { 6, 7.785273f, 1, 12 },
  { 4, 3.814046f, -1, 1 },
  { 5, 1.562883f, 1, 9 },
  { 8, 328296.968750f, 1, -1 },
  { 7, 16.654274f, 1, 2 },
  { 3, 5.175943f, -2, -1 },
  { 9, 250353.296875f, 1, 2 },
  { 2, 0.193832f, -3, -2 },
  { 11, 1253.906250f, 1, 2 },
  { 7, 19.774335f, -2, -1 },
  { 10, 224351.632812f, -3, -2 },
  { 10, 208421.242188f, -2, -1 },
  { 7, 22.772457f, 1, -2 },
  { 3, 5.811063f, -3, 1 },
  { 8, 257258.351562f, -2, -1 },
  { 5, 1.651033f, 1, 21 },
  { 11, 503.906250f, 1, 2 },
  { 0, 1493.764648f, -3, -4 },
  { 4, 3.585627f, 1, 3 },
  { 8, 301410.375000f, -3, 1 },
  { 2, -0.155195f, -3, -1 },
  { 1, 2502317.375000f, 1, -4 },
  { 1, 827264.593750f, 1, 6 },
  { 4, 5.251266f, 1, 3 },
  { 10, 307154.687500f, 1, -1 },
  { 7, 24.104317f, -3, -2 },
  { 1, 776036.375000f, -3, 1 },
  { 11, 2250.000000f, -2, -1 },
  { 12, 2988.281250f, 1, -1 },
  { 0, 949.700836f, 1, 4 },
  { 6, 5.759833f, -1, 1 },
  { 10, 270233.796875f, -3, 1 },
  { 3, 5.531555f, -3, -1 },
  { 6, 6.600656f, 1, -3 },
  { 13, 574.218750f, 1, -3 },
  { 13, 421.875000f, -3, -1 },
  { 1, 1814472.500000f, -2, -3 },
  { 7, 32.400925f, 1, 6 },
  { 1, 933149.187500f, 1, 3 },
  { 13, 2636.718750f, -2, 1 },
  { 4, 6.852912f, -1, -3 },
  { 7, 30.948096f, -3, 1 },
  { 4, 7.211995f, -2, -3 },
  { 1, 2049417.250000f, -2, 1 },
  { 7, 41.902826f, -3, -2 },
  { 1, 2525599.000000f, 1, 5 },
  { 4, 6.574802f, 1, 3 },
  { 11, 656.250000f, 1, -3 },
  { 8, 497529.296875f, -4, -1 },
  { 6, 12.987647f, -3, -2 },
  { 4, 3.327859f, 1, 2 },
  { 11, 480.468750f, -4, -1 },
  { 1, 2673905.750000f, 1, -4 },
  { 9, 568408.562500f, -4, -3 },
  { 8, 1691045.000000f, 1, -5 },
  { 1, 2525906.500000f, 1, 113 },
  { 7, 27.529987f, 1, 94 },
  { 11, 621.093750f, 1, 15 },
  { 4, 5.890663f, 1, 12 },
  { 1, 965064.968750f, 1, 9 },
  { 9, 176089.203125f, -1, 1 },
  { 8, 183672.015625f, -2, 1 },
  { 12, 996.093750f, -1, 1 },
  { 12, 1113.281250f, -2, 1 },
  { 3, 5.157215f, 1, -1 },
  { 0, 804.762177f, -1, 1 },
  { 4, 3.733855f, -1, 1 },
  { 11, 468.750000f, -2, -3 },
  { 8, 384931.375000f, -3, 1 },
  { 6, 6.760174f, -1, -4 },
  { 5, 1.538496f, -2, 1 },
  { 9, 149220.052734f, -1, -3 },
  { 5, 1.485011f, 1, 18 },
  { 13, 1898.437500f, 1, 14 },
  { 12, 726.562500f, 1, 3 },
  { 9, 182767.078125f, -1, 1 },
  { 4, 3.669143f, -1, -3 },
  { 10, 206933.375000f, 1, 7 },
  { 8, 153086.203125f, -1, 1 },
  { 10, 186019.390625f, -2, 1 },
  { 8, 207102.109375f, -3, 1 },
  { 2, -0.100412f, -3, 1 },
  { 1, 682939.125000f, -2, 1 },
  { 4, 5.451951f, -3, -2 },
  { 0, 857.895630f, 1, -3 },
  { 3, 4.731531f, 1, -2 },
  { 10, 228569.296875f, -2, -1 },
  { 9, 251231.921875f, 1, -3 },
  { 1, 486488.500000f, -1, 1 },
  { 9, 240704.312500f, -2, -1 },
  { 0, 875.476929f, 1, 42 },
  { 7, 22.802172f, 1, 34 },
  { 11, 1160.156250f, 1, 13 },
  { 1, 473171.500000f, -1, 1 },
  { 0, 818.343628f, 1, 5 },
  { 10, 266919.718750f, 1, -1 },
  { 6, 5.607988f, -1, 1 },
  { 12, 2414.062500f, -2, 1 },
  { 3, 5.888732f, -3, -2 },
  { 10, 225458.546875f, 1, 4 },
  { 11, 820.312500f, -3, 1 },
  { 3, 5.590081f, -3, 1 },
  { 2, -0.261722f, -1, -2 },
  { 4, 4.050833f, 1, -1 },
  { 9, 305785.554688f, -2, -1 },
  { 1, 562240.250000f, 1, 4 },
  { 6, 6.993271f, -1, 1 },
  { 4, 4.563648f, -3, 1 },
  { 1, 554314.843750f, -1, -2 },
  { 9, 224097.085938f, 1, 4 },
  { 3, 6.418845f, 1, -2 },
  { 10, 181047.320312f, 1, -3 },
  { 7, 18.605323f, -2, -3 },
  { 1, 728213.531250f, 1, 10 },
  { 6, 7.424091f, 1, 6 },
  { 10, 195522.039062f, 1, 2 },
  { 6, 7.027881f, -2, -3 },
  { 5, 1.505325f, 1, -1 },
  { 12, 1136.718750f, 1, -1 },
  { 10, 216061.210938f, -3, -1 },
  { 7, 20.331636f, 1, 2 },
  { 13, 914.062500f, -3, -1 },
  { 5, 1.525293f, -2, -1 },
  { 9, 254881.656250f, -3, 1 },
  { 0, 867.872650f, -3, -1 },
  { 3, 6.334996f, -3, 1 },
  { 12, 3011.718750f, 1, -1 },
  { 4, 4.132757f, -1, 1 },
  { 1, 370671.054688f, -1, 1 },
  { 5, 1.567925f, -2, 1 },
  { 0, 769.119934f, 1, -2 },
  { 11, 1300.781250f, -2, -3 },
  { 13, 2988.281250f, 1, -1 },
  { 5, 1.655336f, 1, 16 },
  { 13, 503.906250f, 1, 4 },
  { 0, 1439.871460f, 1, -4 },
  { 6, 5.598713f, -1, 1 },
  { 13, 398.437500f, -3, -1 },
  { 11, 2976.562500f, 1, -1 },
  { 5, 1.620453f, 1, 9 },
  { 5, 1.551469f, -3, 1 },
  { 4, 3.584814f, -1, 1 },
  { 12, 1160.156250f, 1, -3 },
  { 6, 6.638058f, 1, 3 },
  { 13, 1464.843750f, -3, 1 },
  { 0, 973.196960f, -1, -3 },
  { 0, 903.845886f, 1, -3 },
  { 5, 1.582064f, -1, -3 },
  { 0, 1006.481903f, -2, -3 },
  { 6, 10.441472f, -2, -3 },
  { 1, 370013.476562f, -1, 1 },
  { 13, 2882.812500f, 1, 16 },
  { 1, 2273046.875000f, 1, 14 },
  { 8, 461852.015625f, 1, 10 },
  { 5, 1.655685f, 1, 7 },
  { 9, 282907.640625f, 1, 5 },
  { 9, 259469.507812f, 1, 3 },
  { 9, 238230.640625f, -2, 1 },
  { 11, 1652.343750f, -2, -3 },
  { 0, 906.908447f, -2, -3 },
  { 3, 11.680047f, -3, -2 },
  { 1, 2001700.312500f, -2, 1 },
  { 12, 1664.062500f, -2, -3 },
  { 6, 14.112569f, 1, 2 },
  { 10, 397812.234375f, -3, -2 },
  { 11, 1207.031250f, -2, -3 },
  { 4, 6.832397f, -2, -3 },
  { 7, 33.620106f, -3, -2 },
  { 7, 14.809875f, -1, 1 },
  { 9, 905504.593750f, 1, -1 },
  { 2, 0.104952f, -4, 1 },
  { 3, 6.967718f, -4, 1 },
  { 10, 524431.203125f, -4, -3 },
  { 0, 2277.408081f, 1, 92 },
  { 0, 1581.841675f, 1, 87 },
  { 11, 597.656250f, 1, 10 },
  { 8, 180687.945312f, -1, 1 },
  { 4, 4.841943f, 1, 5 },
  { 1, 1715813.937500f, 1, -4 },
  { 1, 551692.281250f, -1, 1 },
  { 8, 262144.812500f, 1, -1 },
  { 0, 844.271729f, -2, -3 },
  { 12, 890.625000f, 1, 2 },
  { 0, 1096.569733f, -1, -3 },
  { 1, 537079.515625f, -1, -2 },
  { 7, 29.163803f, 1, 65 },
  { 13, 2964.843750f, 1, -1 },
  { 0, 875.792816f, 1, 39 },
  { 0, 697.972626f, 1, 5 },
  { 7, 25.291512f, 1, -2 },
  { 5, 1.461380f, 1, -1 },
  { 13, 1289.062500f, 1, -1 },
  { 12, 1500.000000f, -2, -1 },
  { 9, 270581.312500f, 1, 30 },
  { 4, 3.795595f, 1, 3 },
  { 10, 205269.718750f, 1, -1 },
  { 13, 1277.343750f, -2, -1 },
  { 11, 1207.031250f, 1, 11 },
  { 1, 678939.906250f, 1, 3 },
  { 13, 726.562500f, 1, -2 },
  { 0, 799.550201f, -2, -3 },
  { 10, 182241.273438f, -3, 1 },
  { 7, 22.772457f, 1, -2 },
  { 0, 826.582855f, -1, 1 },
  { 7, 15.732903f, -3, 1 },
  { 5, 1.546045f, -2, 1 },
  { 11, 878.906250f, -3, 1 },
  { 12, 1699.218750f, -1, -2 },
  { 0, 840.911987f, 1, 14 },
  { 10, 224076.375000f, 1, 11 },
  { 13, 1277.343750f, 1, 3 },
  { 12, 1453.125000f, -2, 1 },
  { 4, 4.661707f, -3, -2 },
  { 4, 4.009453f, -1, 1 },
  { 11, 1488.281250f, 1, 4 },
  { 4, 4.866773f, 1, -3 },
  { 1, 551247.031250f, -1, 1 },
  { 10, 203269.687500f, -2, -3 },
  { 8, 263270.031250f, -2, 1 },
  { 1, 599541.781250f, -1, -3 },
  { 3, 4.863045f, -2, 1 },
  { 3, 7.730093f, -1, -2 },
  { 2, 0.480137f, -3, -2 },
  { 4, 4.516900f, -1, 1 },
  { 0, 801.147675f, -1, 1 },
  { 12, 1242.187500f, -2, -1 },
  { 1, 813935.375000f, 1, 9 },
  { 4, 4.866442f, 1, 3 },
  { 10, 259370.296875f, 1, -1 },
  { 3, 6.512719f, -3, -2 },
  { 3, 7.518708f, 1, -2 },
  { 2, 0.017917f, -2, 1 },
  { 8, 299803.375000f, 1, 2 },
  { 0, 900.567902f, -3, -2 },
  { 2, 0.325483f, -1, -3 },
  { 13, 515.625000f, 1, 5 },
  { 8, 366002.625000f, 1, 2 },
  { 13, 421.875000f, -3, -1 },
  { 2, -0.208562f, -3, 1 },
  { 1, 952304.843750f, -1, -3 },
  { 5, 1.654426f, 1, 8 },
  { 3, 11.086440f, 1, -2 },
  { 7, 28.858320f, 1, 5 },
  { 5, 1.630411f, 1, 3 },
  { 0, 948.395233f, 1, -3 },
  { 1, 899326.687500f, -3, -1 },
  { 9, 270158.906250f, -2, -3 },
  { 11, 1476.562500f, -2, -3 },
  { 8, 337380.687500f, -2, 1 },
  { 11, 1125.000000f, -3, -2 },
  { 8, 106686.629883f, -1, 1 },
  { 0, 1509.197632f, 1, -3 },
  { 5, 1.666794f, 1, 5 },
  { 11, 1664.062500f, 1, -3 },
  { 12, 1042.968750f, 1, 2 },
  { 0, 962.324280f, -2, -3 },
  { 10, 262757.031250f, -2, -3 },
  { 8, 511635.937500f, 1, 3 },
  { 12, 1699.218750f, -2, 1 },
  { 12, 1839.843750f, -3, -2 },
  { 10, 385928.421875f, -3, -2 },
  { 9, 905504.593750f, 1, 3 },
  { 7, 24.353495f, -4, 1 },
  { 11, 1687.500000f, -4, -3 },
  { 0, 1936.505310f, -1, -5 },
  { 13, 2203.125000f, 1, 3 },
  { 3, 5.645747f, -5, 1 },
  { 0, 2346.731323f, -4, -5 },
  { 5, 1.505672f, -5, -4 },
  { 0, 2292.222290f, 1, 123 },
  { 8, 473805.328125f, 1, 111 },
  { 1, 494660.125000f, 1, 9 },
  { 12, 679.687500f, -1, 1 },
  { 12, 1160.156250f, 1, 4 },
  { 8, 168632.914062f, -1, 1 },
  { 0, 686.447357f, -1, 1 },
  { 5, 1.497334f, -2, -3 },
  { 1, 487108.890625f, 1, -2 },
  { 4, 5.631964f, -1, 1 },
  { 8, 213411.234375f, -1, -2 },
  { 3, 8.623067f, 1, 81 },
  { 8, 252196.921875f, 1, 34 },
  { 2, 0.015963f, 1, 13 },
  { 3, 6.123864f, 1, 7 },
  { 5, 1.468149f, 1, 2 },
  { 11, 796.875000f, -3, -2 },
  { 5, 1.539141f, 1, -1 },
  { 10, 231583.343750f, 1, -1 },
  { 10, 221968.875000f, -3, 1 },
  { 3, 5.755999f, -3, -1 },
  { 0, 914.749481f, 1, -3 },
  { 1, 599147.562500f, -3, 1 },
  { 11, 1183.593750f, 1, 2 },
  { 6, 6.389095f, -3, -2 },
  { 2, -0.020334f, -1, -3 },
  { 0, 850.500916f, 1, 18 },
  { 7, 18.948298f, 1, 10 },
  { 10, 195362.171875f, 1, 6 },
  { 5, 1.503210f, 1, 4 },
  { 6, 7.612396f, 1, -3 },
  { 13, 714.843750f, 1, -2 },
  { 6, 5.857242f, -2, -3 },
  { 2, 0.230341f, -3, -2 },
  { 5, 1.478477f, -2, 1 },
  { 8, 217627.562500f, 1, -1 },
  { 6, 7.077933f, -2, -1 },
  { 6, 6.880905f, 1, 3 },
  { 0, 727.641144f, -1, 1 },
  { 6, 6.740250f, -2, -3 },
  { 11, 750.000000f, 1, 2 },
  { 8, 221649.468750f, -2, -3 },
  { 13, 1722.656250f, -2, 1 },
  { 7, 22.667514f, -2, -3 },
  { 9, 238658.335938f, 1, -2 },
  { 3, 8.074871f, -3, -2 },
  { 11, 609.375000f, 1, 6 },
  { 1, 1735073.625000f, 1, -4 },
  { 7, 21.404754f, 1, 2 },
  { 11, 363.281250f, -3, -1 },
  { 11, 386.718750f, 1, -1 },
  { 8, 268446.320312f, -2, -3 },
  { 0, 877.002350f, 1, 19 },
  { 6, 7.297871f, 1, 12 },
  { 11, 1160.156250f, 1, 4 },
  { 5, 1.511899f, 1, -1 },
  { 1, 647938.562500f, -2, 1 },
  { 5, 1.492260f, -3, -2 },
  { 12, 2894.531250f, 1, 6 },
  { 5, 1.481911f, 1, 2 },
  { 9, 255674.687500f, -2, -1 },
  { 12, 843.750000f, -3, 1 },
  { 13, 972.656250f, 1, -1 },
  { 7, 19.184717f, -1, -3 },
  { 0, 767.104645f, -1, -3 },
  { 2, 0.116034f, 1, 3 },
  { 3, 6.204320f, -3, 1 },
  { 13, 1207.031250f, -2, -1 },
  { 3, 5.039006f, -3, 1 },
  { 0, 787.416809f, 1, -2 },
  { 5, 1.533812f, -2, -1 },
  { 1, 2399503.375000f, 1, -4 },
  { 1, 912090.156250f, 1, 13 },
  { 7, 24.563052f, 1, 11 },
  { 8, 333447.046875f, 1, 7 },
  { 12, 2976.562500f, 1, -1 },
  { 9, 292858.343750f, 1, 3 },
  { 9, 220427.734375f, 1, -3 },
  { 13, 738.281250f, -2, -3 },
  { 11, 1417.968750f, -1, 1 },
  { 10, 259998.921875f, -3, -1 },
  { 7, 18.884721f, -1, 1 },
  { 8, 347819.953125f, -1, 1 },
  { 5, 1.564722f, -3, -1 },
  { 5, 1.601987f, -3, -2 },
  { 0, 985.103119f, 1, 5 },
  { 9, 338165.437500f, 1, 3 },
  { 2, -0.203201f, 1, -3 },
  { 5, 1.632074f, -3, -2 },
  { 10, 304871.781250f, -3, -1 },
  { 9, 291013.812500f, 1, -3 },
  { 9, 290845.437500f, -3, -2 },
  { 5, 1.697430f, 1, 16 },
  { 5, 1.592538f, 1, 2 },
  { 1, 924445.125000f, -2, -3 },
  { 10, 254071.046875f, 1, 6 },
  { 0, 1040.478210f, 1, -3 },
  { 1, 826696.125000f, -2, 1 },
  { 2, 0.509512f, -2, 1 },
  { 10, 236556.343750f, -2, 1 },
  { 4, 7.893869f, -3, -2 },
  { 7, 34.099522f, 1, -2 },
  { 9, 282315.031250f, 1, 2 },
  { 11, 1171.875000f, -2, -3 },
  { 3, 12.062389f, 1, 3 },
  { 3, 8.838468f, 1, -3 },
  { 1, 1057574.937500f, -2, -3 },
  { 6, 12.190776f, -2, -3 },
  { 1, 2193303.875000f, 1, 3 },
  { 9, 398446.125000f, -2, 1 },
  { 5, 1.846952f, -3, -2 },
  { 10, 383703.500000f, -3, -2 },
  { 4, 3.333068f, 1, 2 },
  { 13, 1523.437500f, -1, -4 },
  { 3, 9.795656f, 1, 6 },
  { 1, 2503446.750000f, 1, 4 },
  { 6, 6.191843f, 1, -3 },
  { 1, 1250127.250000f, -1, 1 },
  { 0, 1331.404053f, -3, -4 },
  { 9, 1139705.093750f, -4, -5 },
  { 11, 1113.281250f, 1, -2 },
  { 6, 15.183079f, 1, -2 },
  { 0, 1687.310608f, -3, -4 },
  { 0, 2320.275391f, 1, -5 },
  { 0, 2306.235718f, -5, -4 },
  { 9, 1212903.875000f, 1, -5 },
  { 0, 1581.939026f, 1, 116 },
  { 12, 632.812500f, 1, 17 },
  { 7, 18.968975f, 1, 9 },
  { 1, 1706012.625000f, 1, -4 },
  { 11, 1441.406250f, 1, 4 },
  { 13, 949.218750f, -1, 1 },
  { 13, 984.375000f, 1, -1 },
  { 5, 1.439117f, -2, -1 },
  { 7, 16.602269f, -3, 1 },
  { 12, 386.718750f, 1, -1 },
  { 9, 131983.155273f, -1, -3 },
  { 0, 736.806183f, -1, 1 },
  { 2, 0.105351f, 1, 3 },
  { 8, 335218.968750f, 1, -1 },
  { 8, 286029.796875f, -1, -3 },
  { 8, 239748.585938f, -2, 1 },
  { 6, 8.377648f, -3, 1 },
  { 9, 380031.312500f, -3, -4 },
  { 12, 1441.406250f, 1, 57 },
  { 1, 459924.046875f, 1, 4 },
  { 6, 5.543075f, 1, -1 },
  { 5, 1.462042f, 1, -1 },
  { 11, 949.218750f, -1, -2 },
  { 7, 27.445188f, 1, 41 },
  { 1, 770584.031250f, 1, 24 },
  { 11, 1160.156250f, 1, 12 },
  { 6, 7.147086f, 1, -2 },
  { 3, 5.739432f, 1, 7 },
  { 4, 3.716514f, 1, 2 },
  { 8, 242990.031250f, -2, -1 },
  { 5, 1.519002f, 1, -1 },
  { 0, 818.343628f, -2, 1 },
  { 0, 821.309845f, -3, 1 },
  { 10, 195637.304688f, -3, -2 },
  { 6, 6.818379f, -1, 1 },
  { 8, 275870.546875f, 1, -1 },
  { 6, 6.983845f, -2, -1 },
  { 1, 530958.250000f, 1, 2 },
  { 6, 7.743601f, -1, -2 },
  { 9, 252029.148438f, 1, 7 },
  { 13, 2859.375000f, 1, 5 },
  { 3, 5.631517f, -2, 1 },
  { 7, 20.018221f, -3, 1 },
  { 3, 6.622208f, 1, -2 },
  { 8, 243759.281250f, -3, -1 },
  { 12, 878.906250f, -3, -1 },
  { 0, 843.093262f, -1, 1 },
  { 11, 1289.062500f, -2, -1 },
  { 5, 1.665416f, 1, -2 },
  { 13, 515.625000f, 1, 4 },
  { 11, 1441.406250f, 1, -3 },
  { 9, 265460.281250f, 1, -1 },
  { 7, 20.843163f, -3, -2 },
  { 5, 1.620596f, 1, 10 },
  { 6, 5.441976f, 1, 2 },
  { 8, 301410.375000f, -3, -1 },
  { 11, 2976.562500f, 1, -1 },
  { 1, 813624.125000f, 1, 3 },
  { 12, 1113.281250f, -3, 1 },
  { 8, 287853.593750f, -2, -1 },
  { 1, 911896.156250f, 1, -3 },
  { 9, 290732.187500f, 1, -1 },
  { 10, 271206.640625f, -3, -1 },
  { 0, 1009.394287f, -2, -3 },
  { 11, 2882.812500f, 1, 9 },
  { 3, 8.390327f, -3, 1 },
  { 11, 914.062500f, 1, 2 },
  { 8, 384171.656250f, -2, -3 },
  { 13, 2964.843750f, 1, -3 },
  { 13, 925.781250f, 1, 2 },
  { 9, 316732.421875f, -2, -3 },
  { 5, 1.638657f, 1, -2 },
  { 9, 282907.640625f, -2, -3 },
  { 11, 2917.968750f, 1, -2 },
  { 0, 1116.460205f, -2, -3 },
  { 1, 679294.687500f, 1, 14 },
  { 1, 481833.312500f, -1, 1 },
  { 11, 738.281250f, 1, 3 },
  { 11, 398.437500f, 1, -1 },
  { 1, 603869.656250f, -2, -1 },
  { 13, 1675.781250f, 1, 7 },
  { 9, 237809.468750f, 1, 3 },
  { 5, 1.538671f, -2, 1 },
  { 1, 561316.125000f, -3, -2 },
  { 0, 818.724579f, 1, -2 },
  { 12, 1464.843750f, 1, -1 },
  { 8, 262049.570312f, -3, -2 },
  { 9, 233024.031250f, 1, -1 },
  { 12, 1511.718750f, -3, -2 },
  { 2, 0.377221f, 1, 20 },
  { 9, 261422.617188f, 1, 14 },
  { 5, 1.588955f, 1, 10 },
  { 12, 2964.843750f, 1, -2 },
  { 9, 184886.734375f, 1, 2 },
  { 10, 176628.070312f, -3, -2 },
  { 3, 7.090727f, 1, 5 },
  { 10, 250397.796875f, 1, 3 },
  { 4, 3.877017f, 1, -3 },
  { 3, 5.868728f, -3, -2 },
  { 1, 864092.281250f, -1, -3 },
  { 7, 23.261626f, -2, -3 },
  { 5, 1.638286f, 1, -2 },
  { 9, 251234.968750f, 1, -3 },
  { 11, 1019.531250f, -3, -2 },
  { 2, -0.284675f, 1, 2 },
  { 5, 1.641216f, -3, -2 },
  { 0, 871.630280f, 1, 2 },
  { 0, 840.967834f, -3, -1 },
  { 5, 1.750391f, -3, -2 },
  { 3, 13.995330f, 1, -2 },
  { 9, 314408.109375f, 1, 5 },
  { 6, 9.796647f, 1, 3 },
  { 11, 1265.625000f, 1, -3 },
  { 12, 2378.906250f, -3, -2 },
  { 4, 7.011052f, -2, -3 },
  { 4, 4.890934f, -1, -3 },
  { 6, 5.224039f, 1, 2 },
  { 5, 1.523592f, -4, -1 },
  { 1, 2677567.750000f, 1, -4 },
  { 3, 6.691170f, -4, -3 },
  { 10, 370680.859375f, 1, 115 },
  { 1, 482700.046875f, 1, 8 },
  { 0, 685.557251f, 1, 4 },
  { 11, 1066.406250f, -1, 1 },
  { 1, 433273.171875f, -1, 1 },
  { 1, 439827.375000f, -2, -1 },
  { 3, 4.945587f, -2, 1 },
  { 9, 169678.648438f, 1, -1 },
  { 6, 6.916447f, -3, -2 },
  { 7, 28.481206f, 1, 95 },
  { 0, 877.616211f, 1, 56 },
  { 9, 250386.343750f, 1, 45 },
  { 9, 208947.703125f, 1, 21 },
  { 11, 785.156250f, 1, 3 },
  { 10, 173025.710938f, -2, 1 },
  { 6, 8.037586f, -3, -2 },
  { 7, 19.090118f, 1, 12 },
  { 0, 838.617126f, 1, -3 },
  { 7, 19.015452f, 1, -1 },
  { 0, 710.207214f, 1, 3 },
  { 2, 0.189084f, 1, -2 },
  { 2, -0.061864f, -2, -1 },
  { 5, 1.527962f, 1, -1 },
  { 4, 3.803221f, 1, 2 },
  { 1, 514781.015625f, -2, -3 },
  { 11, 1464.843750f, -2, 1 },
  { 4, 4.912252f, 1, -3 },
  { 0, 806.337372f, -2, -3 },
  { 3, 6.344692f, 1, -2 },
  { 7, 21.420497f, 1, 3 },
  { 8, 211434.234375f, 1, -2 },
  { 9, 189616.085938f, -2, -3 },
  { 10, 180878.687500f, -2, -3 },
  { 3, 7.226755f, 1, -2 },
  { 0, 844.716980f, 1, 17 },
  { 11, 949.218750f, 1, 5 },
  { 11, 386.718750f, 1, 2 },
  { 12, 1253.906250f, -2, -1 },
  { 11, 644.531250f, -1, 1 },
  { 13, 2121.093750f, -3, -1 },
  { 11, 1160.156250f, 1, 3 },
  { 2, 0.020818f, 1, -2 },
  { 1, 567332.968750f, -1, -2 },
  { 8, 259831.296875f, 1, 7 },
  { 5, 1.490810f, 1, 2 },
  { 1, 513338.671875f, -1, -2 },
  { 12, 2167.968750f, 1, -2 },
  { 2, 0.125380f, 1, -3 },
  { 9, 222843.765625f, -3, 1 },
  { 8, 243171.406250f, -1, -2 },
  { 10, 202837.343750f, -3, -1 },
  { 9, 232331.109375f, 1, 2 },
  { 12, 785.156250f, -1, -3 },
  { 2, 0.293192f, 1, 2 },
  { 4, 4.396239f, -2, -3 },
  { 8, 274096.757812f, -2, -1 },
  { 3, 7.503925f, 1, -2 },
  { 5, 1.516289f, 1, 6 },
  { 2, 0.150720f, 1, 3 },
  { 0, 873.738190f, 1, -2 },
  { 8, 275672.125000f, -2, -1 },
  { 13, 738.281250f, -1, 1 },
  { 13, 2250.000000f, -2, -1 },
  { 10, 193346.304688f, -3, 1 },
  { 10, 230537.117188f, 1, -1 },
  { 4, 4.737037f, -1, -3 },
  { 1, 2205742.125000f, 1, 37 },
  { 0, 909.319580f, 1, 15 },
  { 9, 270436.250000f, 1, 10 },
  { 4, 4.985595f, 1, 4 },
  { 7, 21.505427f, 1, 2 },
  { 10, 247765.132812f, -3, -1 },
  { 7, 22.518344f, -2, -3 },
  { 7, 25.812041f, 1, -2 },
  { 11, 679.687500f, -1, 1 },
  { 3, 8.020796f, 1, -2 },
  { 2, 0.077176f, 1, -3 },
  { 10, 231197.851562f, -2, -3 },
  { 6, 8.057816f, 1, 3 },
  { 7, 17.091571f, 1, -1 },
  { 0, 895.066803f, -3, -1 },
  { 7, 24.129964f, -1, -2 },
  { 12, 515.625000f, 1, 3 },
  { 0, 1000.428467f, 1, -3 },
  { 11, 1441.406250f, -1, -3 },
  { 3, 8.232993f, 1, 15 },
  { 12, 2976.562500f, 1, -1 },
  { 3, 4.541057f, 1, 2 },
  { 11, 1687.500000f, -1, -3 },
  { 1, 911815.781250f, 1, 7 },
  { 10, 269876.187500f, 1, 4 },
  { 6, 8.456339f, -3, 1 },
  { 13, 1546.875000f, -3, 1 },
  { 13, 2273.437500f, -2, -3 },
  { 6, 8.233974f, 1, -3 },
  { 9, 341265.843750f, -1, -3 },
  { 0, 987.902130f, 1, -3 },
  { 0, 987.347870f, 1, -1 },
  { 8, 360268.000000f, -3, 1 },
  { 10, 322305.312500f, -3, -1 },
  { 7, 25.592242f, -2, 1 },
  { 1, 1037141.593750f, 1, -3 },
  { 8, 365559.281250f, -2, -3 },
  { 13, 445.312500f, -5, -4 },
  { 11, 1652.343750f, 1, 8 },
  { 6, 8.550208f, -3, 1 },
  { 13, 2871.093750f, 1, 4 },
  { 5, 1.680109f, 1, -2 },
  { 5, 1.679207f, 1, -3 },
  { 1, 1035598.968750f, -2, -3 },
  { 6, 12.556413f, 1, -2 },
  { 5, 1.661191f, -3, -2 },
  { 6, 11.131369f, 1, 2 },
  { 0, 924.425354f, -2, -3 },
  { 3, 12.329694f, -3, -2 },
  { 5, 1.494531f, 1, 10 },
  { 11, 515.625000f, 1, 6 },
  { 2, -0.157106f, 1, 3 },
  { 0, 2192.720215f, 1, -5 },
  { 2, -0.277173f, -1, -4 },
  { 12, 667.968750f, 1, -4 },
  { 8, 1212634.843750f, -4, -5 },
  { 3, 4.975407f, -4, 1 },
  { 12, 1113.281250f, 1, -3 },
  { 7, 16.524706f, -1, -4 },
  { 4, 6.674371f, 1, 12 },
  { 13, 363.281250f, 1, 2 },
  { 1, 3605131.000000f, -3, -5 },
  { 0, 1585.820068f, 1, 4 },
  { 13, 597.656250f, 1, 2 },
  { 6, 7.293648f, -1, -4 },
  { 7, 36.356210f, -3, -2 },
  { 1, 6184987.500000f, 1, -5 },
  { 6, 5.130512f, 1, 2 },
  { 9, 770999.750000f, -4, -1 },
  { 3, 6.928786f, -4, 1 },
  { 1, 2869412.625000f, -3, -4 },
  { 12, 1605.468750f, 1, 3 },
  { 5, 1.833924f, 1, -2 },
  { 9, 408477.671875f, -3, -4 },
  { 2, 0.240155f, -4, -3 } 
};

static const int32_t model_tree_roots[10] = { 0, 116, 239, 359, 475, 592, 711, 807, 932, 1053 };

static const uint8_t model_leaves[5] = { 0, 4, 2, 1, 3 };

EmlTrees model = {
        1194,
        (EmlTreesNode *)(model_nodes),	  
        10,
        (int32_t *)(model_tree_roots),
        5,
        (uint8_t *)(model_leaves),
        0,
        14,
        5,
    };

static inline int32_t model_tree_0(const float *features, int32_t features_length) {
          if (features[0] < 1581.841675f) {
              if (features[11] < 621.093750f) {
                  if (features[1] < 1140468.187500f) {
                      if (features[0] < 742.868408f) {
                          if (features[0] < 694.792084f) {
                              return 0;
                          } else {
                              if (features[9] < 187418.906250f) {
                                  return 4;
                              } else {
                                  return 0;
                              }
                          }
                      } else {
                          if (features[10] < 208455.757812f) {
                              if (features[2] < -0.121640f) {
                                  return 2;
                              } else {
                                  return 4;
                              }
                          } else {
                              if (features[12] < 1617.187500f) {
                                  if (features[7] < 24.197208f) {
                                      return 0;
                                  } else {
                                      return 4;
                                  }
                              } else {
                                  if (features[1] < 708490.656250f) {
                                      return 0;
                                  } else {
                                      return 2;
                                  }
                              }
                          }
                      }
                  } else {
                      if (features[0] < 1396.134460f) {
                          return 2;
                      } else {
                          return 1;
                      }
                  }
              } else {
                  if (features[6] < 9.521154f) {
                      if (features[9] < 234718.945312f) {
                          if (features[0] < 685.043793f) {
                              return 0;
                          } else {
                              if (features[0] < 831.637665f) {
                                  if (features[5] < 1.494614f) {
                                      if (features[0] < 702.053589f) {
                                          if (features[0] < 700.985504f) {
                                              if (features[13] < 2847.656250f) {
                                                  return 4;
                                              } else {
                                                  return 0;
                                              }
                                          } else {
                                              return 0;
                                          }
                                      } else {
                                          if (features[13] < 2906.250000f) {
                                              if (features[0] < 802.132965f) {
                                                  if (features[6] < 7.612396f) {
                                                      return 4;
                                                  } else {
                                                      if (features[11] < 1464.843750f) {
                                                          return 4;
                                                      } else {
                                                          if (features[0] < 727.530640f) {
                                                              return 4;
                                                          } else {
                                                              if (features[0] < 762.492188f) {
                                                                  return 2;
                                                              } else {
                                                                  return 4;
                                                              }
                                                          }
                                                      }
                                                  }
                                              } else {
                                                  if (features[9] < 216026.406250f) {
                                                      return 2;
                                                  } else {
                                                      return 4;
                                                  }
                                              }
                                          } else {
                                              return 2;
                                          }
                                      }
                                  } else {
                                      if (features[11] < 1160.156250f) {
                                          if (features[11] < 1042.968750f) {
                                              if (features[4] < 4.997763f) {
                                                  if (features[11] < 843.750000f) {
                                                      return 2;
                                                  } else {
                                                      return 0;
                                                  }
                                              } else {
                                                  return 4;
                                              }
                                          } else {
                                              if (features[5] < 1.574781f) {
                                                  return 4;
                                              } else {
                                                  if (features[13] < 1359.375000f) {
                                                      return 4;
                                                  } else {
                                                      return 0;
                                                  }
                                              }
                                          }
                                      } else {
                                          if (features[11] < 1394.531250f) {
                                              return 0;
                                          } else {
                                              if (features[1] < 525092.750000f) {
                                                  return 0;
                                              } else {
                                                  if (features[7] < 19.175920f) {
                                                      if (features[8] < 250271.703125f) {
                                                          if (features[9] < 191631.812500f) {
                                                              return 2;
                                                          } else {
                                                              return 4;
                                                          }
                                                      } else {
                                                          return 2;
                                                      }
                                                  } else {
                                                      if (features[12] < 1042.968750f) {
                                                          return 0;
                                                      } else {
                                                          if (features[11] < 1488.281250f) {
                                                              if (features[13] < 1406.250000f) {
                                                                  return 0;
                                                              } else {
                                                                  return 2;
                                                              }
                                                          } else {
                                                              if (features[12] < 1441.406250f) {
                                                                  return 4;
                                                              } else {
                                                                  if (features[5] < 1.521553f) {
                                                                      return 2;
                                                                  } else {
                                                                      return 4;
                                                                  }
                                                              }
                                                          }
                                                      }
                                                  }
                                              }
                                          }
                                      }
                                  }
                              } else {
                                  if (features[4] < 5.029877f) {
                                      if (features[8] < 317336.500000f) {
                                          if (features[2] < -0.407084f) {
                                              return 0;
                                          } else {
                                              if (features[5] < 1.585912f) {
                                                  if (features[13] < 539.062500f) {
                                                      if (features[1] < 784428.125000f) {
                                                          return 0;
                                                      } else {
                                                          return 2;
                                                      }
                                                  } else {
                                                      return 2;
                                                  }
                                              } else {
                                                  return 4;
                                              }
                                          }
                                      } else {
                                          return 4;
                                      }
                                  } else {
                                      if (features[3] < 7.141535f) {
                                          if (features[12] < 2953.125000f) {
                                              if (features[4] < 5.120014f) {
                                                  if (features[7] < 21.039904f) {
                                                      return 4;
                                                  } else {
                                                      return 2;
                                                  }
                                              } else {
                                                  return 2;
                                              }
                                          } else {
                                              return 4;
                                          }
                                      } else {
                                          if (features[6] < 9.212652f) {
                                              return 4;
                                          } else {
                                              if (features[8] < 232420.492188f) {
                                                  return 2;
                                              } else {
                                                  return 4;
                                              }
                                          }
                                      }
                                  }
                              }
                          }
                      } else {
                          if (features[13] < 2964.843750f) {
                              if (features[5] < 1.620596f) {
                                  if (features[0] < 879.650665f) {
                                      if (features[2] < 0.075325f) {
                                          if (features[9] < 240836.914062f) {
                                              if (features[4] < 4.299687f) {
                                                  return 0;
                                              } else {
                                                  if (features[0] < 820.050690f) {
                                                      return 4;
                                                  } else {
                                                      return 2;
                                                  }
                                              }
                                          } else {
                                              if (features[13] < 2917.968750f) {
                                                  if (features[3] < 8.308959f) {
                                                      if (features[6] < 7.616692f) {
                                                          if (features[4] < 4.429786f) {
                                                              return 0;
                                                          } else {
                                                              if (features[13] < 2390.625000f) {
                                                                  return 0;
                                                              } else {
                                                                  return 4;
                                                              }
                                                          }
                                                      } else {
                                                          if (features[3] < 5.936892f) {
                                                              return 2;
                                                          } else {
                                                              return 0;
                                                          }
                                                      }
                                                  } else {
                                                      return 4;
                                                  }
                                              } else {
                                                  return 2;
                                              }
                                          }
                                      } else {
                                          if (features[4] < 4.888389f) {
                                              if (features[11] < 1183.593750f) {
                                                  if (features[5] < 1.534523f) {
                                                      return 4;
                                                  } else {
                                                      return 0;
                                                  }
                                              } else {
                                                  if (features[4] < 4.752635f) {
                                                      if (features[2] < 0.099776f) {
                                                          if (features[4] < 4.402255f) {
                                                              return 2;
                                                          } else {
                                                              return 0;
                                                          }
                                                      } else {
                                                          return 0;
                                                      }
                                                  } else {
                                                      if (features[10] < 174905.617188f) {
                                                          return 2;
                                                      } else {
                                                          return 0;
                                                      }
                                                  }
                                              }
                                          } else {
                                              if (features[1] < 611176.187500f) {
                                                  return 2;
                                              } else {
                                                  if (features[9] < 288795.062500f) {
                                                      return 4;
                                                  } else {
                                                      return 0;
                                                  }
                                              }
                                          }
                                      }
                                  } else {
                                      if (features[12] < 527.343750f) {
                                          if (features[3] < 4.475272f) {
                                              return 0;
                                          } else {
                                              if (features[11] < 1382.812500f) {
                                                  return 1;
                                              } else {
                                                  return 2;
                                              }
                                          }
                                      } else {
                                          if (features[0] < 954.659180f) {
                                              if (features[12] < 1417.968750f) {
                                                  if (features[2] < 0.070747f) {
                                                      if (features[8] < 353621.203125f) {
                                                          return 2;
                                                      } else {
                                                          return 0;
                                                      }
                                                  } else {
                                                      if (features[12] < 1078.125000f) {
                                                          return 2;
                                                      } else {
                                                          return 0;
                                                      }
                                                  }
                                              } else {
                                                  if (features[3] < 7.166836f) {
                                                      return 2;
                                                  } else {
                                                      return 4;
                                                  }
                                              }
                                          } else {
                                              if (features[0] < 987.779358f) {
                                                  if (features[1] < 974614.437500f) {
                                                      return 2;
                                                  } else {
                                                      return 0;
                                                  }
                                              } else {
                                                  return 2;
                                              }
                                          }
                                      }
                                  }
                              } else {
                                  if (features[9] < 328473.078125f) {
                                      if (features[1] < 1174181.625000f) {
                                          if (features[1] < 1065838.906250f) {
                                              return 4;
                                          } else {
                                              if (features[11] < 2050.781250f) {
                                                  return 4;
                                              } else {
                                                  return 2;
                                              }
                                          }
                                      } else {
                                          return 2;
                                      }
                                  } else {
                                      return 2;
                                  }
                              }
                          } else {
                              if (features[11] < 1019.531250f) {
                                  return 2;
                              } else {
                                  return 0;
                              }
                          }
                      }
                  } else {
                      if (features[0] < 1462.041809f) {
                          if (features[7] < 30.172935f) {
                              if (features[0] < 959.495483f) {
                                  if (features[12] < 2238.281250f) {
                                      if (features[7] < 29.229265f) {
                                          if (features[12] < 820.312500f) {
                                              if (features[1] < 735489.281250f) {
                                                  return 4;
                                              } else {
                                                  return 2;
                                              }
                                          } else {
                                              return 4;
                                          }
                                      } else {
                                          return 2;
                                      }
                                  } else {
                                      if (features[3] < 8.277155f) {
                                          return 2;
                                      } else {
                                          return 4;
                                      }
                                  }
                              } else {
                                  if (features[1] < 974080.468750f) {
                                      if (features[6] < 9.606757f) {
                                          return 4;
                                      } else {
                                          return 2;
                                      }
                                  } else {
                                      if (features[5] < 1.721921f) {
                                          return 2;
                                      } else {
                                          return 4;
                                      }
                                  }
                              }
                          } else {
                              if (features[10] < 93144.036133f) {
                                  return 0;
                              } else {
                                  if (features[5] < 1.695441f) {
                                      if (features[9] < 344843.656250f) {
                                          if (features[1] < 1285675.625000f) {
                                              return 4;
                                          } else {
                                              return 2;
                                          }
                                      } else {
                                          return 2;
                                      }
                                  } else {
                                      if (features[10] < 392368.125000f) {
                                          return 4;
                                      } else {
                                          if (features[10] < 393304.593750f) {
                                              return 2;
                                          } else {
                                              return 4;
                                          }
                                      }
                                  }
                              }
                          }
                      } else {
                          if (features[6] < 15.024593f) {
                              if (features[5] < 1.918869f) {
                                  return 2;
                              } else {
                                  return 4;
                              }
                          } else {
                              return 4;
                          }
                      }
                  }
              }
          } else {
              if (features[9] < 1212903.875000f) {
                  if (features[8] < 1229488.062500f) {
                      if (features[0] < 1633.018433f) {
                          if (features[3] < 6.925781f) {
                              return 1;
                          } else {
                              return 2;
                          }
                      } else {
                          return 1;
                      }
                  } else {
                      return 0;
                  }
              } else {
                  return 3;
              }
          }
        }
        

static inline int32_t model_tree_1(const float *features, int32_t features_length) {
          if (features[8] < 1671647.625000f) {
              if (features[9] < 437879.390625f) {
                  if (features[11] < 621.093750f) {
                      if (features[0] < 985.255127f) {
                          if (features[4] < 5.798051f) {
                              if (features[5] < 1.506942f) {
                                  return 0;
                              } else {
                                  if (features[11] < 386.718750f) {
                                      if (features[4] < 4.010085f) {
                                          return 0;
                                      } else {
                                          if (features[0] < 618.566833f) {
                                              return 0;
                                          } else {
                                              if (features[8] < 260736.210938f) {
                                                  return 4;
                                              } else {
                                                  return 2;
                                              }
                                          }
                                      }
                                  } else {
                                      return 0;
                                  }
                              }
                          } else {
                              if (features[0] < 419.492359f) {
                                  return 0;
                              } else {
                                  return 4;
                              }
                          }
                      } else {
                          if (features[8] < 367341.484375f) {
                              return 2;
                          } else {
                              return 1;
                          }
                      }
                  } else {
                      if (features[7] < 28.373488f) {
                          if (features[9] < 239595.562500f) {
                              if (features[0] < 687.827942f) {
                                  if (features[0] < 685.043793f) {
                                      if (features[5] < 1.459433f) {
                                          if (features[5] < 1.456760f) {
                                              return 0;
                                          } else {
                                              return 4;
                                          }
                                      } else {
                                          return 0;
                                      }
                                  } else {
                                      if (features[0] < 685.964844f) {
                                          return 4;
                                      } else {
                                          if (features[9] < 169678.648438f) {
                                              return 2;
                                          } else {
                                              return 0;
                                          }
                                      }
                                  }
                              } else {
                                  if (features[1] < 701723.875000f) {
                                      if (features[10] < 206509.093750f) {
                                          if (features[13] < 3117.187500f) {
                                              if (features[0] < 818.194061f) {
                                                  if (features[2] < -0.247942f) {
                                                      if (features[8] < 182750.210938f) {
                                                          return 2;
                                                      } else {
                                                          return 4;
                                                      }
                                                  } else {
                                                      if (features[6] < 5.535027f) {
                                                          if (features[9] < 199332.578125f) {
                                                              return 4;
                                                          } else {
                                                              return 0;
                                                          }
                                                      } else {
                                                          if (features[11] < 2671.875000f) {
                                                              if (features[11] < 738.281250f) {
                                                                  if (features[1] < 600683.750000f) {
                                                                      return 4;
                                                                  } else {
                                                                      return 2;
                                                                  }
                                                              } else {
                                                                  if (features[0] < 696.240906f) {
                                                                      if (features[10] < 178765.882812f) {
                                                                          return 4;
                                                                      } else {
                                                                          if (features[13] < 820.312500f) {
                                                                              return 0;
                                                                          } else {
                                                                              return 4;
                                                                          }
                                                                      }
                                                                  } else {
                                                                      if (features[5] < 1.544319f) {
                                                                          return 4;
                                                                      } else {
                                                                          if (features[3] < 6.369128f) {
                                                                              return 2;
                                                                          } else {
                                                                              return 4;
                                                                          }
                                                                      }
                                                                  }
                                                              }
                                                          } else {
                                                              if (features[11] < 2906.250000f) {
                                                                  return 0;
                                                              } else {
                                                                  if (features[8] < 199186.890625f) {
                                                                      if (features[3] < 5.523328f) {
                                                                          return 4;
                                                                      } else {
                                                                          return 2;
                                                                      }
                                                                  } else {
                                                                      return 4;
                                                                  }
                                                              }
                                                          }
                                                      }
                                                  }
                                              } else {
                                                  if (features[7] < 18.139647f) {
                                                      return 2;
                                                  } else {
                                                      if (features[2] < 0.037223f) {
                                                          if (features[11] < 1312.500000f) {
                                                              return 4;
                                                          } else {
                                                              return 2;
                                                          }
                                                      } else {
                                                          return 4;
                                                      }
                                                  }
                                              }
                                          } else {
                                              return 0;
                                          }
                                      } else {
                                          if (features[11] < 1160.156250f) {
                                              return 4;
                                          } else {
                                              if (features[8] < 252782.320312f) {
                                                  if (features[7] < 18.648305f) {
                                                      if (features[1] < 599691.343750f) {
                                                          return 0;
                                                      } else {
                                                          if (features[1] < 671498.656250f) {
                                                              return 2;
                                                          } else {
                                                              return 4;
                                                          }
                                                      }
                                                  } else {
                                                      return 4;
                                                  }
                                              } else {
                                                  return 0;
                                              }
                                          }
                                      }
                                  } else {
                                      if (features[5] < 1.589626f) {
                                          if (features[3] < 7.157966f) {
                                              if (features[6] < 9.752767f) {
                                                  if (features[8] < 267363.781250f) {
                                                      if (features[0] < 838.678680f) {
                                                          if (features[2] < -0.066554f) {
                                                              return 2;
                                                          } else {
                                                              return 4;
                                                          }
                                                      } else {
                                                          return 2;
                                                      }
                                                  } else {
                                                      if (features[0] < 878.846313f) {
                                                          if (features[3] < 5.376372f) {
                                                              return 0;
                                                          } else {
                                                              if (features[9] < 222749.007812f) {
                                                                  if (features[4] < 4.044729f) {
                                                                      return 2;
                                                                  } else {
                                                                      return 0;
                                                                  }
                                                              } else {
                                                                  return 2;
                                                              }
                                                          }
                                                      } else {
                                                          return 2;
                                                      }
                                                  }
                                              } else {
                                                  return 4;
                                              }
                                          } else {
                                              if (features[1] < 888003.156250f) {
                                                  return 4;
                                              } else {
                                                  return 2;
                                              }
                                          }
                                      } else {
                                          if (features[9] < 230729.468750f) {
                                              return 4;
                                          } else {
                                              if (features[0] < 937.388489f) {
                                                  return 4;
                                              } else {
                                                  return 2;
                                              }
                                          }
                                      }
                                  }
                              }
                          } else {
                              if (features[10] < 238691.554688f) {
                                  if (features[5] < 1.602823f) {
                                      if (features[1] < 721976.562500f) {
                                          if (features[4] < 4.890756f) {
                                              if (features[5] < 1.475404f) {
                                                  return 4;
                                              } else {
                                                  if (features[6] < 7.339639f) {
                                                      if (features[11] < 1125.000000f) {
                                                          if (features[3] < 5.484984f) {
                                                              return 0;
                                                          } else {
                                                              return 4;
                                                          }
                                                      } else {
                                                          return 0;
                                                      }
                                                  } else {
                                                      if (features[4] < 4.812528f) {
                                                          return 2;
                                                      } else {
                                                          return 0;
                                                      }
                                                  }
                                              }
                                          } else {
                                              if (features[11] < 2050.781250f) {
                                                  return 4;
                                              } else {
                                                  if (features[12] < 1136.718750f) {
                                                      return 0;
                                                  } else {
                                                      return 2;
                                                  }
                                              }
                                          }
                                      } else {
                                          if (features[4] < 6.417645f) {
                                              if (features[1] < 807248.593750f) {
                                                  if (features[4] < 4.751010f) {
                                                      if (features[9] < 258576.734375f) {
                                                          return 2;
                                                      } else {
                                                          if (features[13] < 1031.250000f) {
                                                              return 2;
                                                          } else {
                                                              return 4;
                                                          }
                                                      }
                                                  } else {
                                                      return 0;
                                                  }
                                              } else {
                                                  return 2;
                                              }
                                          } else {
                                              if (features[3] < 8.461277f) {
                                                  return 2;
                                              } else {
                                                  return 4;
                                              }
                                          }
                                      }
                                  } else {
                                      return 4;
                                  }
                              } else {
                                  if (features[7] < 15.092890f) {
                                      return 0;
                                  } else {
                                      if (features[0] < 884.406677f) {
                                          if (features[5] < 1.502275f) {
                                              if (features[13] < 738.281250f) {
                                                  return 0;
                                              } else {
                                                  return 4;
                                              }
                                          } else {
                                              if (features[6] < 6.213890f) {
                                                  if (features[3] < 5.357316f) {
                                                      return 0;
                                                  } else {
                                                      return 4;
                                                  }
                                              } else {
                                                  if (features[6] < 10.360672f) {
                                                      return 0;
                                                  } else {
                                                      return 4;
                                                  }
                                              }
                                          }
                                      } else {
                                          if (features[1] < 2471683.875000f) {
                                              if (features[0] < 953.796478f) {
                                                  if (features[8] < 333962.093750f) {
                                                      if (features[10] < 270233.796875f) {
                                                          if (features[9] < 309496.687500f) {
                                                              if (features[3] < 7.586317f) {
                                                                  return 2;
                                                              } else {
                                                                  return 4;
                                                              }
                                                          } else {
                                                              return 0;
                                                          }
                                                      } else {
                                                          return 0;
                                                      }
                                                  } else {
                                                      if (features[6] < 8.509421f) {
                                                          if (features[8] < 354356.546875f) {
                                                              if (features[9] < 341265.843750f) {
                                                                  return 0;
                                                              } else {
                                                                  return 2;
                                                              }
                                                          } else {
                                                              return 0;
                                                          }
                                                      } else {
                                                          return 4;
                                                      }
                                                  }
                                              } else {
                                                  if (features[2] < -0.108788f) {
                                                      if (features[7] < 27.796475f) {
                                                          if (features[13] < 574.218750f) {
                                                              if (features[5] < 1.544317f) {
                                                                  return 2;
                                                              } else {
                                                                  return 0;
                                                              }
                                                          } else {
                                                              if (features[0] < 954.984741f) {
                                                                  if (features[10] < 283765.648438f) {
                                                                      return 2;
                                                                  } else {
                                                                      return 0;
                                                                  }
                                                              } else {
                                                                  return 2;
                                                              }
                                                          }
                                                      } else {
                                                          return 4;
                                                      }
                                                  } else {
                                                      if (features[13] < 2976.562500f) {
                                                          if (features[5] < 1.682583f) {
                                                              if (features[3] < 9.448496f) {
                                                                  return 2;
                                                              } else {
                                                                  if (features[10] < 294611.125000f) {
                                                                      return 4;
                                                                  } else {
                                                                      return 2;
                                                                  }
                                                              }
                                                          } else {
                                                              return 4;
                                                          }
                                                      } else {
                                                          return 0;
                                                      }
                                                  }
                                              }
                                          } else {
                                              return 1;
                                          }
                                      }
                                  }
                              }
                          }
                      } else {
                          if (features[5] < 1.664817f) {
                              if (features[1] < 964815.218750f) {
                                  if (features[1] < 809403.812500f) {
                                      return 4;
                                  } else {
                                      if (features[0] < 913.223846f) {
                                          return 2;
                                      } else {
                                          return 4;
                                      }
                                  }
                              } else {
                                  return 2;
                              }
                          } else {
                              if (features[10] < 94318.343750f) {
                                  return 0;
                              } else {
                                  if (features[8] < 498311.906250f) {
                                      if (features[13] < 714.843750f) {
                                          if (features[10] < 294811.843750f) {
                                              return 4;
                                          } else {
                                              return 2;
                                          }
                                      } else {
                                          if (features[0] < 1414.467041f) {
                                              return 4;
                                          } else {
                                              if (features[13] < 1089.843750f) {
                                                  if (features[1] < 2161222.250000f) {
                                                      return 2;
                                                  } else {
                                                      return 4;
                                                  }
                                              } else {
                                                  return 4;
                                              }
                                          }
                                      }
                                  } else {
                                      return 2;
                                  }
                              }
                          }
                      }
                  }
              } else {
                  if (features[6] < 11.497029f) {
                      if (features[1] < 2293945.000000f) {
                          if (features[7] < 18.380930f) {
                              return 0;
                          } else {
                              return 2;
                          }
                      } else {
                          if (features[8] < 1208841.687500f) {
                              if (features[0] < 1581.841675f) {
                                  if (features[5] < 1.542189f) {
                                      return 1;
                                  } else {
                                      return 2;
                                  }
                              } else {
                                  if (features[1] < 2673905.750000f) {
                                      if (features[1] < 2671807.750000f) {
                                          return 1;
                                      } else {
                                          return 2;
                                      }
                                  } else {
                                      return 1;
                                  }
                              }
                          } else {
                              return 0;
                          }
                      }
                  } else {
                      if (features[5] < 1.849574f) {
                          return 2;
                      } else {
                          return 4;
                      }
                  }
              }
          } else {
              return 3;
          }
        }
        

static inline int32_t model_tree_2(const float *features, int32_t features_length) {
          if (features[12] < 621.093750f) {
              if (features[9] < 1212903.875000f) {
                  if (features[5] < 1.484561f) {
                      if (features[9] < 460793.890625f) {
                          if (features[1] < 971076.968750f) {
                              if (features[1] < 549562.812500f) {
                                  return 0;
                              } else {
                                  if (features[10] < 197703.562500f) {
                                      return 2;
                                  } else {
                                      return 0;
                                  }
                              }
                          } else {
                              if (features[1] < 2115840.562500f) {
                                  return 2;
                              } else {
                                  return 1;
                              }
                          }
                      } else {
                          if (features[13] < 621.093750f) {
                              return 0;
                          } else {
                              return 1;
                          }
                      }
                  } else {
                      if (features[8] < 426516.328125f) {
                          if (features[6] < 8.706775f) {
                              if (features[11] < 1441.406250f) {
                                  if (features[1] < 2015007.687500f) {
                                      if (features[10] < 162720.882812f) {
                                          return 0;
                                      } else {
                                          if (features[9] < 215931.546875f) {
                                              if (features[1] < 525802.468750f) {
                                                  return 0;
                                              } else {
                                                  return 4;
                                              }
                                          } else {
                                              return 0;
                                          }
                                      }
                                  } else {
                                      return 1;
                                  }
                              } else {
                                  if (features[9] < 242799.132812f) {
                                      if (features[11] < 2167.968750f) {
                                          if (features[9] < 239611.664062f) {
                                              return 2;
                                          } else {
                                              return 0;
                                          }
                                      } else {
                                          return 0;
                                      }
                                  } else {
                                      if (features[3] < 5.114865f) {
                                          if (features[4] < 3.829906f) {
                                              return 0;
                                          } else {
                                              return 1;
                                          }
                                      } else {
                                          return 2;
                                      }
                                  }
                              }
                          } else {
                              if (features[8] < 131475.691406f) {
                                  return 0;
                              } else {
                                  if (features[4] < 6.261808f) {
                                      if (features[9] < 269073.562500f) {
                                          return 0;
                                      } else {
                                          return 2;
                                      }
                                  } else {
                                      return 4;
                                  }
                              }
                          }
                      } else {
                          if (features[6] < 5.277124f) {
                              if (features[2] < -0.094210f) {
                                  if (features[4] < 3.088745f) {
                                      return 0;
                                  } else {
                                      return 1;
                                  }
                              } else {
                                  return 0;
                              }
                          } else {
                              if (features[12] < 410.156250f) {
                                  if (features[10] < 304418.328125f) {
                                      return 0;
                                  } else {
                                      return 1;
                                  }
                              } else {
                                  if (features[5] < 1.564386f) {
                                      if (features[7] < 18.272264f) {
                                          return 0;
                                      } else {
                                          if (features[4] < 4.472852f) {
                                              return 1;
                                          } else {
                                              if (features[10] < 359875.843750f) {
                                                  return 0;
                                              } else {
                                                  return 1;
                                              }
                                          }
                                      }
                                  } else {
                                      return 0;
                                  }
                              }
                          }
                      }
                  }
              } else {
                  return 3;
              }
          } else {
              if (features[6] < 9.709918f) {
                  if (features[0] < 877.733704f) {
                      if (features[1] < 473759.750000f) {
                          if (features[1] < 469672.031250f) {
                              return 0;
                          } else {
                              if (features[1] < 470776.484375f) {
                                  return 4;
                              } else {
                                  return 0;
                              }
                          }
                      } else {
