
    // !!! This file is generated using emlearn !!!

    #include <eml_trees.h>
    

EmlTreesNode model_nodes[110] = {
  { 10, 52.1829719543457, 1, 109 },
  { 1, 0.04668769799172878, 2, 104 },
  { 1, 0.020883838646113873, 3, 12 },
  { 1, 0.02033773623406887, 4, 8 },
  { 0, 5.057039499282837, 5, 6 },
  { -1, 0, -1, -1 },
  { 3, 629.2875061035156, 7, 5 },
  { -1, 4, -1, -1 },
  { 7, 1.4741535186767578, 9, 11 },
  { 9, 6.3798747062683105, 10, 7 },
  { -1, 2, -1, -1 },
  { 1, 0.020343532785773277, 7, 5 },
  { 3, 508.9434356689453, 13, 84 },
  { 12, 0.0007439854962285608, 14, 60 },
  { 10, 8.228937149047852, 15, 44 },
  { 7, 1.4888877868652344, 16, 22 },
  { 12, 0.0006403783045243472, 17, 21 },
  { 10, 8.162849426269531, 18, 10 },
  { 5, 3046.875, 19, 5 },
  { 0, 3.5423696041107178, 20, 7 },
  { 1, 0.02183511760085821, 5, 7 },
  { 11, 6.402707099914551, 10, 7 },
  { 1, 0.02502650022506714, 23, 35 },
  { 0, 4.496706008911133, 24, 30 },
  { 10, 6.779786109924316, 25, 28 },
  { 8, 5.480044603347778, 26, 27 },
  { 0, 3.67341411113739, 7, 10 },
  { 12, 0.00048605690244585276, 5, 7 },
  { 13, 2.3978195190429688, 29, 5 },
  { 12, 0.0005264651263132691, 5, 7 },
  { 6, 2226.5625, 31, 34 },
  { 5, 597.65625, 5, 32 },
  { 13, 2.5659717321395874, 33, 7 },
  { 1, 0.02276559267193079, 7, 5 },
  { 5, 1125.0, 10, 7 },
  { 13, 3.7065463066101074, 36, 7 },
  { 11, 6.732488393783569, 37, 5 },
  { 3, 487.6529998779297, 38, 43 },
  { 8, 7.6489222049713135, 39, 7 },
  { 12, 0.000627503206487745, 40, 41 },
  { 8, 6.3130152225494385, 10, 5 },
  { 8, 7.204101085662842, 10, 42 },
  { 8, 7.308249235153198, 7, 10 },
  { 10, 7.616722345352173, 10, 7 },
  { 6, 644.53125, 5, 45 },
  { 8, 6.190252065658569, 46, 47 },
  { 12, 0.00048600530135445297, 5, 7 },
  { 5, 1441.40625, 48, 54 },
  { 7, 1.4733126759529114, 7, 49 },
  { 5, 386.71875, 50, 51 },
  { 7, 1.555618941783905, 10, 7 },
  { 6, 1464.84375, 5, 52 },
  { 4, 1593.75, 5, 53 },
  { 8, 7.078564405441284, 5, 10 },
  { 12, 0.0006297746149357408, 55, 57 },
  { 6, 1160.15625, 56, 5 },
  { 9, 5.917608022689819, 5, 7 },
  { 7, 1.5355281233787537, 10, 58 },
  { 3, 389.9190368652344, 5, 59 },
  { 1, 0.026608417741954327, 7, 10 },
  { 6, 539.0625, 61, 65 },
  { 6, 386.71875, 62, 64 },
  { 12, 0.0020647519268095493, 10, 63 },
  { -1, 1, -1, -1 },
  { 1, 0.039000384509563446, 5, 63 },
  { 7, 1.7423235774040222, 66, 7 },
  { 5, 2976.5625, 67, 83 },
  { 11, 4.794335126876831, 7, 68 },
  { 1, 0.027709300629794598, 69, 71 },
  { 11, 6.890866041183472, 10, 70 },
  { 1, 0.027353650890290737, 10, 5 },
  { 4, 316.40625, 7, 72 },
  { 6, 2988.28125, 73, 5 },
  { 5, 492.1875, 74, 75 },
  { 5, 386.71875, 10, 5 },
  { 7, 1.6775392293930054, 76, 82 },
  { 4, 515.625, 77, 80 },
  { 4, 386.71875, 78, 5 },
  { 11, 5.7787110805511475, 7, 79 },
  { 3, 492.51246643066406, 10, 7 },
  { 0, 3.6403088569641113, 81, 10 },
  { 0, 3.61521315574646, 10, 5 },
  { 12, 0.0012778165400959551, 7, 10 },
  { 13, 4.529879689216614, 5, 7 },
  { 7, 1.635011374950409, 85, 98 },
  { 12, 0.0007485228416044265, 86, 96 },
  { 0, 5.028613805770874, 87, 88 },
  { 2, 0.31964749097824097, 5, 7 },
  { 6, 785.15625, 89, 90 },
  { 11, 5.750732183456421, 5, 10 },
  { 5, 3035.15625, 91, 5 },
  { 11, 6.663873672485352, 92, 94 },
  { 3, 782.4680786132812, 7, 93 },
  { 11, 5.178276062011719, 7, 10 },
  { 8, 7.263987064361572, 7, 95 },
  { 7, 1.5455929040908813, 10, 5 },
  { 12, 0.0008200264710467309, 97, 10 },
  { 7, 1.6033486723899841, 10, 7 },
  { 3, 514.2947692871094, 99, 100 },
  { 11, 8.086950063705444, 7, 10 },
  { 7, 1.6518194079399109, 101, 102 },
  { 12, 0.0009032078087329865, 7, 10 },
  { 11, 8.576404094696045, 7, 103 },
  { 7, 1.8329094052314758, 10, 7 },
  { 7, 1.6372260451316833, 105, 108 },
  { 8, 8.056408882141113, 5, 106 },
  { 12, 0.0022874464048072696, 107, 63 },
  { 2, 0.37188102304935455, 63, 10 },
  { 13, 9.771472454071045, 10, 7 },
  { -1, 3, -1, -1 } 
};

int32_t model_tree_roots[1] = { 0 };

EmlTrees model = {
        110,
        model_nodes,	  
        1,
        model_tree_roots,
    };

static inline int32_t model_predict_tree_0(const float *features, int32_t features_length) {
          if (features[10] < 52.1829719543457) {
              if (features[1] < 0.04668769799172878) {
                  if (features[1] < 0.020883838646113873) {
                      if (features[1] < 0.02033773623406887) {
                          if (features[0] < 5.057039499282837) {
                              return 0;
                          } else {
                              if (features[3] < 629.2875061035156) {
                                  return 4;
                              } else {
                                  return 0;
                              }
                          }
                      } else {
                          if (features[7] < 1.4741535186767578) {
                              if (features[9] < 6.3798747062683105) {
                                  return 2;
                              } else {
                                  return 4;
                              }
                          } else {
                              if (features[1] < 0.020343532785773277) {
                                  return 4;
                              } else {
                                  return 0;
                              }
                          }
                      }
                  } else {
                      if (features[3] < 508.9434356689453) {
                          if (features[12] < 0.0007439854962285608) {
                              if (features[10] < 8.228937149047852) {
                                  if (features[7] < 1.4888877868652344) {
                                      if (features[12] < 0.0006403783045243472) {
                                          if (features[10] < 8.162849426269531) {
                                              if (features[5] < 3046.875) {
                                                  if (features[0] < 3.5423696041107178) {
                                                      if (features[1] < 0.02183511760085821) {
                                                          return 0;
                                                      } else {
                                                          return 4;
                                                      }
                                                  } else {
                                                      return 4;
                                                  }
                                              } else {
                                                  return 0;
                                              }
                                          } else {
                                              return 2;
                                          }
                                      } else {
                                          if (features[11] < 6.402707099914551) {
                                              return 2;
                                          } else {
                                              return 4;
                                          }
                                      }
                                  } else {
                                      if (features[1] < 0.02502650022506714) {
                                          if (features[0] < 4.496706008911133) {
                                              if (features[10] < 6.779786109924316) {
                                                  if (features[8] < 5.480044603347778) {
                                                      if (features[0] < 3.67341411113739) {
                                                          return 4;
                                                      } else {
                                                          return 2;
                                                      }
                                                  } else {
                                                      if (features[12] < 0.00048605690244585276) {
                                                          return 0;
                                                      } else {
                                                          return 4;
                                                      }
                                                  }
                                              } else {
                                                  if (features[13] < 2.3978195190429688) {
                                                      if (features[12] < 0.0005264651263132691) {
                                                          return 0;
                                                      } else {
                                                          return 4;
                                                      }
                                                  } else {
                                                      return 0;
                                                  }
                                              }
                                          } else {
                                              if (features[6] < 2226.5625) {
                                                  if (features[5] < 597.65625) {
                                                      return 0;
                                                  } else {
                                                      if (features[13] < 2.5659717321395874) {
                                                          if (features[1] < 0.02276559267193079) {
                                                              return 4;
                                                          } else {
                                                              return 0;
                                                          }
                                                      } else {
                                                          return 4;
                                                      }
                                                  }
                                              } else {
                                                  if (features[5] < 1125.0) {
                                                      return 2;
                                                  } else {
                                                      return 4;
                                                  }
                                              }
                                          }
                                      } else {
                                          if (features[13] < 3.7065463066101074) {
                                              if (features[11] < 6.732488393783569) {
                                                  if (features[3] < 487.6529998779297) {
                                                      if (features[8] < 7.6489222049713135) {
                                                          if (features[12] < 0.000627503206487745) {
                                                              if (features[8] < 6.3130152225494385) {
                                                                  return 2;
                                                              } else {
                                                                  return 0;
                                                              }
                                                          } else {
                                                              if (features[8] < 7.204101085662842) {
                                                                  return 2;
                                                              } else {
                                                                  if (features[8] < 7.308249235153198) {
                                                                      return 4;
                                                                  } else {
                                                                      return 2;
                                                                  }
                                                              }
                                                          }
                                                      } else {
                                                          return 4;
                                                      }
                                                  } else {
                                                      if (features[10] < 7.616722345352173) {
                                                          return 2;
                                                      } else {
                                                          return 4;
                                                      }
                                                  }
                                              } else {
                                                  return 0;
                                              }
                                          } else {
                                              return 4;
                                          }
                                      }
                                  }
                              } else {
                                  if (features[6] < 644.53125) {
                                      return 0;
                                  } else {
                                      if (features[8] < 6.190252065658569) {
                                          if (features[12] < 0.00048600530135445297) {
                                              return 0;
                                          } else {
                                              return 4;
                                          }
                                      } else {
                                          if (features[5] < 1441.40625) {
                                              if (features[7] < 1.4733126759529114) {
                                                  return 4;
                                              } else {
                                                  if (features[5] < 386.71875) {
                                                      if (features[7] < 1.555618941783905) {
                                                          return 2;
                                                      } else {
                                                          return 4;
                                                      }
                                                  } else {
                                                      if (features[6] < 1464.84375) {
                                                          return 0;
                                                      } else {
                                                          if (features[4] < 1593.75) {
                                                              return 0;
                                                          } else {
                                                              if (features[8] < 7.078564405441284) {
                                                                  return 0;
                                                              } else {
                                                                  return 2;
                                                              }
                                                          }
                                                      }
                                                  }
                                              }
                                          } else {
                                              if (features[12] < 0.0006297746149357408) {
                                                  if (features[6] < 1160.15625) {
                                                      if (features[9] < 5.917608022689819) {
                                                          return 0;
                                                      } else {
                                                          return 4;
                                                      }
                                                  } else {
                                                      return 0;
                                                  }
                                              } else {
                                                  if (features[7] < 1.5355281233787537) {
                                                      return 2;
                                                  } else {
                                                      if (features[3] < 389.9190368652344) {
                                                          return 0;
                                                      } else {
                                                          if (features[1] < 0.026608417741954327) {
                                                              return 4;
                                                          } else {
                                                              return 2;
                                                          }
                                                      }
                                                  }
                                              }
                                          }
                                      }
                                  }
                              }
                          } else {
                              if (features[6] < 539.0625) {
                                  if (features[6] < 386.71875) {
                                      if (features[12] < 0.0020647519268095493) {
                                          return 2;
                                      } else {
                                          return 1;
                                      }
                                  } else {
                                      if (features[1] < 0.039000384509563446) {
                                          return 0;
                                      } else {
                                          return 1;
                                      }
                                  }
                              } else {
                                  if (features[7] < 1.7423235774040222) {
                                      if (features[5] < 2976.5625) {
                                          if (features[11] < 4.794335126876831) {
                                              return 4;
                                          } else {
                                              if (features[1] < 0.027709300629794598) {
                                                  if (features[11] < 6.890866041183472) {
                                                      return 2;
                                                  } else {
                                                      if (features[1] < 0.027353650890290737) {
                                                          return 2;
                                                      } else {
                                                          return 0;
                                                      }
                                                  }
                                              } else {
                                                  if (features[4] < 316.40625) {
                                                      return 4;
                                                  } else {
                                                      if (features[6] < 2988.28125) {
                                                          if (features[5] < 492.1875) {
                                                              if (features[5] < 386.71875) {
                                                                  return 2;
                                                              } else {
                                                                  return 0;
                                                              }
                                                          } else {
                                                              if (features[7] < 1.6775392293930054) {
                                                                  if (features[4] < 515.625) {
                                                                      if (features[4] < 386.71875) {
                                                                          if (features[11] < 5.7787110805511475) {
                                                                              return 4;
                                                                          } else {
                                                                              if (features[3] < 492.51246643066406) {
                                                                                  return 2;
                                                                              } else {
                                                                                  return 4;
                                                                              }
                                                                          }
                                                                      } else {
                                                                          return 0;
                                                                      }
                                                                  } else {
                                                                      if (features[0] < 3.6403088569641113) {
                                                                          if (features[0] < 3.61521315574646) {
                                                                              return 2;
                                                                          } else {
                                                                              return 0;
                                                                          }
                                                                      } else {
                                                                          return 2;
                                                                      }
                                                                  }
                                                              } else {
                                                                  if (features[12] < 0.0012778165400959551) {
                                                                      return 4;
                                                                  } else {
                                                                      return 2;
                                                                  }
                                                              }
                                                          }
                                                      } else {
                                                          return 0;
                                                      }
                                                  }
                                              }
                                          }
                                      } else {
                                          if (features[13] < 4.529879689216614) {
                                              return 0;
                                          } else {
                                              return 4;
                                          }
                                      }
                                  } else {
                                      return 4;
                                  }
                              }
                          }
                      } else {
                          if (features[7] < 1.635011374950409) {
                              if (features[12] < 0.0007485228416044265) {
                                  if (features[0] < 5.028613805770874) {
                                      if (features[2] < 0.31964749097824097) {
                                          return 0;
                                      } else {
                                          return 4;
                                      }
                                  } else {
                                      if (features[6] < 785.15625) {
                                          if (features[11] < 5.750732183456421) {
                                              return 0;
                                          } else {
                                              return 2;
                                          }
                                      } else {
                                          if (features[5] < 3035.15625) {
                                              if (features[11] < 6.663873672485352) {
                                                  if (features[3] < 782.4680786132812) {
                                                      return 4;
                                                  } else {
                                                      if (features[11] < 5.178276062011719) {
                                                          return 4;
                                                      } else {
                                                          return 2;
                                                      }
                                                  }
                                              } else {
                                                  if (features[8] < 7.263987064361572) {
                                                      return 4;
                                                  } else {
                                                      if (features[7] < 1.5455929040908813) {
                                                          return 2;
                                                      } else {
                                                          return 0;
                                                      }
                                                  }
                                              }
                                          } else {
                                              return 0;
                                          }
                                      }
                                  }
                              } else {
                                  if (features[12] < 0.0008200264710467309) {
                                      if (features[7] < 1.6033486723899841) {
                                          return 2;
                                      } else {
                                          return 4;
                                      }
                                  } else {
                                      return 2;
                                  }
                              }
                          } else {
                              if (features[3] < 514.2947692871094) {
                                  if (features[11] < 8.086950063705444) {
                                      return 4;
                                  } else {
                                      return 2;
                                  }
                              } else {
                                  if (features[7] < 1.6518194079399109) {
                                      if (features[12] < 0.0009032078087329865) {
                                          return 4;
                                      } else {
                                          return 2;
                                      }
                                  } else {
                                      if (features[11] < 8.576404094696045) {
                                          return 4;
                                      } else {
                                          if (features[7] < 1.8329094052314758) {
                                              return 2;
                                          } else {
                                              return 4;
                                          }
                                      }
                                  }
                              }
                          }
                      }
                  }
              } else {
                  if (features[7] < 1.6372260451316833) {
                      if (features[8] < 8.056408882141113) {
                          return 0;
                      } else {
                          if (features[12] < 0.0022874464048072696) {
                              if (features[2] < 0.37188102304935455) {
                                  return 1;
                              } else {
                                  return 2;
                              }
                          } else {
                              return 1;
                          }
                      }
                  } else {
                      if (features[13] < 9.771472454071045) {
                          return 2;
                      } else {
                          return 4;
                      }
                  }
              }
          } else {
              return 3;
          }
        }
        

int32_t model_predict(const float *features, int32_t features_length) {

        int32_t votes[5] = {0,};
        int32_t _class = -1;

        _class = model_predict_tree_0(features, features_length); votes[_class] += 1;
    
        int32_t most_voted_class = -1;
        int32_t most_voted_votes = 0;
        for (int32_t i=0; i<5; i++) {

            if (votes[i] > most_voted_votes) {
                most_voted_class = i;
                most_voted_votes = votes[i];
            }
        }
        return most_voted_class;
    }
    